tree
version=v2
num_class=1
num_tree_per_iteration=1
label_index=0
max_feature_idx=8
objective=regression
feature_names=Age KM FuelType HP MetColor Automatic CC Doors Weight
feature_infos=[-2.9551748196812486:1.2936193129852771] [-1.8278492496168937:4.6532669638634134] 2:1:0 [-2.1702983121423713:6.0429181144229389] 1:0 1:0 [-1.4259935648809674:2.3149763342965377] [2:5] [-1.3769625762389988:10.309989424488604]
tree_sizes=497 642 641 732 835 695 727 636 723 676 784 826 668 694 702 820 686 774 726 760 714 864 688 699 691 710 767 803 710 641 706 702 757 616 676 552 822 771 823 613 735 753 761 790 477 480 824 750 780 757 391 729 690 850 699 802 777 554 587 524 482 810 720 566 599 710 624 973 864 673 628 693 690 716 846 752 772 546 814 672 719 565 699 660 789 784 653 722 509 682 466 637 689 749 754 636 904 557 765 757 488 621 640 755 505 547 594 698 735 685 739 541 765 780 755 625 579 747 744 702 755 549 764 654 549 695 813 645 667 574 590 696 744 627 837 488 612 439 729 760 470 702 494 642 639 661 768 590 697 582 487 557 684 629 685 625 562 568 568 641 630 583 768 608 615 700 748 700 734 489 788 504 681 721 670 758 805 716 468 548 762 606 502 752 775 761 649 754 754 567 696 767 728 699 645 785 719 649 536 544 683 703 492 730 504 595 543 816 760 618 723 567 833 589 763 636 735 562 413 696 696 641 807 623 691 543 539 728 620 747 831 688 546 721 650 615 689 595 740 740 646 696 474 695 787 743 804 705 395 696 825 555 768 616 783 623 820 781 778 626 551 700 694 804 876 815 630 638 721 752 547 706 731 575 681 714 506 597 742 783 673 677 672 760 674 754 786 490 411 726 713 790 633 633 782 570 714 565 597 618 492 664 631 643 573 756 723 754 410 638 675 610 762 701 697 597 834 548 643 640 764 734 692 617 532 547 534 613 637 567 752 589 754 633 725 571 780 482 667 674 678 550 619 624 758 745 700 691 693 708 657 672 622 571 536 795 646 592 686 465 626 756 794 466 687 723 758 675 642 691 411 638 630 781 751 702 696 545 634 725 779 638 659 677 619 868 728 816 699 697 647 626 575 645 829 629 605 669 722 787 901 662 617 764 624 480 632 466 863 707 754 714 505 618 822 630 546 716 679 612 671 658 609 714 544 659 658 468 803 860 565 609 773 535 642 647 798 601 453 529 548 549 823 735 598 605 904 757 842 675 538 773 757 566 640 616 464 720 747 634 677 575 426 704 629 715 707 550 798 540 701 709 819 694 701 718 548 514 567 785 698 449 780 814 700 767 610 774 742 759 598 564 761 679 683 750 657 824 627 682 658 764 712 690 631 540 739 622 772 573 594 720 751 535 730 579 758 626 508 578 758 844 559 735 471 844 591 844 701 484 692 702 797 556 588 756 776 772 656 731 505 842 776 682 611 835 501 659 687 632 704 665 756 562 595 545 620 640 700 724 703 711 669 451 612 676 639 682 616 626 723 762 765 647 754 605 751 633 647 692 638 623 756 764 834 685 701 569 685 776 697 708 792 692 547 786 503 782 553 555 755 556 693 739 636 739 631 884 624 690 841 751 598 624 745 810 714 674 555 789 729 430 473 685 600 483 765 697 658 679 711 547 596 686 806 730 757 650 546 579 691 724 764 533 602 709 778 752 629 631 624 618 805 693 482 510 565 631 493 735 505 721 624 568 708 650 671 617 625 602 711 670 626 690 525 612 707 688 780 754 632 585 664 684 666 708 566 635 711 756 683 637 698 689 623 755 606 696 804 546 742 609 611 616 648 686 651 587 753 625 696 607 540 694 783 751 715 670 688 649 768 626 844 618 513 642 747 551 715 614 819 687 605 651 683 771 543 600 773 763 766 760 601 484 552 638 691 926 791 752 331 739 544 770 668 600 687 631 688 705 648 759 623 549 724 590 493 613 651 734 686 688 542 630 688 613 674 541 773 713 585 352 724 703 483 616 596 636 631 625 670 565 660 796 747 773 620 795 673 642 682 711 649 756 567 770 748 663 665 729 608 567 633 764 840 816 655 690 678 474 766 768 681 640 544 665 772 695 696 633 747 798 759 565 651 562 864 717 581 622 782 702 761 803 676 491 611 780 730 694 629 662 739 497 717 750 783 760 833 746 746 736 469 407 679 761 709 821 692 526 692 660 626 551 622 682 577 598 525 632 497 411 611 754 708 659 612 620 586 657 724 546 645 603 785 654 603 800 595 691 740 601 639 763 644 771 667 857 650 702 491 744 664 595 750 494 596 580 696 555 712 625 663 676 523 599 788 685 728 619 721 781 706 698 738 572 811 648 721 801 562 745 647 791 775 700 636 678 485 664 666 602 722 556 821 747 772 510 542 755 716 690 697 692 671 772 570 550 835 530 666 818 554 682 639 449 704 519 521 657 414 646 767 704 690 724 682 833 691 709 728 588 628 759 618 770 711 693 601 746 655 624 559 823 689 698 752 483 691 723 730 633 664 691 634 605 661 707 714 682 755 758 701 472 646 494 529 720 621 632 730 470 636 763 752 727 600 361 709 711 533 617 745 608 624 766 415 700 660 546 675 636 738 771 622 795 644 562 553 588 728 833 620 677 633 767 569 525 563 654 637 466 752 622 731 614 537 452 491 741 771 688 522 693 617 634 607 676 715 553 486 723 335 746 844 648 680 642 551 707 633 816 695 701 621 678 696 644 719 688 699 627 677 643 564 547 705 758 434 660 544 681 563 681 568 640 748 624 690 693 535 778 625 659 815 527 695 775 770 635 713 644 734 783 539 685 586 536 643 685 835 694 622 737 768 821 744 482 707 674 844 747 533 757 644 489 679 359 603 472 613 530 731 552 564 737 414 475 571 760 550 647 812 841 765 632 691 598 688 393 868 636 496 540 599 686 676 650 799 741 674 764 644 486 787 734 548 678 654 737 712 642 494 601 674 803 601 621 659 551 336 624 779 626 666 588 650 750 605 791 479 706 524 681 863 634 469 574 617 672 686 764 492 544 582 462 546 625 774 819 657 610 534 674 645 643 680 802 555 473 761 693 659 649 476 683 549 524 572 673 749 473 733 556 554 766 776 539 705 699 688 852 588 566 697 708 634 649 414 775 621 700 641 863 637 511 844 668 614 589 528 695 479 454 535 695 832 666 651 534 617 749 635 729 737 639 599 775 567 570 685 691 606 735 731 559 697 609 598 802 678 622 610 540 670 496 680 702 772 623 609 640 692 600 475 398 617 531 527 768 685 846 566 639 544 722 700 626 739 556 669 596 599 625 603 681 774 556 689 532 674 617 655 618 669 473 465 708 661 699 787 771 555 673 685 559 724 537 690 687 548 653 662 557 675 423 614 857 702 529 634 606 621 603 591 515 480 689 674 604 751 768 600 655 807 559 690 689 574 546 697 609 773 541 632 714 673 618 681 627 825 767 505 478 745 717 615 618 764 770 556 581 761 737 560 696 686 683 625 410 625 641 560 718 670 673 526 750 696 626 548 803 748 629 857 612 647 597 690 787 744 638 485 719 686 550 579 631 676 544 576 745 405 697 606 691 495 571 535 573 452 768 696 696 795 620 688 730 551 754 667 632 660 639 706 748 739 549 501 620 676 382 718 754 782 510 763 889 674 609 582 576 618 712 665 596 685 723 609 498 570 749 631 594 537 492 677 707 592 568 738 569 747 668 863 477 569 614 665 692 592 765 758 701 661 770 682 552 521 710 441 661 625 594 705 480 623 607 632 586 663 732 786 741 694 460 580 466 560 583 657 627 564 632 751 613 610 734 604 701 699 693 766 698 793 583 630 711 595 666 744 601 700 547 488 651 681 543 662 612 630 550 690 624 629 491 683 537 531 681 488 681 551 844 608 481 707 338 457 732 599 710 685 482 676 541 637 613 728 766 602 738 762 626 544 690 693 642 632 569 714 588 534 574 571 661 550 691 700 501 640 576 664 591 790 628 747 691 647 654 680 678 608 762 548 718 690 551 766 728 597 559 595 621 679 642 391 537 741 726 602 526 830 650 650 704 591 635 693 569 674 670 548 718 646 678 722 525 605 759 689 636 691 717 833 602 673 586 669 495 741 573 754 645 667 626 722 597 560 620 726 541 760 688 691 603 633 701 674 640 683 586 547 684 676 473 607 635 674 615 550 687 681 671 676 558 741 559 539 686 571 613 472 591 760 731 674 698 605 635 626 487 627 659 704 646 690 747 482 670 666 583 517 762 668 656 544 716 636 731 571 597 670 649 670 589 726 711 647 585 689 590 619 650 676 664 763 655 591 465 574 645 763 548 385 698 622 655 675 443 615 495 647 822 684 578 583 636 623 541 737 400 677 755 547 609 395 481 644 473 728 553 628 685 615 622 688 631 481 623 634 627 643 676 582 697 600 736 689 720 734 701 591 583 662 655 523 671 579 489 690 541 692 741 680 530 693 739 492 587 545 659 702 593 620 626 586 536 776 551 423 624 787 592 642 621 636 557 779 695 516 532 673 562 671 684 899 479 686 433 637 525 493 613 569 701 533 602 492 498 601 624 751 608 663 552 675 618 829 573 606 629 516 653 759 598 547 654 532 646 767 512 668 474 622 840 701 706 635 666 679 666 613 601 476 474 553 707 813 631 641 738 731 547 542 644 675 653 662 604 547 558 583 530 746 629 707 666 737 629 551 687 647 578 515 704 704 637 625 717 624 562 630 380 608 669 544 590 530 473 561 664 558 808 414 549 536 636 622 502 674 652 440 753 732 692 770 644 740 674 780 599 772 621 601 694 734 772 700 719 693 556 675 676 675 608 661 609 467 621 707 668 478 586 540 748 770 701 664 627 732 561 770 734 547 653 679 535 750 606 756 710 616 632 710 482 802 612 647 706 486 692 489 616 549 748 658 742 498 741 606 736 536 622 663 486 669 675 790 580 677 686 474 669 703 514 730 671 571 554 669 671 681 546 680 612 695 575 617 640 711 725 749 548 709 549 666 468 692 598 558 747 540 686 765 806 637 596 661 763 678 553 593 488 707 639 660 754 612 570 622 741 689 681 514 538 502 675 618 650 610 528 606 688 616 528 684 754 498 564 624 575 580 590 771 684 655 611 642 748 604 584 817 498 730 559 660 597 607 621 819 530 605 616 682 681 651 550 559 549 753 547 715 645 673 592 714 586 450 634 566 530 537 780 528 386 676 686 744 892 598 737 617 681 528 641 549 528 604 754 693 621 576 646 578 619 489 478 547 646 628 570 597 747 417 479 541 726 415 703 608 672 590 619 596 764 495 638 632 691 598 737 745 739 682 735 658 612 748 810 570 614 623 458 706 605 688 687 452 666 571 697 557 677 604 699 757 635 616 673 671 677 838 592 525 608 606 692 535 662 647 686 640 582 649 738 674 552 653 493 760 627 561 514 484 622 828 683 610 620 693 625 552 510 775 734 765 673 595 600 694 596 727 677 605 606 591 475 570 637 247 625 795 634 596 545 591 555 643 663 388 547 685 577 774 466 771 654 589 549 610 756 547 610 446 787 531 615 515 593 657 728 703 723 631 591 555 613 632 668 609 539 581 749 673 771 825 745 679 578 671 623 388 622 635 689 676 644 670 608 407 658 598 608 667 535 638 547 603 694 538 671 614 675 698 601 558 619 495 816 606 419 536 616 683 741 516 717 673 777 564 468 610 615 682 524 530 532 759 618 609 459 668 706 616 565 524 533 789 604 701 710 539 745 604 707 797 618 481 605 670 460 742 720 478 614 746 472 479 549 596 608 777 740 736 458 612 434 571 552 680 551 690 722 542 676 535 631 535 479 739 563 684 582 766 700 561 607 690 603 541 536 659 605 654 739 461 580 684 627 588 671 611 478 606 462 649 714 490 682 463 650 528 607 594 535 474 693 590 629 672 548 613 763 824 614 528 701 548 528 603 618 750 708 617 710 613 620 457 776 497 647 633 628 494 537 698 687 399 471 860 782 671 629 557 609 559 561 595 798 475 685 670 480 550 605 545 461 531 826 584 705 652 779 709 527 703 843 735 607 616 524 499 668 758 604 687 549 632 617 672 617 566 604 552 515 685 474 718 655 584 660 551 772 607 437 659 659 556 672 700 357 676 698 555 609 616 548 692 634 589 622 629 699 665 499 578 770 500 565 741 692 600 416 568 690 573 599 535 677 524 488 692 666 658 682 610 676 625 726 610 661 729 591 550 653 546 532 578 553 626 898 595 592 656 758 677 690 778 619 544 544 785 576 682 585 623 726 603 646 433 617 620 696 728 646 566 607 655 665 663 613 637 743 728 467 785 756 593 612 713 687 494 624 741 758 529 594 631 477 457 599 694 660 720 462 600 511 558 590 658 666 746 488 627 548 601 539 715 708 531 514 613 674 595 632 827 622 731 410 666 483 728 778 587 617 519 545 723 623 740 654 729 517 619 489 606 419 470 567 586 761 536 639 539 585 674 556 770 590 612 678 672 608 623 641 558 727 621 597 537 593 426 690 571 453 589 706 592 594 663 674 590 695 683 630 699 699 663 547 806 697 596 716 642 538 628 473 684 417 831 780 600 684 531 661 666 337 499 672 502 567 667 733 482 702 834 464 591 731 567 608 696 698 652 696 702 608 516 609 660 763 746 671 524 529 701 663 641 599 657 628 688 754 650 558 576 693 393 647 619 706 574 571 500 587 607 548 665 531 688 589 670 529 550 663 688 624 724 464 386 538 598 570 658 633 681 532 474 585 410 761 575 813 632 251 652 754 538 604 459 534 670 836 668 697 565 338 536 529 683 605 756 525 497 650 528 629 544 758 556 592 463 536 552 698 569 464 837 611 586 645 698 478 522 651 673 661 462 541 593 589 734 721 594 470 592 661 751 721 514 701 664 659 699 594 480 555 565 493 473 575 610 718 522 700 582 513 607 475 549 643 678 657 623 621 708 676 619 691 545 631 577 382 729 667 639 675 533 683 685 623 660 630 704 733 510 631 593 688

Tree=0
num_leaves=5
num_cat=0
split_feature=0 0 0 8
split_gain=175.041 33.3907 4.378 1.88697
threshold=-1.3148175912467037 1.0000000180025095e-35 0.67512396455913748 -0.47431181195515953
decision_type=2 2 2 2
left_child=-1 3 -3 -2
right_child=1 2 -4 -5
leaf_value=0.063818047353290414 -0.0020911435286170453 -0.013389134845991696 -0.025175564081947179 0.011576728880462218
leaf_count=36 20 92 77 44
internal_value=0 -0.290141 -0.524499 0.311875
internal_count=269 233 169 64
shrinkage=0.0804663


Tree=1
num_leaves=7
num_cat=0
split_feature=0 0 8 1 0 1
split_gain=51.554 8.1239 7.35562 2.99474 1.3818 0.86871
threshold=-0.88455995755895434 0.62134176034816868 0.656377040147755 -0.1935343878387821 -0.18539130281636157 0.89441746160946767
decision_type=2 2 2 2 2 2
left_child=2 3 -1 4 -2 -5
right_child=1 -3 -4 5 -6 -7
leaf_value=0.014901136854234876 0.0082622964172782438 -0.013109669128645262 0.04399487978320938 -0.0018836564805892629 -0.00015013744969353355 -0.0099314588023016372
leaf_count=23 30 94 20 47 28 27
internal_value=0 -0.20542 0.97702 -0.0362729 0.122872 -0.174317
internal_count=269 226 43 132 58 74
shrinkage=0.0305204


Tree=2
num_leaves=7
num_cat=0
split_feature=0 8 0 3 0 0
split_gain=17.8896 5.22777 1.20176 0.604585 0.145749 0.0660486
threshold=-0.45430232387120495 0.99843417187636774 0.72890616877010606 1.0000000180025095e-35 0.083519718238481838 0.45999514771526268
decision_type=2 2 2 2 2 2
left_child=1 -1 3 -2 -5 -6
right_child=2 -3 -4 4 5 -7
leaf_value=0.0062376914645723936 -0.0063176107101724872 0.028188489351487475 -0.0090858937850058271 0.00016691996823074408 -0.0028940941814503012 -0
leaf_count=40 47 21 78 25 36 22
internal_value=0 0.442189 -0.168567 -0.0960534 -0.0290181 -0.0604815
internal_count=269 61 208 130 83 58
shrinkage=0.033158


Tree=3
num_leaves=8
num_cat=1
split_feature=0 3 0 7 8 4 0
split_gain=17.8069 1.6532 0.783079 0.206378 0.0389865 0.00737068 0.00411091
threshold=-1.3148175912467037 -0.5343324385582241 0.67512396455913748 4.5000000000000009 -0.56932768187977412 0 -0.56186673229314221
decision_type=2 2 2 2 2 1 2
left_child=-1 3 4 -2 -3 6 -6
right_child=1 2 -4 -5 5 -7 -8
leaf_value=0.019547568207890536 -0.0094661421805462692 -0.0012436538327751903 -0.0051277512180400329 -0.0029702465506551896 0.00061136935192884951 -0.00033628895511238509 0
leaf_count=33 52 26 51 24 21 21 41
internal_value=0 -0.132425 -0.0653869 -0.257887 -0.00724769 0 0.00864071
internal_count=269 236 160 76 109 83 62
cat_boundaries=0 1
cat_threshold=2
shrinkage=0.0305431


Tree=4
num_leaves=10
num_cat=0
split_feature=1 1 8 0 1 1 1 1 1
split_gain=8.15211 5.24796 0.72482 0.457745 0.371944 0.300402 0.0537353 0.054204 0.00606613
threshold=-1.1314731173041512 1.5908202652921068 -0.18926420218131557 0.083519718238481838 0.56663966126639542 -0.098090890664146488 -0.68336743167300595 -0.29984646824624261 0.048735000616101969
decision_type=2 2 2 2 2 2 2 2 2
left_child=-1 2 3 -2 6 -5 -4 -8 -9
right_child=1 -3 4 5 -6 -7 7 8 -10
leaf_value=0.014490860774527962 0 -0.016530373802698083 0.0037719158201456392 -0.00036698041266159162 -0.0020474441459533256 -0.0055062880709865767 -0 0.0021383575407421191 0
leaf_count=28 32 20 20 31 23 44 24 20 27
internal_value=0 -0.0742354 -0.023978 -0.0850499 0.0248894 -0.12768 0.0598939 0.025747 0.0460826
internal_count=269 241 221 107 114 75 91 71 47
shrinkage=0.0298181


Tree=5
num_leaves=8
num_cat=0
split_feature=0 1 8 1 1 0 1
split_gain=9.27649 1.58172 0.456478 0.234328 0.202929 0.108599 0.0587756
threshold=-1.7988574291454218 0.032078730115735907 -0.66434355180438875 1.4880154700260364 -0.71095896383093826 0.3524307392933253 0.99659547968297035
decision_type=2 2 2 2 2 2 2
left_child=-1 2 -2 6 -4 -6 -3
right_child=1 3 4 -5 5 -7 -8
leaf_value=0.020572127415393819 -0.0014418904959342315 -0.0032555668417620612 0.005059029094352894 -0.0081996205546634934 -0 0.0024889304179668147 -0
leaf_count=24 39 68 31 23 39 25 20
internal_value=0 -0.0343297 0.0329884 -0.124094 0.0744303 0.0214829 -0.0800649
internal_count=269 245 134 111 95 64 88
shrinkage=0.0340896


Tree=6
num_leaves=8
num_cat=1
split_feature=1 8 1 1 0 4 0
split_gain=1.40928 0.435169 0.781019 0.448562 0.0975712 0.0409915 0.0294394
threshold=0.56663966126639542 0.28581514744175773 -0.89172417330448661 -0.3220770550549778 0.2448663308713879 0 0.56755955613720011
decision_type=2 2 2 2 2 1 2
left_child=1 3 -3 -1 -2 6 -5
right_child=4 2 -4 5 -6 -7 -8
leaf_value=0.0031542750499539115 -0.0080025111000734186 0.00079930461554722271 -0.00634917339710225 -0 -0.002761107809342511 -0.0010508882139404002 0.0010275522450931504
leaf_count=64 21 23 24 27 47 35 28
internal_value=0 0.00561566 -0.0711357 0.0357992 -0.155973 -0 0.00463685
internal_count=269 201 47 154 68 90 55
cat_boundaries=0 1
cat_threshold=2
shrinkage=0.0316107


Tree=7
num_leaves=7
num_cat=0
split_feature=0 0 0 0 1 3
split_gain=23.9957 3.26709 2.64383 0.357692 0.148387 0.0344297
threshold=-0.93834216176992313 0.2448663308713879 -1.9602040417783277 -0.61564893650411101 -0.30343376749732226 0.46727932077900874
decision_type=2 2 2 2 2 2
left_child=2 3 -1 -2 -3 -5
right_child=1 4 -4 5 -6 -7
leaf_value=0.027136388945897202 0.0031622592731329374 -0.0017672621557238536 0.0093539710090153189 -0.0010365036974922133 -0.0063490780083714938 0
leaf_count=20 29 25 20 24 116 35
internal_value=0 -0.11705 0.713134 0.0241101 -0.211742 -0.00583549
internal_count=269 229 40 88 141 59
shrinkage=0.0271366


Tree=8
num_leaves=8
num_cat=1
split_feature=0 8 3 0 0 8 4
split_gain=2.72439 0.567889 0.140972 0.87182 0.36871 0.00898689 0.0080829
threshold=-1.8795307354618747 -0.66434355180438875 1.0000000180025095e-35 -0.13160909860539288 0.083519718238481838 1.0000000180025095e-35 0
decision_type=2 2 2 2 2 2 1
left_child=-1 -2 3 -3 -4 6 -6
right_child=1 2 4 -5 5 -7 -8
leaf_value=0.010525712705371979 -0.0031077407961422783 -0.0058295184432052543 0.0031816279377310241 0.0020077299704641251 -0.00073666008264899928 0 0
leaf_count=22 70 23 42 25 31 32 24
internal_value=0 -0.023028 0.00186919 -0.0367313 0.0240966 -0.00266768 -0.013102
internal_count=269 247 177 48 129 87 55
cat_boundaries=0 1
cat_threshold=2
shrinkage=0.0313259


Tree=9
num_leaves=8
num_cat=0
split_feature=0 8 1 8 0 0 0
split_gain=4.36114 2.67223 0.161735 0.231332 0.0950312 0.0793279 0.0152333
threshold=-0.45430232387120495 0.99843417187636774 -0.60232647424248198 0.095783407592528388 -1.2072531828247663 0.13730192244945053 1.1591638024578557
decision_type=2 2 2 2 2 2 2
left_child=1 4 -2 5 -1 -4 -7
right_child=2 -3 3 -5 -6 6 -8
leaf_value=0 -0.0042004732725114124 0.0176390533792452 0 0.0013996446304056201 0.0042179427442911579 -0.0019835348873296272 -0
leaf_count=20 22 22 28 31 34 92 20
internal_value=0 0.240376 -0.0384253 -0.0204181 0.0936757 -0.0416744 -0.0535642
internal_count=269 76 193 171 54 140 112
shrinkage=0.032832


Tree=10
num_leaves=9
num_cat=0
split_feature=1 1 1 1 0 1 1 1
split_gain=0.912271 0.128955 0.518496 0.328887 0.157035 0.058439 0.048126 0.0156022
threshold=0.97441823561402818 -1.1314731173041512 -0.81623086081243523 -0.47502402572647368 0.40621294350429399 1.75019503610866 -0.20683006573218879 0.040546890057875574
decision_type=2 2 2 2 2 2 2 2
left_child=1 -1 -3 -4 6 -2 -5 -6
right_child=5 2 3 4 7 -7 -8 -9
leaf_value=-0.0022557358967339215 -0.0017464832249902658 0.0057586478804050722 -0.0030276442076315048 0 8.3971586167704693e-06 -0.0080145149048042874 0.0029290683164019818 -0.00065444427277630579
leaf_count=21 26 22 39 23 30 20 40 48
internal_value=0 0.00350112 0.0154546 -0 0.0199157 -0.146265 0.0577382 -0
internal_count=269 223 202 180 141 46 63 78
shrinkage=0.0366775


Tree=11
num_leaves=10
num_cat=0
split_feature=1 1 3 8 3 1 1 0 8
split_gain=1.42881 0.849895 0.761983 0.204284 0.415551 0.172897 0.0996082 0.0903624 0.0521413
threshold=1.2984087014317971 -0.79678743215788461 0.46727932077900874 -1.0444070315028473 -0.90159008364854298 -0.45252672521877346 0.25154409730911004 0.45999514771526268 -0.37929594203054484
decision_type=2 2 2 2 2 2 2 2 2
left_child=1 2 -1 -3 -5 -6 8 -8 -7
right_child=-2 3 -4 4 5 6 7 -9 -10
leaf_value=-0 -0.0081115564282944492 -0.0036184050665317709 0.0077021503201726918 0.0036632738180015804 -0.0033536832738409396 -0 0 -0.0027975178324176658 0.0012588334332511858
leaf_count=20 24 21 30 27 26 28 21 25 47
internal_value=0 0.0102973 0.127632 -0.0151842 -0 -0.0246757 -0 -0.0427438 0.0134446
internal_count=269 245 50 195 174 147 121 46 75
shrinkage=0.0339794


Tree=12
num_leaves=7
num_cat=1
split_feature=0 2 8 1 1 1
split_gain=1.59195 0.986223 0.384622 0.128163 0.189533 0.0419025
threshold=-1.8795307354618747 0 0.095783407592528388 -0.51221725104714688 -0.091969811272899063 0.97441823561402818
decision_type=2 1 2 2 2 2
left_child=-1 2 3 -2 -5 -6
right_child=1 -3 -4 4 5 -7
leaf_value=0.0080935370374763324 0.00024738070842865244 -0.0064678805020140992 0.0027356470386761807 -0.0029703556019274303 0 -0.0013486592419367216
leaf_count=20 39 28 35 48 76 23
internal_value=0 -0.0300002 -0.00259924 -0.0250637 -0.0405364 -0.00403318
internal_count=269 249 221 186 147 99
cat_boundaries=0 1
cat_threshold=4
shrinkage=0.0316678


Tree=13
num_leaves=8
num_cat=0
split_feature=6 8 8 8 8 1 1
split_gain=1.39335 0.629917 0.155111 0.0715696 0.21763 0.130228 0.00903845
threshold=0.7117035203633213 0.656377040147755 1.0000000180025095e-35 -0.47431181195515953 -0.85437529165361803 0.19766793011817418 -0.20683006573218879
decision_type=2 2 2 2 2 2 2
left_child=1 2 3 4 -1 -5 -4
right_child=-2 -3 6 5 -6 -7 -8
leaf_value=-0.0017681393865681195 0.006420290390203167 -0.006261993979588874 0.0014702303014209272 -0.0025511662300363876 0.0017544361762971857 0 0
leaf_count=42 33 22 35 52 36 22 27
internal_value=0 -0.0263918 -0.00460966 -0.0256317 -0 -0.0479011 0.0306442
internal_count=269 236 214 152 78 74 62
shrinkage=0.0337789


Tree=14
num_leaves=8
num_cat=1
split_feature=6 0 0 7 8 8 4
split_gain=0.267772 0.435739 0.74788 0.129882 0.0916584 0.0181595 0.0331549
threshold=-0.89691353628300585 -0.93834216176992313 -1.7450752249344532 3.5000000000000004 -1.0444070315028473 -0.47431181195515953 0
decision_type=2 2 2 2 2 2 1
left_child=4 2 -2 5 -1 -3 -7
right_child=1 3 -4 -5 -6 6 -8
leaf_value=-0 -0.0015728835697737347 0 0.0060775319367712246 -0.0027048145758044005 0.0026245429675873233 -0 -0.0016101468521230876
leaf_count=23 23 22 20 105 24 30 22
internal_value=0 -0.0355589 0.0414149 -0.0597327 0.0403465 -0.00998668 -0.0219946
internal_count=269 222 43 179 47 74 52
cat_boundaries=0 1
cat_threshold=2
shrinkage=0.0318465


Tree=15
num_leaves=10
num_cat=0
split_feature=3 0 8 8 8 0 1 8 0
split_gain=1.09776 2.09707 1.19886 0.657387 0.102947 0.196191 0.079538 0.0685957 0.00690343
threshold=1.0000000180025095e-35 -0.077826894394424209 0.47584688729098706 0.47584688729098706 -0.37929594203054484 0.29864853508235661 0.097036851498668711 -1.0444070315028473 0.56755955613720011
decision_type=2 2 2 2 2 2 2 2 2
left_child=1 3 4 -1 8 -6 -7 -3 -2
right_child=2 7 -4 -5 5 6 -8 -9 -10
leaf_value=-0.0009175687480680718 -0.00046413294116310559 -0 0.0081764961980200813 -0.010292002403415513 -0 0.0038292019089283904 0 0.0018672943958579651 0
leaf_count=20 29 22 23 26 37 25 21 41 25
internal_value=0 -0.0674538 0.0613029 -0.230874 0.0171323 0.0412965 0.0849836 0.0379865 -0.00190253
internal_count=269 109 160 46 137 83 46 63 54
shrinkage=0.0301646


Tree=16
num_leaves=8
num_cat=1
split_feature=6 4 1 1 1 7 1
split_gain=2.124 0.163351 0.122797 0.102488 0.0691254 0.0450953 0.019049
threshold=0.7117035203633213 0 -0.085448661333204112 0.69054151012059961 0.14353838491322155 4.5000000000000009 -0.63921297880934547
decision_type=2 1 2 2 2 2 2
left_child=1 2 -1 5 6 -4 -3
right_child=-2 4 3 -5 -6 -7 -8
leaf_value=-0.0017329983762355272 0.0088083969065670103 0 0.0018631075543762477 -0.0013464019288622433 -0 -0 0.0024849404378249423
leaf_count=76 31 20 27 33 28 27 27
internal_value=0 -0.00225536 -0.0236957 0 0.0308824 0.0286726 0.0543155
internal_count=269 238 163 87 75 54 47
cat_boundaries=0 1
cat_threshold=2
shrinkage=0.0328054


Tree=17
num_leaves=9
num_cat=1
split_feature=1 1 8 8 0 0 1 4
split_gain=1.58384 0.673547 0.298654 0.23507 0.191434 0.125392 0.101978 0.00841349
threshold=-1.0667950453051316 1.75019503610866 -0.37929594203054484 0.656377040147755 0.13730192244945053 0.56755955613720011 -0.2540383904489989 0
decision_type=2 2 2 2 2 2 2 1
left_child=-1 2 4 6 -2 -6 -4 -7
right_child=1 -3 3 -5 5 7 -8 -9
leaf_value=0.0096805189154960895 0.0019625139123677247 -0.0059793198933774643 0.0045005427888006148 -0 -0.0030485811635681073 0 0.00076764492928209165 -0.00065780341461001905
leaf_count=22 20 20 39 26 35 33 51 23
internal_value=0 0 0.0169206 0.0542366 -0.0132838 -0.0397917 0.0797826 -0
internal_count=269 247 227 116 111 91 90 56
cat_boundaries=0 1
cat_threshold=2
shrinkage=0.0351329


Tree=18
num_leaves=8
num_cat=1
split_feature=0 1 1 1 6 4 1
split_gain=0.19763 0.737437 0.146143 0.145124 0.187134 0.164429 0.000613288
threshold=-1.7988574291454218 -0.92107601587558807 0.36208358984516636 0.16875616515036504 0.17193500633913836 0 -0.4416981490407933
decision_type=2 2 2 2 2 1 2
left_child=-1 -2 3 4 -3 6 -6
right_child=1 2 -4 -5 5 -7 -8
leaf_value=0.0016458808082788329 -0.0069143052026212739 0.0012654027481196167 -0.001677985295350446 0.0024098416495769649 -0.00016140292137703676 -0.0032799856901239068 0
leaf_count=22 22 39 69 25 25 30 37
internal_value=0 -0.0342254 -0.0119583 0 -0.00798107 -0.0384579 -0
internal_count=269 247 225 156 131 92 62
cat_boundaries=0 1
cat_threshold=2
shrinkage=0.0332327


Tree=19
num_leaves=9
num_cat=0
split_feature=8 1 7 8 8 1 3 1
split_gain=0.117319 0.179889 0.179195 0.0427536 0.111772 0.0591243 0.00477988 0.0335408
threshold=-0.12275309323408533 -0.58813730545754239 4.5000000000000009 0.095783407592528388 0.75139291007236964 0.01228857365253075 -0.5343324385582241 -0.18286583988018093
decision_type=2 2 2 2 2 2 2 2
left_child=1 -1 -2 5 -5 -4 -3 -8
right_child=2 6 3 4 -6 -7 7 -9
leaf_value=0.0020232098261811224 -0.0025387684960976502 -0.00034830432232869815 -0.0014587730120554578 0.0020153041539868019 -0 0 -0.00039504963794743074 0.00061475271390935057
leaf_count=39 28 28 29 22 24 21 24 54
internal_value=0 0.0170748 -0.0244545 -0 0.0179492 -0.023268 -0 0
internal_count=269 145 124 96 46 50 106 78
shrinkage=0.02713


Tree=20
num_leaves=9
num_cat=0
split_feature=1 8 0 0 8 0 1 1
split_gain=1.16575 1.04767 0.0851627 0.0572572 0.052762 0.0409867 0.0677863 0.021277
threshold=-1.0357095636907574 0.37132943037391092 0.40621294350429399 -0.45430232387120495 -0.85437529165361803 0.78268837298107485 0.14353838491322155 -0.0055279014383331883
decision_type=2 2 2 2 2 2 2 2
left_child=-1 2 3 -2 -4 -6 -7 -5
right_child=1 -3 4 7 5 6 -8 -9
leaf_value=0.0043666328603194837 -0 -0.0046319626473658032 0 0.0013646447122439686 -0 -0 -0.0025071351917930907 0
leaf_count=32 25 45 28 41 30 20 24 24
internal_value=0 -0.0364461 -0 0.0180194 -0.0232369 -0.0380135 -0.0576124 0.036266
internal_count=269 237 192 90 102 74 44 65
shrinkage=0.026901


Tree=21
num_leaves=10
num_cat=0
split_feature=3 7 0 1 1 1 0 0 0
split_gain=0.171887 0.368658 0.178893 0.0331911 0.215063 0.0897821 0.0630014 0.0265676 0.00343437
threshold=-0.5343324385582241 4.5000000000000009 0.51377735192623142 -0.27106806012791601 -0.035546528256847197 -0.57676196619668396 0.29864853508235661 0.83647057719204343 -0.66943114071507959
decision_type=2 2 2 2 2 2 2 2 2
left_child=1 2 -1 5 -5 8 -6 -8 -2
right_child=3 -3 -4 4 6 -7 7 -9 -10
leaf_value=-0.0063829082139862693 0.0001978784529448153 0 -0.00049531897491997929 0.0028811820416637336 -0.0020100920841474371 -0.0022796128302273776 0.00094504066510908734 -0.00052894200470875294 -0.00027859093413155038
leaf_count=23 37 35 26 24 21 25 21 30 27
internal_value=0 -0.0665016 -0.12203 -0.00450362 0 -0.0202659 -0.0167104 0 -0
internal_count=269 84 49 185 96 89 72 51 64
shrinkage=0.0326498


Tree=22
num_leaves=8
num_cat=0
split_feature=6 0 0 1 1 1 0
split_gain=1.37842 0.579218 0.115006 0.225102 0.0182793 0.010716 3.56476e-05
threshold=0.7117035203633213 0.83647057719204343 -0.88455995755895434 -0.42716225244719924 -1.1876163509362898 0.22620629590743227 0.029737514027513141
decision_type=2 2 2 2 2 2 2
left_child=1 2 4 -4 -1 6 -5
right_child=-2 -3 3 5 -6 -7 -8
leaf_value=-0.0013792959828140012 0.007659707260854816 -0.0036020930755055157 0.0034615443387138942 0 0 0.0005592657188904014 -3.3830875252014203e-05
leaf_count=21 30 54 38 22 22 43 39
internal_value=0 -0.00777967 0.0143073 0.0311515 -0.0180344 0 -0
internal_count=269 239 185 142 43 104 61
shrinkage=0.0358367


Tree=23
num_leaves=8
num_cat=0
split_feature=3 8 8 1 8 1 0
split_gain=0.565982 0.544847 0.334084 0.172324 0.104914 0.0426503 0.00538228
threshold=-0.26723596940162875 0.79890084503467695 -0.75935942172900339 -0.76888917924614253 -0.37929594203054484 -0.10827935396461059 0.40621294350429399
decision_type=2 2 2 2 2 2 2
left_child=2 3 6 -2 -5 -6 -1
right_child=1 -3 -4 4 5 -7 -8
leaf_value=0.00051563944696985168 -0.0025111766658836199 0.0074092531343559693 -0.0042107175273618375 -0 0 0.002614645818108496 -0.00026074627002303362
leaf_count=21 20 20 57 43 23 52 33
internal_value=0 0.0373546 -0.0554301 0.00678836 0.0277131 0.0508231 0
internal_count=269 158 111 138 118 75 54
shrinkage=0.0389395


Tree=24
num_leaves=8
num_cat=0
split_feature=6 0 8 8 0 0 8
split_gain=0.307207 0.0960541 0.0936013 0.178895 0.0521566 0.0160322 0.00806174
threshold=0.7117035203633213 -0.93834216176992313 -0.85437529165361803 -0.47431181195515953 0.45999514771526268 1.0515993940359183 -0.18926420218131557
decision_type=2 2 2 2 2 2 2
left_child=1 -1 -3 -4 6 -6 -5
right_child=-2 2 3 4 5 -7 -8
leaf_value=-0.0017176794885786478 0.0046033475650475953 -0.00082425515556891959 0.0034422985514982545 0 -0.00092402900566779147 0 0.0013508754603143835
leaf_count=39 23 44 33 24 45 21 40
internal_value=0 0 0.00908899 0.0234719 0 -0.0123483 0.0254015
internal_count=269 246 207 163 130 66 64
shrinkage=0.0386823


Tree=25
num_leaves=8
num_cat=0
split_feature=1 6 1 1 1 1 1
split_gain=0.578511 0.143962 0.197429 0.292802 0.152364 0.232421 0.00478685
threshold=1.2408918922499887 1.0000000180025095e-35 -0.76088776827719162 0.032078730115735907 0.27296120733600188 -0.76088776827719162 0.63554514539401052
decision_type=2 2 2 2 2 2 2
left_child=1 4 -3 -4 5 -1 -5
right_child=-2 2 3 6 -6 -7 -8
leaf_value=-0 -0.0054647959652600088 0.0011262625014085647 -0.003952093476198802 -2.484208048177075e-05 -0.00026070523170912874 0.0043845459100412838 0.00061173393042890259
leaf_count=22 37 37 54 37 23 39 20
internal_value=0 -0 -0.0201924 -0.0452086 0.0312881 0.061511 0
internal_count=269 232 148 111 84 61 57
shrinkage=0.0405783


Tree=26
num_leaves=9
num_cat=1
split_feature=3 2 0 1 0 7 0 1
split_gain=0.423975 0.416759 0.388118 0.0822486 0.0956384 0.0918585 0.00600544 0.000687933
threshold=-0.26723596940162875 0 0.083519718238481838 0.31742238095347225 0.56755955613720011 3.5000000000000004 0.19108412666041921 0.089702224777130427
decision_type=2 1 2 2 2 2 2 2
left_child=1 6 -2 4 -4 -5 -1 -8
right_child=2 -3 3 5 -6 -7 7 -9
leaf_value=0.00041550373194875975 0.003606069790964013 -0.0043773768047645541 -0.0023117053037279081 0.0025341152791730484 0 -0 -0.0001623846220761785 0
leaf_count=35 62 26 20 25 31 24 26 20
internal_value=0 -0.0277459 0.0497538 0.000475031 -0.0156883 0.0372754 0 -0
internal_count=269 107 162 100 51 49 81 46
cat_boundaries=0 1
cat_threshold=4
shrinkage=0.0321702


Tree=27
num_leaves=10
num_cat=0
split_feature=0 0 3 8 1 1 1 1 1
split_gain=0.657846 0.45629 0.166506 0.159946 0.0904675 0.056165 0.0334394 0.032996 0.00854261
threshold=-0.72321334492604838 0.029737514027513141 0.46727932077900874 0.17179610353222011 0.85635741676715804 -0.1254157091231137 1.4149759235644632 0.1561539428742674 -0.36761841915325649
decision_type=2 2 2 2 2 2 2 2 2
left_child=3 2 -2 -1 5 8 -6 -7 -3
right_child=1 4 -4 -5 6 7 -8 -9 -10
leaf_value=0 -0.0047676842231227177 -0 -0.00031133770624432226 0.0034417761821321901 0.0018958829673908423 -0.001809564296913959 0 -0 0.00046854591961472357
leaf_count=26 21 25 29 41 21 20 20 40 26
internal_value=0 -0.0224272 -0.104637 0.0905119 0 -0.00942201 0.0437865 -0.0329201 0
internal_count=269 202 50 67 152 111 41 60 51
shrinkage=0.0263414


Tree=28
num_leaves=8
num_cat=1
split_feature=1 8 1 4 1 6 8
split_gain=0.29999 0.101545 0.428972 0.11637 0.0903471 0.0373573 0.0044453
threshold=-1.0790772111424711 0.095783407592528388 0.88918987310975317 0 0.37971336534675476 0.17193500633913836 -0.47431181195515953
decision_type=2 2 2 1 2 2 2
left_child=-1 3 -3 4 5 -2 -5
right_child=1 2 -4 6 -6 -7 -8
leaf_value=-0.0036651860193406965 -0 0.0042098004592452274 -0.0014220550110890971 0 7.0539026403192109e-06 -0.0019256570360187374 0.0016906982814745156
leaf_count=27 27 37 20 30 35 64 29
internal_value=0 0.0075731 0.0446213 -0 -0.0209235 -0.0398291 0.0318251
internal_count=269 242 57 185 126 91 59
cat_boundaries=0 1
cat_threshold=2
shrinkage=0.036262


Tree=29
num_leaves=7
num_cat=1
split_feature=1 4 8 0 1 1
split_gain=0.410845 0.310967 0.265152 0.114551 0.0699068 0.0596889
threshold=0.040546890057875574 0 0.37132943037391092 0.3524307392933253 -0.4416981490407933 0.89441746160946767
decision_type=2 1 2 2 2 2
left_child=1 -1 3 -2 -3 -5
right_child=2 4 -4 5 -6 -7
leaf_value=0.001654680581477765 0.00035211868179054265 -0.0018812311681476773 -0.0042720006725759808 -0.0016898203256495192 0 0
leaf_count=101 31 21 21 50 24 21
internal_value=0 0.0267999 -0.0501021 -0.016932 -0.0280317 -0.0438869
internal_count=269 146 123 102 45 71
cat_boundaries=0 1
cat_threshold=2
shrinkage=0.0270952


Tree=30
num_leaves=8
num_cat=1
split_feature=3 1 8 8 1 8 4
split_gain=0.205614 0.154947 0.116996 0.0890954 0.018828 0.0165808 0.00495163
threshold=0.46727932077900874 0.048735000616101969 0.656377040147755 -0.56932768187977412 -0.068392320284390504 -0.37929594203054484 0
decision_type=2 2 2 2 2 2 1
left_child=2 5 3 4 -1 -2 -3
right_child=1 6 -4 -5 -6 -7 -8
leaf_value=-0 0 -0.00029337377125439594 -0.0024084616452810007 0.00086711542066390931 -0.0013920949570092012 0.0017044489882241012 0
leaf_count=25 24 44 31 27 31 66 21
internal_value=0 0.0228488 -0.0328596 -1.00513e-05 -0.0329121 0.0509589 -0.0011038
internal_count=269 155 114 83 56 90 65
cat_boundaries=0 1
cat_threshold=2
shrinkage=0.0277431


Tree=31
num_leaves=8
num_cat=0
split_feature=6 0 0 8 8 0 0
split_gain=0.80991 0.471872 0.0864789 0.122577 0.080758 0.0496646 0.019334
threshold=0.7117035203633213 0.78268837298107485 0.029737514027513141 -0.47431181195515953 -0.37929594203054484 0.29864853508235661 -0.56186673229314221
decision_type=2 2 2 2 2 2 2
left_child=1 2 3 -1 -3 -4 -5
right_child=-2 4 5 6 -6 -7 -8
leaf_value=-0 0.0041462598249921078 0.002253571305938883 5.4879123314202634e-05 -0.0012604760579044976 0 -0.00088861653387343467 -0.0046602471035846775
leaf_count=28 33 35 25 46 24 58 20
internal_value=0 -0.020211 -0.0489434 -0.0729528 0.0486985 -0.00930242 -0.0968287
internal_count=269 236 177 94 59 83 66
shrinkage=0.02863


Tree=32
num_leaves=9
num_cat=1
split_feature=2 1 1 0 1 8 0 7
split_gain=1.34442 0.200963 0.181679 0.125885 0.0518606 0.107771 0.019063 0.014401
threshold=0 0.18107833804254939 -0.25841249511202541 -1.3148175912467037 -0.43984448883298632 -0.56932768187977412 0.40621294350429399 3.5000000000000004
decision_type=1 2 2 2 2 2 2 2
left_child=1 2 3 -1 5 -5 -3 -4
right_child=-2 6 7 4 -6 -7 -8 -9
leaf_value=-0.0017603174635066861 -0.0087358215346639966 0 -0 -0 -0 0.0027802908347027188 0.0023356343779631821 -0.0035250663126631769
leaf_count=24 25 21 26 30 24 42 54 23
internal_value=0 0.00489865 -0.00949899 0.00418869 0.0275533 0.0414632 0.0501973 -0.0624332
internal_count=269 244 169 120 96 72 75 49
cat_boundaries=0 1
cat_threshold=4
shrinkage=0.0377479


Tree=33
num_leaves=7
num_cat=0
split_feature=6 0 7 0 8 8
split_gain=0.683672 0.313015 0.430374 0.424104 0.0496737 0.0387802
threshold=0.7117035203633213 -0.077826894394424209 4.5000000000000009 0.62134176034816868 -0.37929594203054484 -0.56932768187977412
decision_type=2 2 2 2 2 2
left_child=1 2 5 -3 -5 -1
right_child=-2 3 -4 4 -6 -7
leaf_value=-0 0.0040922634788475888 0.0021436371413656686 -0.0031668063416346679 -0.0011588629403802022 0 0.0011408949904709355
leaf_count=23 29 69 47 41 40 20
internal_value=0 -0.0029863 -0.0526827 0.0203604 -0.0192382 0
internal_count=269 240 90 150 81 43
shrinkage=0.0265491


Tree=34
num_leaves=8
num_cat=0
split_feature=6 7 1 1 1 1 1
split_gain=2.27285 0.0914998 0.0580072 0.208516 0.0475748 0.0547152 0.0212426
threshold=0.7117035203633213 3.5000000000000004 0.12198791803684718 -0.61358179233880616 0.01228857365253075 -0.66049673198675485 0.88918987310975317
decision_type=2 2 2 2 2 2 2
left_child=1 4 3 -3 5 -1 -4
right_child=-2 2 6 -5 -6 -7 -8
leaf_value=-0 0.0053077819213577506 -0.00030857586307679157 -0.00076759641486013632 0.0014026452610984819 -0 -0.0015983709376131321 0
leaf_count=26 31 39 31 45 41 36 20
internal_value=0 -0.013961 0 0.0191909 -0.036438 -0.0542859 -0.0226608
internal_count=269 238 135 84 103 62 51
shrinkage=0.0198306


Tree=35
num_leaves=6
num_cat=0
split_feature=0 3 1 8 0
split_gain=3.0872 0.907255 0.395705 0.234372 0.20427
threshold=-1.099688774402829 0.46727932077900874 -0.13479069564173446 0.17179610353222011 0.029737514027513141
decision_type=2 2 2 2 2
left_child=1 -1 4 -4 -2
right_child=2 -3 3 -5 -6
leaf_value=8.7605803218195351e-05 0.0012385587551802493 0.0085576075332386113 -0.002981502556998087 -0 -0.0011639669746801656
leaf_count=21 40 30 97 26 55
internal_value=0 0.21639 -0.0545768 -0.0919337 -0
internal_count=269 51 218 123 95
shrinkage=0.0260638


Tree=36
num_leaves=10
num_cat=0
split_feature=0 3 8 8 1 1 0 1 1
split_gain=0.347358 0.516064 0.191826 0.147887 0.0955744 0.0536283 0.0370178 0.0191264 0.000984282
threshold=-0.40052011966023626 -0.26723596940162875 0.47584688729098706 1.0000000180025095e-35 0.12198791803684718 -0.18654648892589834 0.62134176034816868 -0.061871170344695553 -0.51221725104714688
decision_type=2 2 2 2 2 2 2 2 2
left_child=1 -1 -3 4 5 8 -6 -5 -2
right_child=3 2 -4 7 6 -7 -8 -9 -10
leaf_value=-0.0061186352382399771 0.00022702085033379665 -0.0020071621177734744 0.0024892220064781649 0 0 0.0021703369967616577 -0.0015582553643098945 0.0028098686507875745 -0
leaf_count=26 23 25 21 20 27 26 43 35 23
internal_value=0 -0.062843 0 0.0172862 0 0.0255287 -0.0260009 0.0608059 0
internal_count=269 72 46 197 142 72 70 55 46
shrinkage=0.0354496


Tree=37
num_leaves=9
num_cat=1
split_feature=4 0 8 0 0 0 0 0
split_gain=0.204906 0.371625 0.368134 0.318788 0.299542 0.138549 0.0245794 0.0223433
threshold=0 0.29864853508235661 1.0000000180025095e-35 -0.45430232387120495 -1.3148175912467037 0.51377735192623142 0.9978171898249496 0.67512396455913748
decision_type=1 2 2 2 2 2 2 2
left_child=1 4 7 -2 -1 -5 -7 -3
right_child=3 2 -4 5 -6 6 -8 -9
leaf_value=0 -0.0035065847149793297 -0 0.0033133921056622117 0.0023981547874108518 0.0044092690634711966 -0.0010104794037861294 0.00020034689156843717 -0.0017499720169322308
leaf_count=23 23 21 26 33 60 24 20 39
internal_value=0 0.0505418 0 -0 0.0979483 0.0236739 -0 -0.038801
internal_count=269 169 86 100 83 77 44 60
cat_boundaries=0 1
cat_threshold=2
shrinkage=0.0327542


Tree=38
num_leaves=10
num_cat=0
split_feature=1 3 1 3 8 1 1 1 0
split_gain=0.940457 0.258015 0.240052 0.0718692 0.0833315 0.0770924 0.101361 0.0204759 0.00724476
threshold=-1.3076108441006562 -1.5025571392508825 0.49081295665063757 -0.5343324385582241 -0.37929594203054484 -0.035546528256847197 -0.49424074773690402 -0.92107601587558807 0.29864853508235661
decision_type=2 2 2 2 2 2 2 2 2
left_child=-1 -2 3 -3 8 6 7 -6 -5
right_child=1 2 -4 4 5 -7 -8 -9 -10
leaf_value=0.0063404479663422943 0.002569008205426427 -0.00076617787987354712 -0.0019989842810961534 -0.00050804115684762103 0.00089384581878560832 -0 0.0033847134997223552 -0 0
leaf_count=20 28 37 53 22 20 23 21 20 25
internal_value=0 0 -0.0104922 0.00261355 0.0186272 0.0389769 0.0576732 0 -0
internal_count=269 249 221 168 131 84 61 40 47
shrinkage=0.0286254


Tree=39
num_leaves=7
num_cat=0
split_feature=0 1 1 6 8 0
split_gain=0.783064 0.335193 0.274481 0.315662 0.124017 0.0491416
threshold=-0.56186673229314221 -0.649534798959292 0.62350302188573947 -0.89691353628300585 -0.94939116157823267 0.62134176034816868
decision_type=2 2 2 2 2 2
left_child=1 -1 3 4 -2 -4
right_child=2 -3 5 -5 -6 -7
leaf_value=0.0054500511079600732 -0.001227821928178181 0 -0 -0.0030224387383743262 0.0022288683721625561 0.0013603173271301791
leaf_count=30 23 31 23 111 20 31
internal_value=0 0.0877629 -0.038887 -0.0615606 0 0.0075368
internal_count=269 61 208 154 43 54
shrinkage=0.0336594


Tree=40
num_leaves=9
num_cat=0
split_feature=0 0 6 0 8 1 1 1
split_gain=1.41414 0.274809 0.112725 0.0504529 0.0315125 0.0190241 0.0593987 0.0480166
threshold=-0.61564893650411101 -1.4223819996686411 -0.89691353628300585 1.1053815982468869 -0.94939116157823267 1.0000000180025095e-35 -0.4416981490407933 1.2984087014317971
decision_type=2 2 2 2 2 2 2 2
left_child=1 -1 4 5 -2 6 -4 -7
right_child=2 -3 3 -5 -6 7 -8 -9
leaf_value=0 -0.00030381983332178943 0.0045436837406666805 -0.0014624520857091472 0 0.00091811202430468761 -0.002492790964197552 0 -0
leaf_count=23 23 48 21 20 22 48 38 26
internal_value=0 0.129145 -0.033489 -0.0467035 0 -0.0536962 -0.0124087 -0.0726769
internal_count=269 71 198 153 45 133 59 74
shrinkage=0.0261826


Tree=41
num_leaves=9
num_cat=0
split_feature=0 8 8 0 1 0 8 1
split_gain=0.53314 0.30413 0.175553 0.163159 0.14496 0.0499611 0.010786 0.00236016
threshold=-1.8795307354618747 -0.85437529165361803 0.75139291007236964 -0.23917350702733023 -0.040013982714511433 0.62134176034816868 -0.12275309323408533 -0.68336743167300595
decision_type=2 2 2 2 2 2 2 2
left_child=-1 -2 3 7 5 -5 -6 -3
right_child=1 2 -4 4 6 -7 -8 -9
leaf_value=0.0051118164543493385 -0.0029469782317819971 0 -0.0022434235986700532 -0.0019602412251312536 0 0 0.0017450794094776179 0.003058251353839761
leaf_count=22 45 20 28 40 39 20 28 27
internal_value=0 -0.0110506 0.000889881 0.0175001 -0 -0.0366317 0.0304634 0.0671989
internal_count=269 247 202 174 127 60 67 47
shrinkage=0.0345715


Tree=42
num_leaves=9
num_cat=0
split_feature=6 6 8 0 0 0 0 0
split_gain=0.153315 0.219606 0.161929 0.141265 0.0222136 0.0156971 0.0124775 0.00760604
threshold=1.0000000180025095e-35 0.7117035203633213 -0.12275309323408533 0.083519718238481838 0.83647057719204343 0.67512396455913748 0.9440349856139808 0.19108412666041921
decision_type=2 2 2 2 2 2 2 2
left_child=4 2 5 -4 -1 7 -5 -2
right_child=1 -3 3 6 -6 -7 -8 -9
leaf_value=0.00088563138338855333 -0 0.00088079011444713526 -0.0026644080723633224 0 -0 -0.0005054871655464858 -0.00062644772870667977 0.00036843656520421035
leaf_count=47 20 30 43 29 20 31 20 29
internal_value=0 -0.0243545 -0.0412423 -0.0700376 0.0269562 -0 -0.0080013 0.00168229
internal_count=269 202 172 92 67 80 49 49
shrinkage=0.0229267


Tree=43
num_leaves=9
num_cat=0
split_feature=6 8 0 0 0 0 0 0
split_gain=0.372404 0.358248 0.0572103 0.148538 0.0043815 0.0786395 0.0277295 0.0018817
threshold=0.7117035203633213 -0.12275309323408533 -0.13160909860539288 0.51377735192623142 0.29864853508235661 -0.13160909860539288 0.62134176034816868 0.9978171898249496
decision_type=2 2 2 2 2 2 2 2
left_child=1 4 -3 -4 5 -1 -6 -8
right_child=-2 2 3 -5 6 -7 7 -9
leaf_value=0.00011461044761114761 0.0019753914067762199 -0.0032624914816194311 9.3752358693476905e-05 -0.0021141036195429647 0.0010412112271512598 -0.001558903243208823 -0.00025382816153610117 0
leaf_count=34 35 50 22 33 22 26 23 24
internal_value=0 -0.0346261 -0.0777032 -0.0255758 0 -0.00538295 0.00611083 -0
internal_count=269 234 105 55 129 60 69 47
shrinkage=0.0286662


Tree=44
num_leaves=5
num_cat=0
split_feature=6 1 8 7
split_gain=0.186275 0.28929 0.290025 0.013925
threshold=0.17193500633913836 -0.87421441896743246 0.656377040147755 3.5000000000000004
decision_type=2 2 2 2
left_child=3 -2 -3 -1
right_child=1 2 -4 -5
leaf_value=0.00063328145700426838 0.0011842612160350317 -0.0013193998753893684 -0.0058005084880533471 -0
leaf_count=45 21 146 33 24
internal_value=0 -0.0499064 -0.0652611 0
internal_count=269 200 179 69
shrinkage=0.036398


Tree=45
num_leaves=5
num_cat=0
split_feature=0 0 7 1
split_gain=54.4062 12.3582 0.923553 0.0763223
threshold=-1.2072531828247663 0.029737514027513141 3.5000000000000004 -0.20683006573218879
decision_type=2 2 2 2
left_child=-1 2 -2 -4
right_child=1 -3 3 -5
leaf_value=0.026313690503533532 -0 -0.0080576829759788221 0.005842130333645907 0.0014789998107854667
leaf_count=33 35 151 28 22
internal_value=0 -0.184998 0.110342 0.196571
internal_count=269 236 85 50
shrinkage=0.0225414


Tree=46
num_leaves=10
num_cat=1
split_feature=0 8 0 0 8 8 0 0 4
split_gain=0.580033 0.373377 0.227366 0.222016 0.264461 0.0945419 0.120612 0.0738931 0.00395767
threshold=-0.83077775334798576 0.47584688729098706 -1.5837286123015473 0.029737514027513141 -0.12275309323408533 1.0000000180025095e-35 0.72890616877010606 0.62134176034816868 0
decision_type=2 2 2 2 2 2 2 2 1
left_child=1 -1 -3 4 -2 7 -7 -5 -9
right_child=3 2 -4 5 -6 6 -8 8 -10
leaf_value=-0 0 0.00047399571147133519 0.007528579203006691 -0.0016382090507589314 -0.0042328210835433523 0.0026761560601609234 -0 -0 0.00042241218594471144
leaf_count=20 22 22 22 35 32 31 20 41 24
internal_value=0 0.0928552 0.144053 -0.0135978 -0.0687691 0 0.0398839 -0.0108199 0
internal_count=269 64 44 205 54 151 51 100 65
cat_boundaries=0 1
cat_threshold=2
shrinkage=0.0335727


Tree=47
num_leaves=9
num_cat=0
split_feature=1 1 8 1 0 0 1 0
split_gain=0.211049 0.119414 0.0995219 0.0909633 0.0528966 0.0430809 0.0561499 0.0281241
threshold=0.81129613732701644 -0.90349958311379275 -0.75935942172900339 -0.25487853860073878 0.9978171898249496 0.3524307392933253 0.26744023376742582 -0.23917350702733023
decision_type=2 2 2 2 2 2 2 2
left_child=1 -1 -3 7 -2 -5 -7 -4
right_child=4 2 3 5 -6 6 -8 -9
leaf_value=0.0018984282468940217 -0.0022069524142874319 0.0012308981687449176 -0 0.00099138032835625542 -0 0 -0.0013140456837317075 -0.0018530065226829394
leaf_count=30 38 40 20 31 20 33 26 31
internal_value=0 0.0103226 0 -0.0120349 -0.0565294 0 -0.00719549 -0.0463121
internal_count=269 211 181 141 58 90 59 51
shrinkage=0.0280495


Tree=48
num_leaves=9
num_cat=0
split_feature=3 8 0 0 1 1 0 0
split_gain=0.727066 2.46017 0.456389 0.139675 0.105513 0.0506327 0.0424203 0.0638506
threshold=1.0000000180025095e-35 0.55185958323067885 -0.93834216176992313 0.29864853508235661 0.93871860700755905 0.25154409730911004 0.029737514027513141 0.56755955613720011
decision_type=2 2 2 2 2 2 2 2
left_child=2 4 -1 -4 6 -5 -2 -8
right_child=1 -3 3 5 -6 -7 7 -9
leaf_value=-0.0037266832592745451 0.00097596275084279531 0.007356150424999112 0.00093770247385991713 -0 -0.00135562561895952 -0.0014378270423711357 -0.00054325687630883451 0.00065335818536287743
leaf_count=23 34 26 29 22 20 31 42 42
internal_value=0 0.0574547 -0.0464919 -0 0 -0.0397734 0.0148219 0
internal_count=269 164 105 82 138 53 118 84
shrinkage=0.0220507


Tree=49
num_leaves=9
num_cat=0
split_feature=0 1 8 3 1 1 7 1
split_gain=2.62219 0.394333 0.314439 0.300707 0.0681693 0.0379553 0.0335173 0.031467
threshold=-1.2072531828247663 0.1561539428742674 0.55185958323067885 0.46727932077900874 0.50096141289625695 -0.27378853985735929 3.5000000000000004 -0.36761841915325649
decision_type=2 2 2 2 2 2 2 2
left_child=-1 3 4 5 -3 -2 -5 -8
right_child=1 2 -4 6 -6 -7 7 -9
leaf_value=0.0059060185644004238 -0 -0.00019519560666821185 4.3007002390829183e-05 0 -0.002817765488037186 -0.0015964786259332719 0 0.002306305110476282
leaf_count=36 30 28 21 28 53 22 24 27
internal_value=0 -0.0203128 -0.0681726 0.00961039 -0.098343 -0.0387281 0.0540145 0.0716459
internal_count=269 233 102 131 81 52 79 51
shrinkage=0.0223411


Tree=50
num_leaves=4
num_cat=0
split_feature=0 0 1
split_gain=0.644755 0.131159 0.0582724
threshold=-0.66943114071507959 -1.5837286123015473 -0.51221725104714688
decision_type=2 2 2
left_child=1 -1 -2
right_child=2 -3 -4
leaf_value=0 0 0.0046199086370837684 -0.0016841352689515047
leaf_count=24 33 40 172
internal_value=0 0.0789748 -0.0343167
internal_count=269 64 205
shrinkage=0.0403844


Tree=51
num_leaves=9
num_cat=0
split_feature=8 3 1 8 1 1 8 1
split_gain=0.466673 0.165569 0.109928 0.142853 0.0658672 0.0431463 0.0198558 0.0019468
threshold=0.17179610353222011 0.46727932077900874 -0.56231941939772756 -0.2842800721059302 0.063951017142056879 0.1561539428742674 0.79890084503467695 -0.90349958311379275
decision_type=2 2 2 2 2 2 2 2
left_child=2 -2 7 4 -4 -5 -3 -1
right_child=1 6 3 5 -6 -7 -8 -9
leaf_value=-0 0 0.00059686103167910472 0 0.0022718309799463392 -0.0017834685953075362 0 0.0058539914104580879 -0.0027366739467870752
leaf_count=27 36 20 40 33 42 27 23 21
internal_value=0 0.0777828 -0.0104924 0 -0.023143 0.0401633 0.121504 -0.0516967
internal_count=269 79 190 142 82 60 43 48
shrinkage=0.0352102


Tree=52
num_leaves=8
num_cat=0
split_feature=0 1 1 0 0 8 8
split_gain=1.15379 0.244325 0.114997 0.175076 0.0628934 0.0425003 0.0369959
threshold=-1.4761642038796097 1.3753022608434151 -0.86671976402651518 1.0000000180025095e-35 0.72890616877010606 -0.12275309323408533 -0.18926420218131557
decision_type=2 2 2 2 2 2 2
left_child=-1 2 -2 -4 5 -5 -6
right_child=1 -3 3 4 6 -7 -8
leaf_value=0.0056618554160184431 -0.0013521602549322832 -0.0027942741982005556 0.001864350656875737 -0.0012211437919463649 0.0011551532242988585 0 -0
leaf_count=32 24 24 58 42 40 24 25
internal_value=0 -0 0.00698003 0.0192836 -0 -0.0226371 0.0208021
internal_count=269 237 213 189 131 66 65
shrinkage=0.0288885


Tree=53
num_leaves=10
num_cat=0
split_feature=0 0 3 1 1 1 0 8 8
split_gain=0.67177 0.423458 0.56723 0.230554 0.0849829 0.0489703 0.00741061 0.00495475 0.0384034
threshold=-1.5299464080905785 0.3524307392933253 0.46727932077900874 -0.26305331347401689 1.3187456209778807 0.50096141289625695 0.78268837298107485 -0.12275309323408533 0.095783407592528388
decision_type=2 2 2 2 2 2 2 2 2
left_child=-1 2 -2 -3 5 6 -5 -4 -9
right_child=1 3 7 4 -6 -7 -8 8 -10
leaf_value=0.005133287249602405 -0.0042752838395262015 0.0033567780794366378 0.00044142756930776823 -0 0.0019279979781691469 -0.0012294877233256451 0.0005186739076079057 -0.0011802234702867809 3.5405351094434732e-05
leaf_count=24 43 30 23 24 20 31 25 25 24
internal_value=0 -0.00192213 -0.049553 0.0326359 0 -0.00530467 0 0 -0
internal_count=269 245 115 130 100 80 49 72 49
shrinkage=0.0307223


Tree=54
num_leaves=8
num_cat=0
split_feature=6 3 0 1 0 1 1
split_gain=0.26322 0.10192 0.0973021 0.0648974 0.0509541 0.0632974 0.00858448
threshold=1.9809611647271177 0.46727932077900874 0.45999514771526268 -0.91952907642159087 0.78268837298107485 0.27296120733600188 0.2999926407261076
decision_type=2 2 2 2 2 2 2
left_child=1 2 -1 -3 5 -5 -6
right_child=-2 3 -4 4 6 -7 -8
leaf_value=0.0016352410246414819 -0.0050629211682462422 0 -0.00053648754998734851 -0.0024729631041726314 9.8732741245991876e-05 -0 -0.00071866379697617801
leaf_count=51 21 32 31 69 22 21 22
internal_value=0 -0.0110525 0.00972761 -0.0273021 -0.0374542 -0.051391 -0
internal_count=269 248 82 166 134 90 44
shrinkage=0.0375485


Tree=55
num_leaves=9
num_cat=1
split_feature=8 8 7 4 0 1 0 1
split_gain=1.42201 0.166382 0.253659 0.21177 0.172164 0.0844686 0.0813454 0.0177556
threshold=0.79890084503467695 -0.37929594203054484 4.5000000000000009 0 0.45999514771526268 0.4394172268600765 0.2448663308713879 -0.47502402572647368
decision_type=2 2 2 1 2 2 2 2
left_child=1 4 -3 6 7 -6 -4 -1
right_child=-2 2 3 -5 5 -7 -8 -9
leaf_value=-0.00060313261397904917 0.0046337920575040903 0.0018690626821689042 -0.0021814450511939676 0.00090411052971560673 -0.003026834860676203 -5.9962991803092277e-05 -0 0.00028696315683111916
leaf_count=21 34 32 37 22 33 29 35 26
internal_value=0 -0.0223625 0 -0.0237306 -0.0508475 -0.0851297 -0.0564505 -0
internal_count=269 235 126 94 109 62 72 47
cat_boundaries=0 1
cat_threshold=2
shrinkage=0.0239989


Tree=56
num_leaves=9
num_cat=0
split_feature=1 1 1 8 1 1 0 0
split_gain=0.204174 0.127515 0.134609 0.297252 0.103993 0.218835 0.0481771 0.032436
threshold=1.1831883834789048 0.27296120733600188 -1.226769921944356 0.55185958323067885 -0.66577766322626231 -0.30343376749732226 0.51377735192623142 -0.40052011966023626
decision_type=2 2 2 2 2 2 2 2
left_child=1 2 -1 4 7 -6 -7 -4
right_child=-2 -3 3 -5 5 6 -8 -9
leaf_value=0.0023550096233297306 -0.0025937858791228183 0.0017819555651173364 -0.0021799499085617098 -0.0041288200601530354 0.0028849935917656419 0.00042348063208247821 -0.0011268073083804081 -0
leaf_count=22 28 55 20 20 35 32 37 20
internal_value=0 0.0112528 -0 -0.0113228 0 0.0213068 -0 -0.0370645
internal_count=269 241 186 164 144 104 69 40
shrinkage=0.0335309


Tree=57
num_leaves=6
num_cat=0
split_feature=0 0 0 1 1
split_gain=33.2896 5.56425 1.68575 0.299558 0.134077
threshold=-1.3148175912467037 0.62134176034816868 -0.18539130281636157 -0.61358179233880616 -0.098090890664146488
decision_type=2 2 2 2 2
left_child=-1 2 3 -2 -4
right_child=1 -3 4 -5 -6
leaf_value=0.017548280646321732 0 -0.0060118907325675298 -0.00019278555089140525 0.0037569245816594251 -0.0024398646699074406
leaf_count=35 20 93 40 35 46
internal_value=0 -0.123026 0 0.137879 -0.0844972
internal_count=269 234 141 55 86
shrinkage=0.0192998


Tree=58
num_leaves=6
num_cat=0
split_feature=8 1 1 1 8
split_gain=3.42988 0.741127 0.392882 0.302269 0.134049
threshold=0.55185958323067885 -0.56824046351475122 0.01228857365253075 -0.86671976402651518 1.0000000180025095e-35
decision_type=2 2 2 2 2
left_child=1 3 -2 -1 -3
right_child=2 4 -4 -5 -6
leaf_value=-1.289940292159876e-05 0.0070388067623372687 -0.0024542866866205447 0.0010875518044746874 0.0028424414354210822 -0.00024065904645094877
leaf_count=30 32 120 20 23 44
internal_value=0 -0.0530006 0.230565 0.0367152 -0.0881016
internal_count=269 217 52 53 164
shrinkage=0.022738


Tree=59
num_leaves=6
num_cat=0
split_feature=0 1 7 7 7
split_gain=0.433366 0.332011 0.139888 0.136569 0.0390451
threshold=0.45999514771526268 -0.90349958311379275 4.5000000000000009 4.5000000000000009 4.5000000000000009
decision_type=2 2 2 2 2
left_child=1 4 -3 -2 -1
right_child=3 2 -4 -5 -6
leaf_value=-0 -0.0027527430704428518 0 0.0025657688066919003 -0 -0.0020593678779190364
leaf_count=21 61 57 63 43 24
internal_value=0 0.0202566 0.0516464 -0.0601039 -0.0410134
internal_count=269 165 120 104 45
shrinkage=0.0301778


Tree=60
num_leaves=5
num_cat=0
split_feature=0 0 0 0
split_gain=17.8225 4.0955 0.802326 0.722658
threshold=-1.3148175912467037 1.0000000180025095e-35 0.67512396455913748 0.56755955613720011
decision_type=2 2 2 2
left_child=-1 -2 3 -3
right_child=1 2 -4 -5
leaf_value=0.013423590537769398 0.0014021172375400781 -0.004033462867509283 -0.0065302301836464597 0
leaf_count=37 66 53 91 22
internal_value=0 -0.135691 -0.220518 -0.117099
internal_count=269 232 166 75
shrinkage=0.0223115


Tree=61
num_leaves=10
num_cat=1
split_feature=0 8 7 4 3 0 1 1 1
split_gain=1.90981 0.235048 0.122082 0.121644 0.128326 0.106286 0.0121392 0.0112755 0.00382886
threshold=-1.9602040417783277 0.55185958323067885 3.5000000000000004 0 0.46727932077900874 -0.18539130281636157 -0.076927158651271435 -0.61358179233880616 0.51339027126802728
decision_type=2 2 2 1 2 2 2 2 2
left_child=-1 2 6 4 -4 -3 7 -2 -8
right_child=1 5 3 -5 -6 -7 8 -9 -10
leaf_value=0.011285490172212956 0 0.0029309064449699949 -0 0 -0.0037745141323524225 -0 0.00070157006292566456 -0.0011257822870764794 0
leaf_count=20 29 32 25 28 51 20 22 20 22
internal_value=0 -0.00942974 -0.0284254 -0.05183 -0.0724086 0.0428453 -0 -0.0125205 0.00977646
internal_count=269 249 197 104 76 52 93 49 44
cat_boundaries=0 1
cat_threshold=2
shrinkage=0.0373157


Tree=62
num_leaves=9
num_cat=0
split_feature=8 7 1 7 8 0 0 1
split_gain=0.425751 0.32826 0.229216 0.136498 0.184479 0.0746069 0.0425169 0.0063285
threshold=0.55185958323067885 4.5000000000000009 0.81129613732701644 3.5000000000000004 -0.56932768187977412 0.9440349856139808 0.19108412666041921 -0.58813730545754239
decision_type=2 2 2 2 2 2 2 2
left_child=2 -2 3 4 -1 6 7 -5
right_child=1 -3 -4 5 -6 -7 -8 -9
leaf_value=-0 -0 0.0044672541079592426 -0.0024711209304837333 -0.00048004225426573512 0.0024069427185810172 0 -0.0020782825903137149 0
leaf_count=30 21 31 41 24 41 23 35 23
internal_value=0 0.0839191 -0.0155211 0 0.033914 -0.022505 -0.0393154 -0
internal_count=269 52 217 176 71 105 82 47
shrinkage=0.0301717


Tree=63
num_leaves=6
num_cat=0
split_feature=0 3 0 1 1
split_gain=5.52609 0.355775 0.307686 0.126008 0.0893592
threshold=-0.61564893650411101 0.46727932077900874 0.67512396455913748 -0.63041142674349948 0.69054151012059961
decision_type=2 2 2 2 2
left_child=1 -1 3 -2 -5
right_child=2 -3 -4 4 -6
leaf_value=0.0020738647768829043 4.8985836538231555e-05 0.0092481474762475206 -0.003985462030141702 -0.0021021518732474535 -0
leaf_count=22 21 47 75 73 31
internal_value=0 0.248976 -0.0769528 -0.0344884 -0.0512529
internal_count=269 69 200 125 104
shrinkage=0.0299245


Tree=64
num_leaves=7
num_cat=0
split_feature=3 1 8 0 0 1
split_gain=0.873844 1.31728 0.702856 0.279308 0.135593 0.072277
threshold=0.46727932077900874 0.13028271407465961 -0.37929594203054484 0.029737514027513141 -0.45430232387120495 0.99659547968297035
decision_type=2 2 2 2 2 2
left_child=4 2 -2 -4 -1 -6
right_child=1 -3 3 -5 5 -7
leaf_value=0 0 -0.0014386860530116606 0.0059639808756227573 0.00071229331931725939 -0.001934335845060418 -0
leaf_count=29 38 45 43 20 70 24
internal_value=0 0.0663986 0.132747 0.197653 -0.0458573 -0.064592
internal_count=269 146 101 63 123 94
shrinkage=0.0238093


Tree=65
num_leaves=8
num_cat=1
split_feature=8 1 8 1 4 1 1
split_gain=0.401298 0.269857 0.100817 0.0945052 0.162921 0.0370099 0.0138222
threshold=-0.66434355180438875 -0.86671976402651518 0.55185958323067885 -0.29984646824624261 0 0.18107833804254939 0.88918987310975317
decision_type=2 2 2 2 1 2 2
left_child=-1 2 -2 -3 5 -5 -7
right_child=1 3 -4 4 -6 6 -8
leaf_value=-0.0014863604155200755 0.0011193455497768047 -0 0.0070495164125164815 0.0012558167980126014 0.0037754369710172619 -0.00080459322692648329 0
leaf_count=55 30 52 20 31 30 28 23
internal_value=0 0.0479502 0.116832 0.0203081 0.037928 0.00132708 -0
internal_count=269 214 50 164 112 82 51
cat_boundaries=0 1
cat_threshold=2
shrinkage=0.0368542


Tree=66
num_leaves=7
num_cat=0
split_feature=0 6 8 8 8 0
split_gain=0.540588 0.316608 0.209987 0.193505 0.137115 0.258759
threshold=0.51377735192623142 1.5133399273299297 -0.56932768187977412 0.656377040147755 -0.75935942172900339 1.0000000180025095e-35
decision_type=2 2 2 2 2 2
left_child=1 3 -2 4 -1 -6
right_child=2 -3 -4 -5 5 -7
leaf_value=-0.00046022980876840521 0 0.0037023826183077966 -0.0027737639598486301 -0.0021016151162523452 0.0024309922781603371 -0
leaf_count=29 31 24 65 22 60 38
internal_value=0 0.0257055 -0.0665161 0.00125943 0.0226861 0.0443805
internal_count=269 173 96 149 127 98
shrinkage=0.0281864


Tree=67
num_leaves=12
num_cat=1
split_feature=3 0 1 4 1 1 0 0 0 0 1
split_gain=0.725709 0.603944 0.397491 0.178604 0.0558749 0.0442529 0.0280634 0.0449845 0.0414455 0.02719 0.0232624
threshold=-0.90159008364854298 0.40621294350429399 -1.0667950453051316 0 0.097036851498668711 0.28116265357917652 0.029737514027513141 -0.88455995755895434 0.56755955613720011 0.9978171898249496 -0.39637015590168662
decision_type=2 2 2 1 2 2 2 2 2 2 2
left_child=1 -1 -2 6 -5 -3 7 -4 -8 -10 -9
right_child=2 5 3 4 -6 -7 8 10 9 -11 -12
leaf_value=-0.0076407319234624519 0.0037373191235551789 -0.001515567933777382 -0 -0.0025478499359893785 -0 0 -0.0012316979496495614 0.0020279565607954123 0.00096284371379176843 -0 0
leaf_count=21 23 20 21 33 21 20 23 20 25 20 22
internal_value=0 -0.117999 0.00103597 -0.00970034 -0.0594613 -0.0159702 0.00353111 0.0215455 -0 0.00179886 0.0416781
internal_count=269 61 208 185 54 40 131 63 68 45 42
cat_boundaries=0 1
cat_threshold=2
shrinkage=0.0296929


Tree=68
num_leaves=10
num_cat=0
split_feature=0 8 8 1 8 1 8 8 0
split_gain=0.867624 1.04816 0.871547 0.176888 0.224972 0.0381951 0.125213 0.0711333 0.0267291
threshold=-0.72321334492604838 0.84640877999698427 0.37132943037391092 -0.41274637701813938 -1.0444070315028473 0.69054151012059961 -0.18926420218131557 -0.47431181195515953 -1.099688774402829
decision_type=2 2 2 2 2 2 2 2 2
left_child=1 8 3 -2 -5 6 7 -6 -1
right_child=2 -3 -4 4 5 -7 -8 -9 -10
leaf_value=-0.00031330728217143739 -0.0013789473037010935 0.0060331274983112275 -0.0048550489889912351 -0.0014584374500568533 0.0010430778048520265 0 0.0019246215547503978 -0.00068138606747589453 0.0006989988120037489
leaf_count=22 42 22 21 24 21 37 37 22 21
internal_value=0 0.100921 -0.030874 -0.00264784 0.00845597 0.0326576 0.0450026 0 0
internal_count=269 65 204 183 141 117 80 43 43
shrinkage=0.0220595


Tree=69
num_leaves=8
num_cat=0
split_feature=3 1 1 0 0 1 0
split_gain=0.542866 0.601427 0.195212 0.204811 0.160165 0.0485558 0.00338713
threshold=-0.5343324385582241 0.1501128775927095 0.50096141289625695 0.51377735192623142 -1.5299464080905785 -0.6794067332433753 0.19108412666041921
decision_type=2 2 2 2 2 2 2
left_child=2 4 3 -1 -2 -6 -7
right_child=1 -3 -4 -5 5 6 -8
leaf_value=0.0041207903784980342 0.0017804736078984621 -0.0025271862650784842 0 0 -0.00082796506405531276 0.00021224931897250067 -0
leaf_count=23 24 54 35 21 35 36 41
internal_value=0 -0.0245209 0.0731546 0.117695 0.00424957 -0.00375515 0
internal_count=269 190 79 44 136 112 77
shrinkage=0.0221836


Tree=70
num_leaves=7
num_cat=1
split_feature=7 0 4 0 3 3
split_gain=0.876888 0.532959 0.0745252 0.0924486 0.0427721 0.273038
threshold=4.5000000000000009 -1.3148175912467037 0 -0.34673791544926758 -0.90159008364854298 1.0000000180025095e-35
decision_type=2 2 1 2 2 2
left_child=4 -2 3 -3 -1 -6
right_child=1 2 -4 -5 5 -7
leaf_value=-0 0.0070215964734088015 -0 -0 0.0021959972552703247 -0.0055356117950838522 -0.00070466164702317276
leaf_count=40 21 22 34 48 24 80
internal_value=0 0.0614205 0.0202982 0.0407305 -0.0526246 -0.0650515
internal_count=269 125 104 70 144 104
cat_boundaries=0 1
cat_threshold=2
shrinkage=0.0335256


Tree=71
num_leaves=8
num_cat=1
split_feature=1 0 8 1 4 0 0
split_gain=0.80597 0.426586 0.406262 0.23396 0.10157 0.00764938 0.0520938
threshold=0.49081295665063757 0.51377735192623142 0.28581514744175773 -0.83955497378692701 0 0.13730192244945053 0.40621294350429399
decision_type=2 2 2 2 1 2 2
left_child=2 -2 3 -1 5 -5 -7
right_child=1 -3 -4 4 -6 6 -8
leaf_value=-0.0015619071217837157 -0.0065080332398857934 -0 0.0052504746647851703 0.003994402696741184 0 -0 0.0018030485240848996
leaf_count=29 23 41 44 26 41 23 42
internal_value=0 -0.0706686 0.0535609 0.0222877 0.0442437 0.0627207 0.0278559
internal_count=269 64 205 161 132 91 65
cat_boundaries=0 1
cat_threshold=2
shrinkage=0.0367856


Tree=72
num_leaves=8
num_cat=0
split_feature=6 8 0 1 8 1 8
split_gain=0.592898 0.691077 0.137471 0.234739 0.0288162 0.026022 0.0199673
threshold=0.7117035203633213 0.47584688729098706 0.2448663308713879 -0.18286583988018093 1.0000000180025095e-35 0.39692973461494735 -0.18926420218131557
decision_type=2 2 2 2 2 2 2
left_child=1 2 3 6 5 -4 -1
right_child=-2 -3 4 -5 -6 -7 -8
leaf_value=1.6875660749894424e-06 0.0041700369643550457 -0.0053239123201614218 -0.0015757747720195055 0.0035408941879828864 0 -0 -0.0009534953830219044
leaf_count=24 29 37 64 28 26 35 26
internal_value=0 -0.0277094 -0 0.0277927 -0.0246319 -0.0324445 -0
internal_count=269 240 203 78 125 99 50
shrinkage=0.0350623


Tree=73
num_leaves=8
num_cat=0
split_feature=8 0 8 1 8 0 0
split_gain=0.772292 0.542815 0.0894694 0.173985 0.155742 0.00945893 0.0494725
threshold=1.2359738466879044 0.89025278140301223 -0.18926420218131557 -0.01218240822751066 0.55185958323067885 -0.56186673229314221 0.40621294350429399
decision_type=2 2 2 2 2 2 2
left_child=1 2 3 -1 5 -4 -7
right_child=-2 -3 4 -5 -6 6 -8
leaf_value=-0.0013526038131450827 0.0039801871421202119 -0.0023988924458282555 0.0022664491033203595 0.00044489505298345476 -0.00025175712845737573 -0 0.0011722672635690512
leaf_count=54 21 60 21 33 32 26 22
internal_value=0 -0.0217516 0 -0.017853 0.0245391 0.0551914 0.0142924
internal_count=269 248 188 87 101 69 48
shrinkage=0.0230514


Tree=74
num_leaves=10
num_cat=1
split_feature=0 8 6 6 0 1 0 4 1
split_gain=1.246 0.101785 0.111167 0.113392 0.0753556 0.0361923 0.0223061 0.00759529 0.0312401
threshold=-1.7988574291454218 0.656377040147755 0.17193500633913836 -0.89691353628300585 0.2448663308713879 -0.45252672521877346 0.72890616877010606 0 0.18107833804254939
decision_type=2 2 2 2 2 2 2 1 2
left_child=-1 2 3 6 5 -4 -2 8 -6
right_child=1 -3 4 -5 7 -7 -8 -9 -10
leaf_value=0.0091508380577896287 0.0011017360025804294 -0.0018867655996099412 0.0030838089920032742 -0.0023630415665824539 -0 0 -0 -5.6304061565496836e-05 0.001299040037650805
leaf_count=21 23 26 32 28 23 38 22 27 29
internal_value=0 0.000397257 0.0112495 -0.0119775 0.0292998 0.0536193 0.000217815 0 0.0119174
internal_count=269 248 222 73 149 70 45 79 52
cat_boundaries=0 1
cat_threshold=2
shrinkage=0.0361368


Tree=75
num_leaves=9
num_cat=1
split_feature=1 0 4 1 0 1 8 1
split_gain=0.660814 0.831313 0.340277 0.04256 0.0722134 0.0557804 0.0199151 0.0176486
threshold=-0.42716225244719924 -0.34673791544926758 0 1.1540099048121306 0.2448663308713879 0.45299295413739643 0.47584688729098706 0.16875616515036504
decision_type=2 2 1 2 2 2 2 2
left_child=2 -2 6 4 -3 7 -1 -6
right_child=1 3 -4 -5 5 -7 -8 -9
leaf_value=-0 -0.0072606933142725675 0 0.0045374933674551801 0 -0.00065137482051886566 -0.0025138777897266442 0.00088378842173936168 0
leaf_count=37 20 27 25 33 47 31 22 27
internal_value=0 -0.0494319 0.0545727 -0.0187813 -0.0275728 -0.0404372 0 -0.00810607
internal_count=269 185 84 165 132 105 59 74
cat_boundaries=0 1
cat_threshold=2
shrinkage=0.0300345


Tree=76
num_leaves=9
num_cat=2
split_feature=2 0 4 1 0 0 7 0
split_gain=1.432 0.298219 0.153853 0.266419 0.283422 0.0182118 0.0160352 0.000503503
threshold=0 0.9978171898249496 1 -0.96309675914752846 0.2448663308713879 0.51377735192623142 3.5000000000000004 0.19108412666041921
decision_type=1 2 1 2 2 2 2 2
left_child=-1 2 3 -2 -5 -6 7 -4
right_child=1 -3 6 4 5 -7 -8 -9
leaf_value=-0.0050679805756367012 -0.0001921971741896796 -0.0011965480865211984 0.00015948628352978751 0.0029846349535830171 -0 0.000557362727612103 -0.00059048051749848568 0
leaf_count=27 26 42 20 53 23 34 22 22
internal_value=0 0.0146251 0.0339121 0.0530121 0.0764941 0.00696247 -0 0.00350851
internal_count=269 242 200 136 110 57 64 42
cat_boundaries=0 1 2
cat_threshold=2 2
shrinkage=0.0227416


Tree=77
num_leaves=6
num_cat=0
split_feature=0 8 1 1 1
split_gain=2.37906 0.620985 0.390056 0.115125 0.0628127
threshold=-1.2072531828247663 0.37132943037391092 -0.3220770550549778 0.91694143348706447 -0.81623086081243523
decision_type=2 2 2 2 2
left_child=-1 2 4 -4 -2
right_child=1 -3 3 -5 -6
leaf_value=0.0039616567230079678 -0 -0.0037736732558065734 -0.0013767828152967711 0 0.00096033582197689582
leaf_count=37 30 26 116 24 36
internal_value=0 -0.0540835 -0.0294438 -0.061463 0.023454
internal_count=269 232 206 140 66
shrinkage=0.0185031


Tree=78
num_leaves=10
num_cat=1
split_feature=8 1 4 1 0 8 8 3 8
split_gain=0.386161 0.301884 0.226889 0.189503 0.15596 0.0675729 0.002659 0.00139025 0.00133783
threshold=0.84640877999698427 0.20494921409991948 0 -0.77785075953136751 0.67512396455913748 -0.56932768187977412 -0.37929594203054484 0.46727932077900874 1.0000000180025095e-35
decision_type=2 2 1 2 2 2 2 2 2
left_child=1 3 6 7 5 -5 -3 -1 -7
right_child=-2 2 -4 4 -6 8 -8 -9 -10
leaf_value=-0.0015542110699558241 0.0038958781891825158 0 -0.0038503813640759924 0 -0 0.0033749529764081649 -0.00032723665212518383 -0 0
leaf_count=25 22 23 37 29 33 31 24 25 20
internal_value=0 -0.0126091 -0.0625602 0.00725943 0.034686 0.0601558 -0 -0.0345816 0.0832846
internal_count=269 247 84 163 113 80 47 50 51
cat_boundaries=0 1
cat_threshold=2
shrinkage=0.0317302


Tree=79
num_leaves=8
num_cat=1
split_feature=2 1 0 1 0 1 1
split_gain=0.680879 0.266138 0.112712 0.123136 0.0899644 0.00162276 0.0169664
threshold=0 -0.68336743167300595 -0.23917350702733023 0.17307692707359851 -1.099688774402829 0.51339027126802728 1.0130783862790091
decision_type=1 2 2 2 2 2 2
left_child=1 4 -3 -4 -1 -5 -7
right_child=-2 2 3 5 -6 6 -8
leaf_value=-0 0.004940681391812779 0 -0.0024784049561919507 0 0.0026416206842296559 -0.00097611163291189736 0
leaf_count=24 32 30 86 21 32 23 21
internal_value=0 -0.0111659 -0.0330314 -0.0452543 0.0413023 -0 -0.0060051
internal_count=269 237 181 151 56 65 44
cat_boundaries=0 1
cat_threshold=4
shrinkage=0.0350732


Tree=80
num_leaves=8
num_cat=1
split_feature=1 8 8 2 1 1 1
split_gain=0.349396 0.146723 0.0998601 0.0896216 0.0642109 0.0350446 0.085836
threshold=-0.1754912061037979 -0.75935942172900339 0.095783407592528388 0 -0.36761841915325649 -0.63041142674349948 -1.030441968136198
decision_type=2 2 2 1 2 2 2
left_child=4 -2 -3 -4 5 6 -1
right_child=1 2 3 -5 -6 -7 -8
leaf_value=-0.00033960987857853896 0 -0.0026204159070219312 -0.0015576922793595085 0 0.0011678602660045116 -0.00075012648021902345 0.0012304262670763139
leaf_count=30 25 69 24 26 28 36 31
internal_value=0 -0.0622631 -0.0768572 -0.0147158 0.00336608 -0 0.00282403
internal_count=269 144 119 50 125 97 61
cat_boundaries=0 1
cat_threshold=2
shrinkage=0.0245477


Tree=81
num_leaves=6
num_cat=0
split_feature=0 8 1 0 0
split_gain=0.246133 0.0787847 0.1278 0.277797 0.114096
threshold=0.67512396455913748 -0.66434355180438875 -0.58813730545754239 0.13730192244945053 -0.99212436598089171
decision_type=2 2 2 2 2
left_child=1 -1 4 -4 -3
right_child=-2 2 3 -5 -6
leaf_value=0.0018236821254311757 -0.0025232435771446082 0.0026556114475252681 -0.003419110466793837 0.00053868110775704802 -0
leaf_count=41 71 37 51 39 30
internal_value=0 0.00391592 -0.000470159 -0.0305614 0.0251
internal_count=269 198 157 90 67
shrinkage=0.0413232


Tree=82
num_leaves=8
num_cat=1
split_feature=1 2 8 0 8 0 0
split_gain=0.940747 0.745859 0.278657 0.136398 0.0915471 0.0804402 0.000296665
threshold=-1.0357095636907574 0 0.095783407592528388 0.89025278140301223 1.0000000180025095e-35 -0.29295571123829889 1.0515993940359183
decision_type=2 1 2 2 2 2 2
left_child=-1 2 3 4 5 -2 -5
right_child=1 -3 -4 6 -6 -7 -8
leaf_value=0.0036162591702135873 0 -0.0039309482344620159 0.0018688467603761561 0 0 -0.0013905838484674091 0.00056841391048592757
leaf_count=31 20 27 32 25 24 89 21
internal_value=0 -0.0215997 -0 -0.0167114 -0.0359184 -0.0490292 0.0171282
internal_count=269 238 211 179 133 109 46
cat_boundaries=0 1
cat_threshold=4
shrinkage=0.0224643


Tree=83
num_leaves=8
num_cat=0
split_feature=0 0 1 8 6 0 1
split_gain=0.198183 0.0619928 0.0757121 0.0869308 0.059165 0.00826111 0.0048846
threshold=-1.2072531828247663 0.9440349856139808 -0.56824046351475122 0.75139291007236964 0.17193500633913836 -0.34673791544926758 0.13028271407465961
decision_type=2 2 2 2 2 2 2
left_child=-1 2 5 4 -4 -2 -3
right_child=1 6 3 -5 -6 -7 -8
leaf_value=0.0017936399637302864 -0 -0 -0 0 -0.0015374907777518944 0.00050753315041116031 0.00049740883494645645
leaf_count=36 21 20 37 20 87 21 27
internal_value=0 -0.0102655 -0.0208685 -0.032921 -0.0441887 0 0.0104226
internal_count=269 233 186 144 124 42 47
shrinkage=0.0261913


Tree=84
num_leaves=9
num_cat=1
split_feature=0 1 0 1 0 1 4 0
split_gain=8.47204 1.12155 0.479154 0.135881 0.0946335 0.186502 0.0400488 0.0135124
threshold=-1.4761642038796097 0.34390705126069959 0.67512396455913748 1.1831883834789048 -0.66943114071507959 -0.86671976402651518 0 0.2448663308713879
decision_type=2 2 2 2 2 2 1 2
left_child=-1 2 4 -3 5 -2 7 -6
right_child=1 3 -4 -5 6 -7 -8 -9
leaf_value=0.0050542732217235316 -0 -0.00086191275270785031 -0.001160425204056223 -0.0025027449759077941 -0.00030821042861787975 0.0012926526625598206 0.00034448889129529907 0
leaf_count=33 21 46 37 33 35 21 22 21
internal_value=0 -0.0618726 -0.00595849 -0.159029 0.0179668 0.0557597 -0 -0.0168973
internal_count=269 236 157 79 120 42 78 56
cat_boundaries=0 1
cat_threshold=2
shrinkage=0.0107148


Tree=85
num_leaves=9
num_cat=0
split_feature=0 1 0 1 1 1 1 1
split_gain=0.353486 0.352935 0.318789 0.249865 0.188796 0.0514527 0.00524752 0.0212664
threshold=-0.077826894394424209 -1.0357095636907574 -0.50808452808217364 0.040546890057875574 -0.36761841915325649 -0.43984448883298632 0.42626824150110054 1.1831883834789048
decision_type=2 2 2 2 2 2 2 2
left_child=1 -1 5 4 -2 -3 -5 -8
right_child=3 2 -4 6 -6 -7 7 -9
leaf_value=0.0058615981823534457 -0.001024209693041024 -0.0026653065319914289 0.0034833041804726451 -0.0039041652504205916 0.0025423941207034137 -0 -0 -0.001749590192861996
leaf_count=27 31 24 31 27 41 20 37 31
internal_value=0 0.0518826 0.00189716 -0.0215683 0.0122425 -0.0379571 -0.0574707 -0.0249264
internal_count=269 102 75 167 72 44 95 68
shrinkage=0.0390799


Tree=86
num_leaves=7
num_cat=1
split_feature=1 2 8 1 1 8
split_gain=0.298863 0.085987 0.0726199 0.075695 0.0602067 0.0248461
threshold=-1.0790772111424711 0 -1.0444070315028473 -0.18286583988018093 -0.39637015590168662 -0.18926420218131557
decision_type=2 1 2 2 2 2
left_child=-1 -2 -3 4 -4 -5
right_child=1 2 3 5 -6 -7
leaf_value=-0.0040653294790693661 -0.0016572556274213111 -0.0006181208076751093 0.00072758485955645063 0.002357834063807354 -0.0017346773808179486 0
leaf_count=29 27 29 56 61 22 45
internal_value=0 0.0036385 0.0141075 0.0241914 0 0.041464
internal_count=269 240 213 184 78 106
cat_boundaries=0 1
cat_threshold=2
shrinkage=0.040629


Tree=87
num_leaves=8
num_cat=0
split_feature=0 0 8 0 8 0 0
split_gain=2.17977 0.452154 0.462755 0.309674 0.301661 0.103584 0.0928491
threshold=-1.2072531828247663 0.67512396455913748 1.0000000180025095e-35 -0.29295571123829889 -0.2842800721059302 0.9440349856139808 0.19108412666041921
decision_type=2 2 2 2 2 2 2
left_child=-1 2 4 -4 6 -3 -2
right_child=1 5 3 -5 -6 -7 -8
leaf_value=0.003735709002677856 0.00023233483352123855 -0.003715502650390654 -0.0031609544798769222 -0 0.0021978346564417895 -0.0012285950254538227 -0.00084791277427015194
leaf_count=32 36 26 26 32 20 58 39
internal_value=0 -0.0630568 -0.0220888 -0.094234 0.0120639 -0.124775 -0.00536164
internal_count=269 237 153 58 95 84 75
shrinkage=0.0179896


Tree=88
num_leaves=5
num_cat=0
split_feature=0 8 3 8
split_gain=2.62921 0.548476 0.490071 0.125674
threshold=-0.45430232387120495 0.55185958323067885 -0.5343324385582241 0.095783407592528388
decision_type=2 2 2 2
left_child=1 -1 -2 -4
right_child=2 -3 3 -5
leaf_value=0.00047573042001209346 -0.0035958229105955484 0.0051395506430652318 -0.0011104840562188023 6.8223644195791058e-05
leaf_count=37 56 38 117 21
internal_value=0 0.141543 -0.0765944 -0.0344173
internal_count=269 75 194 138
shrinkage=0.0223956


Tree=89
num_leaves=7
num_cat=1
split_feature=0 0 2 0 8 8
split_gain=5.35045 0.653911 0.312362 0.112699 0.0131792 0.0797348
threshold=-1.4761642038796097 -0.66943114071507959 0 0.67512396455913748 1.0000000180025095e-35 -0.47431181195515953
decision_type=2 2 1 2 2 2
left_child=-1 -2 -3 4 5 -4
right_child=1 2 3 -5 -6 -7
leaf_value=0.0087510787395576883 0.0022048996454830383 -0.0035817364267343122 0.0001559778333670265 -0.0011523927963588865 0.00035243442020444751 -0.00097117892716307456
leaf_count=35 37 20 38 64 34 41
internal_value=0 -0.0129142 -0.0396255 -0.0192395 -0 -0.00723276
internal_count=269 234 197 177 113 79
cat_boundaries=0 1
cat_threshold=2
shrinkage=0.0219853


Tree=90
num_leaves=5
num_cat=0
split_feature=1 8 1 8
split_gain=5.30807 3.98596 0.430761 0.0442184
threshold=-0.649534798959292 0.47584688729098706 -0.2540383904489989 1.0000000180025095e-35
decision_type=2 2 2 2
left_child=1 -1 3 -2
right_child=2 -3 -4 -5
leaf_value=-0 -0.00088213970391771697 0.010638478643726584 -0.0029906790371199993 0
leaf_count=29 28 23 168 21
internal_value=0 0.226209 -0.123185 -0.0151191
internal_count=269 52 217 49
shrinkage=0.0201378


Tree=91
num_leaves=7
num_cat=0
split_feature=0 0 3 3 1 1
split_gain=0.690334 0.319525 0.0422681 0.0634677 0.0170623 0.0258577
threshold=-0.83077775334798576 -1.7450752249344532 -0.90159008364854298 1.0000000180025095e-35 -0.41274637701813938 0.048735000616101969
decision_type=2 2 2 2 2 2
left_child=1 -1 -2 -4 -5 -6
right_child=2 -3 3 4 5 -7
leaf_value=-0 -0.0025315456579513298 0.0058430803019484719 0.00041944760489749346 -0.0023296047586357288 0 -0.00085387667945995937
leaf_count=25 66 33 20 30 32 63
internal_value=0 0.0853196 -0.0356511 -0.0154079 -0.0275659 -0.00665464
internal_count=269 58 211 145 125 95
shrinkage=0.0393674


Tree=92
num_leaves=8
num_cat=0
split_feature=0 1 8 8 1 1 0
split_gain=0.736227 0.185238 0.465844 0.0862857 0.135857 0.105404 0.0244496
threshold=-1.4223819996686411 0.69054151012059961 0.17179610353222011 0.095783407592528388 -0.061871170344695553 -0.62383693406401153 0.83647057719204343
decision_type=2 2 2 2 2 2 2
left_child=-1 3 -3 4 5 -2 -6
right_child=1 2 -4 -5 6 -7 -8
leaf_value=0.0049369104539065322 -0 -0 -0.0066657087129432342 0.0013611255576450991 -0 -0.0027669398758929558 0.0012186318531132586
leaf_count=30 36 37 27 23 37 56 23
internal_value=0 -0.0308428 -0.0788664 -0.00724976 -0.0205221 -0.0463524 0.00280147
internal_count=269 239 64 175 152 92 60
shrinkage=0.0378121


Tree=93
num_leaves=9
num_cat=0
split_feature=1 0 8 7 1 1 8 8
split_gain=1.87352 1.02684 0.160151 0.110558 0.0827526 0.0526112 0.0476442 0.057769
threshold=-1.1314731173041512 0.72890616877010606 -0.12275309323408533 4.5000000000000009 -0.55407796609970827 0.19766793011817418 -0.66434355180438875 -0.37929594203054484
decision_type=2 2 2 2 2 2 2 2
left_child=-1 2 6 -4 -5 -6 -2 -8
right_child=1 -3 3 4 5 -7 7 -9
leaf_value=0.0054218477918486279 0.0003988262049774363 -0.0023067668626670819 -0 0 0.0027021273578449146 4.1038164345084995e-05 -0.0011773292552074099 0
leaf_count=25 33 71 21 21 28 23 26 21
internal_value=0 -0.0112797 0.0257233 0.0541161 0.0727015 0.0949286 -0 -0.0267452
internal_count=269 244 173 93 72 51 80 47
shrinkage=0.0201577


Tree=94
num_leaves=9
num_cat=0
split_feature=0 1 1 1 7 7 0 8
split_gain=0.456135 0.344689 0.342564 0.158927 0.179394 0.080398 0.0781518 0.03172
threshold=-0.56186673229314221 -0.68336743167300595 -0.24598363674025506 0.99659547968297035 3.5000000000000004 3.5000000000000004 -1.5299464080905785 1.0000000180025095e-35
decision_type=2 2 2 2 2 2 2 2
left_child=1 6 5 4 -4 -2 -1 -6
right_child=2 -3 3 -5 7 -7 -8 -9
leaf_value=0.00099121136614068774 -0 0.0029654003115294888 -0.0026509707227014893 0 0 0.0013443892346525464 -0.00072726497140591288 -0.00078420086364321226
leaf_count=22 27 34 43 27 29 32 21 34
internal_value=0 0.0677412 -0.0225571 -0.0536019 -0.0712985 0.0304856 0 -0.0164967
internal_count=269 77 192 133 106 59 43 63
shrinkage=0.0209294


Tree=95
num_leaves=7
num_cat=0
split_feature=0 1 8 0 0 0
split_gain=0.81802 0.161853 0.226588 0.281721 0.120097 0.118555
threshold=-1.4761642038796097 1.0000000180025095e-35 0.17179610353222011 0.9440349856139808 0.2448663308713879 -0.34673791544926758
decision_type=2 2 2 2 2 2
left_child=-1 5 3 4 -3 -2
right_child=1 2 -4 -5 -6 -7
leaf_value=0.0024086307159931846 -0.00013988205924478616 0.0024504143135977699 -0.0025422923295678529 -0.0018169941056423446 0 -0.0027824562857229878
leaf_count=32 35 20 25 32 44 81
internal_value=0 -0.0603489 -0.0223042 0 0.0383242 -0.0909567
internal_count=269 237 121 96 64 116
shrinkage=0.0241857


Tree=96
num_leaves=11
num_cat=1
split_feature=0 0 0 4 0 1 8 8 1 1
split_gain=1.49608 0.221745 0.197273 0.131063 0.095415 0.061567 0.0372135 0.0278576 0.014112 0.0203546
threshold=-1.8795307354618747 -0.88455995755895434 0.67512396455913748 0 0.56755955613720011 0.37971336534675476 -0.12275309323408533 -0.66434355180438875 -0.1754912061037979 -0.60232647424248198
decision_type=2 2 2 1 2 2 2 2 2 2
left_child=-1 -2 3 4 5 8 7 -4 9 -3
right_child=1 2 6 -5 -6 -7 -8 -9 -10 -11
leaf_value=0.010304003635469143 -0.0046543468769942656 -0.0012145811602399623 -0 0.0023609168967266953 0.0018632578390920011 0 -0 -0.0039433630490342741 -0.0028354342986759676 0
leaf_count=20 22 21 21 41 22 22 30 25 23 22
internal_value=0 -0.0197714 -0.00553486 0.0101829 -0 -0.0225696 -0.0494773 -0.0692989 -0.0399445 -0
internal_count=269 249 227 151 110 88 76 46 66 43
cat_boundaries=0 1
cat_threshold=2
shrinkage=0.0399307


Tree=97
num_leaves=6
num_cat=1
split_feature=0 0 3 4 0
split_gain=3.23087 0.79453 0.197864 0.14515 0.134011
threshold=-1.4761642038796097 0.56755955613720011 0.46727932077900874 0 0.029737514027513141
decision_type=2 2 2 1 2
left_child=-1 2 3 -2 -4
right_child=1 -3 4 -5 -6
leaf_value=0.0068472671145043233 0 -0.0024135590562718743 0.0016038105857072089 -0.00223093010970114 -0
leaf_count=30 39 101 53 20 26
internal_value=0 -0.039503 0.00311376 -0.0316893 0.0416772
internal_count=269 239 138 59 79
cat_boundaries=0 1
cat_threshold=2
shrinkage=0.0225576


Tree=98
num_leaves=9
num_cat=0
split_feature=1 0 0 0 8 0 1 1
split_gain=0.317068 0.23507 0.0734943 0.136857 0.0853966 0.158781 0.0377048 0.00581566
threshold=-1.2162347308352373 0.72890616877010606 -0.50808452808217364 -1.3685997954576725 -0.47431181195515953 0.029737514027513141 0.12198791803684718 0.048735000616101969
decision_type=2 2 2 2 2 2 2 2
left_child=-1 2 3 -2 -4 -6 -7 -3
right_child=1 7 4 -5 5 6 -8 -9
leaf_value=-0.0033720858737923453 -0 -0 0.001336965266843368 0.0030933751934073177 -0.0020498585681714386 -0 0.0011913459725412866 -0.0016077398587977618
leaf_count=25 21 22 40 28 32 25 28 48
internal_value=0 0.000303239 0.0238603 0.058767 0.00188259 -0.00690159 0.0123277 -0.0436797
internal_count=269 244 174 49 125 85 53 70
shrinkage=0.0299417


Tree=99
num_leaves=9
num_cat=2
split_feature=2 8 0 0 0 8 0 4
split_gain=0.655061 0.167173 0.0854769 0.245235 0.0874804 0.159922 0.03647 0.0199556
threshold=0 -0.75935942172900339 -0.077826894394424209 -1.5299464080905785 0.72890616877010606 -0.37929594203054484 0.3524307392933253 1
decision_type=1 2 2 2 2 2 2 1
left_child=1 6 3 -3 7 -6 -1 -4
right_child=-2 2 4 -5 5 -7 -8 -9
leaf_value=-0.0023246145623462594 -0.0054411450410211237 -0.00014246619509047549 -0.0010772514137620069 0.0032091216621837012 0.0033064846696320939 -0 -0 0
leaf_count=25 27 20 42 51 25 25 28 26
internal_value=0 0.00531772 0.0227226 0.0504944 0 0.0363832 -0.0375016 -0.0170122
internal_count=269 242 189 71 118 50 53 68
cat_boundaries=0 1 2
cat_threshold=4 2
shrinkage=0.0353531


Tree=100
num_leaves=5
num_cat=0
split_feature=0 0 0 8
split_gain=30.3083 4.78158 0.620211 0.110986
threshold=-1.3148175912467037 0.51377735192623142 0.029737514027513141 1.0000000180025095e-35
decision_type=2 2 2 2
left_child=-1 2 3 -2
right_child=1 -3 -4 -5
leaf_value=0.01358700178793483 0 -0.0045156740452698112 -0.0010453826721016685 0.0017562068780335562
leaf_count=37 26 107 59 40
internal_value=0 -0.124396 0.000890738 0.0743729
internal_count=269 232 125 66
shrinkage=0.0162043


Tree=101
num_leaves=7
num_cat=0
split_feature=0 1 1 8 0 0
split_gain=5.12225 0.207673 0.0866395 0.16012 0.0124841 0.000756268
threshold=-1.7988574291454218 -0.19958878880528827 0.20494921409991948 0.095783407592528388 -0.50808452808217364 0.2448663308713879
decision_type=2 2 2 2 2 2
left_child=-1 4 5 -4 -2 -3
right_child=1 2 3 -5 -6 -7
leaf_value=0.0098612589100815547 -0.00052444833403039986 -0 -0.001554911179271951 0 -0.0025668530964968496 0.00010072323340238908
leaf_count=21 35 21 62 34 61 35
internal_value=0 -0.0535812 -0.0211813 -0.0400106 -0.0938246 0
internal_count=269 248 152 96 96 56
shrinkage=0.0219757


Tree=102
num_leaves=7
num_cat=0
split_feature=0 0 1 1 0 0
split_gain=7.71274 2.1752 0.446217 0.388867 0.21422 0.18329
threshold=-1.3148175912467037 1.0000000180025095e-35 -0.3220770550549778 0.13028271407465961 -0.56186673229314221 0.62134176034816868
decision_type=2 2 2 2 2 2
left_child=-1 3 -3 4 -2 -4
right_child=1 2 5 -5 -6 -7
leaf_value=0.0067552967808043769 0.0027095879616930128 -0 -0.0010468015554697249 -5.1333068150173789e-05 0.00011415547389768862 -0.0029828461916247759
leaf_count=34 29 26 51 26 28 75
internal_value=0 -0.0564724 -0.129562 0.0654227 0.11357 -0.154066
internal_count=269 235 152 83 57 126
shrinkage=0.0151419


Tree=103
num_leaves=9
num_cat=0
split_feature=6 0 1 0 0 8 8 8
split_gain=1.21738 0.267729 0.268335 0.171678 0.111773 0.0545323 0.021442 0.0126731
threshold=0.7117035203633213 -1.2072531828247663 -0.6794067332433753 0.67512396455913748 -0.13160909860539288 -0.56932768187977412 -0.37929594203054484 -0.12275309323408533
decision_type=2 2 2 2 2 2 2 2
left_child=1 -1 -3 4 -4 -5 -7 -6
right_child=-2 2 3 5 7 6 -8 -9
leaf_value=0.0032975076964382641 0.008426465992747486 -0.0040237052282893308 -4.6960310915722324e-05 -0.0033564580502408255 0.0023595300963512385 0 -0.0010505826627760302 0
leaf_count=33 30 29 26 20 57 21 30 23
internal_value=0 0 -0.013196 0 0.0269909 -0.0360802 -0 0.0483922
internal_count=269 239 206 177 106 71 51 80
shrinkage=0.0399465


Tree=104
num_leaves=5
num_cat=0
split_feature=0 0 8 0
split_gain=30.137 4.11124 0.312926 0.124099
threshold=-1.3148175912467037 -0.077826894394424209 -0.12275309323408533 0.67512396455913748
decision_type=2 2 2 2
left_child=-1 2 -2 -3
right_child=1 3 -4 -5
leaf_value=0.013683138900655903 -1.5944692729983075e-05 -0.0029298971530299055 0.0019000806675151998 -0.0052077915601262646
leaf_count=43 31 82 41 72
internal_value=0 -0.138502 0.0470745 -0.23146
internal_count=269 226 72 154
shrinkage=0.0178732


Tree=105
num_leaves=6
num_cat=0
split_feature=0 0 8 1 6
split_gain=6.48402 1.38423 0.265191 0.0267628 0.050463
threshold=-1.3148175912467037 0.62134176034816868 -0.85437529165361803 0.55457086638822783 1.0000000180025095e-35
decision_type=2 2 2 2 2
left_child=-1 2 -2 4 -4
right_child=1 -3 3 -5 -6
leaf_value=0.0074157427186161287 -0.0011833972754749871 -0.0022416028429504491 0 0 0.00094158974276338069
leaf_count=28 23 96 22 31 69
internal_value=0 -0.0442479 0.0112977 0.0357254 0.0446908
internal_count=269 241 145 122 91
shrinkage=0.0162782


Tree=106
num_leaves=6
num_cat=1
split_feature=0 2 0 1 0
split_gain=8.38671 1.28068 1.0003 0.0932114 0.0307459
threshold=-1.099688774402829 0 0.13730192244945053 -0.56824046351475122 0.67512396455913748
decision_type=2 1 2 2 2
left_child=-1 -2 3 -3 -4
right_child=1 2 4 -5 -6
leaf_value=0.0060505549704792608 -0.0056537640127070883 0.00079058210425257322 -0.0012400926941266461 -0.00030028057766196285 -0.0027604095091731565
leaf_count=39 23 32 65 38 72
internal_value=0 -0.117509 -0.0851601 0 -0.134831
internal_count=269 230 207 70 137
cat_boundaries=0 1
cat_threshold=2
shrinkage=0.0160936


Tree=107
num_leaves=8
num_cat=0
split_feature=0 1 1 6 1 1 1
split_gain=2.27559 0.564878 0.312524 0.170519 0.271673 0.0214355 0.0224582
threshold=-1.4761642038796097 -0.3220770550549778 -1.040937152190472 1.5133399273299297 0.95452139367123701 0.18107833804254939 0.39692973461494735
decision_type=2 2 2 2 2 2 2
left_child=-1 2 -2 4 5 -3 -7
right_child=1 3 -4 -5 -6 6 -8
leaf_value=0.009076232961794297 -0.0022911215658280959 -0.0026219767207786631 0.0020780373951874097 0 -0.0070427859979150997 0 -0.0010071618238727117
leaf_count=27 22 60 65 20 24 20 31
internal_value=0 -0.039139 0.0162436 -0.0765398 -0.0892954 -0.0542797 -0.009201
internal_count=269 242 87 155 135 111 51
shrinkage=0.0347631


Tree=108
num_leaves=8
num_cat=1
split_feature=0 8 0 8 8 4 8
split_gain=2.1581 0.441614 0.347193 0.082124 0.0792318 0.204748 0.00551133
threshold=-0.61564893650411101 0.55185958323067885 0.62134176034816868 1.0000000180025095e-35 -0.37929594203054484 0 0.095783407592528388
decision_type=2 2 2 2 2 1 2
left_child=1 -1 4 -4 5 -2 -6
right_child=2 -3 3 -5 6 -7 -8
leaf_value=0.00039381421258547443 0 0.0040353896658038976 -0.0028085006716506264 -0.00023510264678990701 0.00019842422339964299 -0.0022380416163244954 -0.00013947668725491834
leaf_count=38 30 36 59 24 39 23 20
internal_value=0 0.12907 -0.0692389 -0.12134 -0.0210465 -0.0489303 0
internal_count=269 74 195 83 112 53 59
cat_boundaries=0 1
cat_threshold=2
shrinkage=0.0189705


Tree=109
num_leaves=8
num_cat=0
split_feature=8 8 1 7 0 1 8
split_gain=3.43722 0.367236 0.240839 0.181206 0.085783 0.0881377 0.00115689
threshold=0.99843417187636774 -0.18926420218131557 0.34390705126069959 3.5000000000000004 0.29864853508235661 -0.54695671033734194 -0.85437529165361803
decision_type=2 2 2 2 2 2 2
left_child=1 3 4 6 5 -3 -1
right_child=-2 2 -4 -5 -6 -7 -8
leaf_value=-0.0020277522797480102 0.0058258608397055017 0 -0.00084593384238887826 -0 -0 0.0018010992681341772 -0.00061492966680672275
leaf_count=40 25 29 31 41 25 27 51
internal_value=0 -0.0256719 0.0090466 -0.0624953 0.0448186 0.0662924 -0.087269
internal_count=269 244 112 132 81 56 91
shrinkage=0.0163776


Tree=110
num_leaves=9
num_cat=0
split_feature=8 8 8 1 1 0 0 0
split_gain=0.859039 0.267143 0.091538 0.19607 0.034914 0.00523058 0.00480107 0.00242784
threshold=0.84640877999698427 -0.18926420218131557 0.47584688729098706 -0.081781347972434956 0.73570947504032724 -0.23917350702733023 -0.13160909860539288 0.56755955613720011
decision_type=2 2 2 2 2 2 2 2
left_child=1 4 3 6 5 -1 -3 -5
right_child=-2 2 -4 7 -6 -7 -8 -9
leaf_value=-0 0.006316696704940469 -0.00061003971593790699 -0.0010073968158146776 0.0043244756617052734 -0 -0.003019434713938745 0 0
leaf_count=23 34 22 28 26 23 72 21 20
internal_value=0 -0.0179115 0.00906305 0.0306816 -0.0529122 -0.0619205 -0 0.0772937
internal_count=269 235 117 89 118 95 43 46
shrinkage=0.0422234


Tree=111
num_leaves=6
num_cat=1
split_feature=4 7 8 8 3
split_gain=0.180745 0.217835 0.384804 0.0623019 0.0460329
threshold=0 4.5000000000000009 0.095783407592528388 0.47584688729098706 0.46727932077900874
decision_type=1 2 2 2 2
left_child=1 4 -3 -2 -1
right_child=3 2 -4 -5 -6
leaf_value=-0.001370716593193501 -0.0020710600691908145 -0 0.0043964652243055199 0 0
leaf_count=45 64 52 36 21 51
internal_value=0 0.00934477 0.048383 -0.0443207 -0.0162609
internal_count=269 184 88 85 96
cat_boundaries=0 1
cat_threshold=2
shrinkage=0.0347235


Tree=112
num_leaves=9
num_cat=1
split_feature=0 0 8 8 0 0 4 6
split_gain=0.319617 0.316938 0.390024 0.199428 0.0613561 0.0146282 0.00218842 0.00216201
threshold=-0.34673791544926758 -1.7450752249344532 0.095783407592528388 0.55185958323067885 0.3524307392933253 0.78268837298107485 0 0.17193500633913836
decision_type=2 2 2 2 2 2 1 2
left_child=1 -1 -3 4 7 -6 -7 -2
right_child=3 2 -4 -5 5 6 -8 -9
leaf_value=-0.0015888293753725485 0.00031810859594566928 0 0.0060425402960559314 -0.0048625049612769115 -0.0017456008768992602 0 -0.0003561133071731558 -0
leaf_count=22 25 41 24 20 52 34 20 31
internal_value=0 0.0321287 0.0738616 -0.038076 -0.0186548 -0.0332198 -0 0
internal_count=269 87 65 182 162 106 54 56
cat_boundaries=0 1
cat_threshold=2
shrinkage=0.0348845


Tree=113
num_leaves=9
num_cat=0
split_feature=7 3 8 1 1 8 1 1
split_gain=0.318582 0.648525 0.206837 0.273147 0.118098 0.132068 0.128072 0.034589
threshold=4.5000000000000009 -0.90159008364854298 0.17179610353222011 -0.20683006573218879 0.72802812051013444 -0.66434355180438875 -0.2540383904489989 -0.32863821204951754
decision_type=2 2 2 2 2 2 2 2
left_child=4 -2 3 -3 5 6 -1 -7
right_child=1 2 -4 -5 -6 7 -8 -9
leaf_value=0.0045857134770041132 -0.0064632690721698246 -0.0041815118893025237 0.0029117628630353481 0.00060334155457184425 0.0043851009896396934 -0.0014643979145938454 0 0
leaf_count=22 30 28 35 36 27 27 25 39
internal_value=0 -0.0283826 0.00141872 -0.0213214 0.0391793 0.0137143 0.0564914 -0.00221132
internal_count=269 129 99 64 140 113 47 66
shrinkage=0.0414688


Tree=114
num_leaves=9
num_cat=0
split_feature=8 1 1 0 8 8 0 1
split_gain=0.500008 0.183074 0.0761227 0.10665 0.0679134 0.0626122 0.0583286 0.0577736
threshold=1.2359738466879044 0.59081725807757524 -0.6794067332433753 -1.3148175912467037 -0.12275309323408533 -0.94939116157823267 0.67512396455913748 -0.4058251565299969
decision_type=2 2 2 2 2 2 2 2
left_child=1 2 3 -1 5 -4 -7 -6
right_child=-2 -3 4 -5 7 6 -8 -9
leaf_value=0 0.0049861091252503698 -0.0024996499383307066 -0 -0.0024843531530943713 0.00016127647328805639 0.0023259272193874828 0 -0.0014655714476520809
leaf_count=20 21 47 22 33 23 45 25 33
internal_value=0 -0.0153721 -0 -0.0340516 0.00952182 0.0292905 0.0447843 -0.0053555
internal_count=269 248 201 53 148 92 70 56
shrinkage=0.0352104


Tree=115
num_leaves=7
num_cat=0
split_feature=1 8 1 7 8 0
split_gain=0.292299 0.36225 0.123745 0.135994 0.0394543 0.0707716
threshold=1.5497596913364406 1.0000000180025095e-35 0.45299295413739643 3.5000000000000004 0.84640877999698427 -1.099688774402829
decision_type=2 2 2 2 2 2
left_child=1 2 3 -1 5 -3
right_child=-2 4 -4 -5 -6 -7
leaf_value=-0.0030657422714009514 -0.0041681696952383142 -0 0.00018522899675858066 -0 0.0043019185148266293 0.0016958845743961493
leaf_count=59 26 22 34 40 23 65
internal_value=0 0.00467588 -0.0256065 -0.0459205 0.0501998 0.0228589
internal_count=269 243 133 99 110 87
shrinkage=0.0403211


Tree=116
num_leaves=6
num_cat=0
split_feature=0 1 0 8 7
split_gain=2.94195 0.593011 0.237625 0.130249 0.0198293
threshold=-0.88455995755895434 -0.6794067332433753 0.56755955613720011 0.17179610353222011 4.5000000000000009
decision_type=2 2 2 2 2
left_child=-1 -2 3 4 -3
right_child=1 2 -4 -5 -6
leaf_value=0.0045024000703645459 0.0017554247103165692 -0.00011620854546403502 -0.0020035571082290299 -0.0016841549024671108 0.00043397072886884863
leaf_count=55 27 32 94 20 41
internal_value=0 -0.0367431 -0.0600757 -0.0108705 0
internal_count=269 214 187 93 73
shrinkage=0.0205274


Tree=117
num_leaves=9
num_cat=1
split_feature=1 0 0 0 1 7 1 4
split_gain=0.440442 0.136042 0.0906582 0.0620954 0.280295 0.100827 0.0323836 0.0435525
threshold=0.51339027126802728 0.62134176034816868 0.83647057719204343 -0.18539130281636157 -0.92107601587558807 4.5000000000000009 -0.1254157091231137 0
decision_type=2 2 2 2 2 2 2 1
left_child=2 -2 3 4 -1 -6 7 -5
right_child=1 -3 -4 6 5 -7 -8 -9
leaf_value=-0.00075691415764724543 -0.0042451452973741831 -0 0.0022410035529878743 -0 0.0047658931785988651 0 0 -0.00226768385038578
leaf_count=40 37 32 34 27 22 26 29 22
internal_value=0 -0.0755205 0.0152482 0 0.022631 0.0792203 -0.0144576 -0.0312719
internal_count=269 69 200 166 88 48 78 49
cat_boundaries=0 1
cat_threshold=2
shrinkage=0.0357681


Tree=118
num_leaves=9
num_cat=0
split_feature=0 8 0 0 1 7 3 1
split_gain=4.78093 1.67509 0.247747 0.273666 0.131305 0.12834 0.111582 0.00206577
threshold=-1.3148175912467037 0.99843417187636774 0.67512396455913748 -0.13160909860539288 0.040546890057875574 3.5000000000000004 1.0000000180025095e-35 -0.098090890664146488
decision_type=2 2 2 2 2 2 2 2
left_child=1 -1 3 4 -2 7 -4 -5
right_child=2 -3 6 5 -6 -7 -8 -9
leaf_value=0.0016743080086410857 -0.0020727990388483292 0.011538112360687088 -0 0 0 0.0013843975922821507 -0.0023029280647988604 -0.00021433026676990086
leaf_count=23 36 21 26 28 20 46 49 20
internal_value=0 0.324576 -0.0303746 -0 -0.0605694 0.0260673 -0.0774816 -0
internal_count=269 44 225 150 56 94 75 48
shrinkage=0.0216099


Tree=119
num_leaves=8
num_cat=0
split_feature=0 7 3 0 0 0 8
split_gain=3.85342 0.277491 0.383306 0.420446 0.136355 0.00328223 0.00310406
threshold=-1.8795307354618747 4.5000000000000009 1.0000000180025095e-35 -0.077826894394424209 0.29864853508235661 0.67512396455913748 0.095783407592528388
decision_type=2 2 2 2 2 2 2
left_child=-1 2 -2 -4 6 -5 -3
right_child=1 4 3 5 -6 -7 -8
leaf_value=0.0063185822839748875 -0.0014838011910417094 0.0013305859710658339 0.0020456029258097809 -0 -0 -0.00065577092931034338 5.4250444940621658e-06
leaf_count=24 63 31 20 26 40 36 29
internal_value=0 -0.00507483 -0.0362617 0 0.0301564 -0.0312896 0.0611643
internal_count=269 245 145 82 100 62 60
shrinkage=0.0156504


Tree=120
num_leaves=9
num_cat=0
split_feature=1 6 0 8 7 0 1 1
split_gain=0.701784 0.240419 0.0873069 0.0810346 0.0681009 0.0450986 0.0601922 0.0185377
threshold=-0.87421441896743246 0.7117035203633213 1.1591638024578557 -0.56932768187977412 3.5000000000000004 -0.50808452808217364 -0.040013982714511433 -0.1935343878387821
decision_type=2 2 2 2 2 2 2 2
left_child=4 2 3 7 -1 -5 -7 -2
right_child=1 -3 -4 5 -6 6 -8 -9
leaf_value=0.0037929792418550422 -0.0011229746432502472 -0.0027371711892503485 -0.0014514626605587385 -0 0.00045620230116051765 0 0.0012154970411178214 -0
leaf_count=23 25 23 22 24 27 43 50 32
internal_value=0 -0.0218173 -0.00477421 0 0.1082 0.0178165 0.0296352 -0.0274107
internal_count=269 219 196 174 50 117 93 57
shrinkage=0.022975


Tree=121
num_leaves=6
num_cat=0
split_feature=0 0 0 8 0
split_gain=1.31788 0.540198 0.416504 0.170539 0.0863765
threshold=-1.2072531828247663 0.72890616877010606 -0.66943114071507959 -0.66434355180438875 1.0000000180025095e-35
decision_type=2 2 2 2 2
left_child=-1 2 -2 -4 -5
right_child=1 -3 3 4 -6
leaf_value=0.0038044411758227847 -0.0017655400906070107 -0.0017567422186315891 -0 0 0.0016751978137771574
leaf_count=34 28 76 37 28 66
internal_value=0 -0.0170618 0.0107273 0.0399139 0.0633147
internal_count=269 235 159 131 94
shrinkage=0.0200608


Tree=122
num_leaves=9
num_cat=0
split_feature=1 7 0 0 0 1 3 1
split_gain=0.550818 0.0917875 0.0695173 0.0890377 0.065174 0.0431507 0.025149 0.0162639
threshold=-0.83955497378692701 4.5000000000000009 0.78268837298107485 -0.50808452808217364 0.9978171898249496 -0.19673495222636242 0.46727932077900874 0.85635741676715804
decision_type=2 2 2 2 2 2 2 2
left_child=6 4 3 -3 5 -2 -1 -7
right_child=1 2 -4 -5 -6 7 -8 -9
leaf_value=0.00016961574543904339 -0.0028279918343244422 -0 -0.0006769926830229036 0.0017691725817301112 0 0 0.0048219298036216449 -0.00096882051281770389
leaf_count=20 30 20 27 57 24 39 29 23
internal_value=0 -0.00807753 0.00636742 0.0284256 -0.0295189 -0.0423914 0.105795 -0.0064306
internal_count=269 220 104 77 116 92 49 62
shrinkage=0.034552


Tree=123
num_leaves=7
num_cat=0
split_feature=8 8 8 1 1 1
split_gain=0.277289 0.662059 0.0395981 0.0239699 0.0171666 0.0487469
threshold=1.1409579767632898 0.55185958323067885 -1.0444070315028473 -0.81623086081243523 -0.25841249511202541 1.0000000180025095e-35
decision_type=2 2 2 2 2 2
left_child=1 2 -1 -4 -5 -6
right_child=-2 -3 3 4 5 -7
leaf_value=-0.00023655565273208851 0.0034583843084543021 -0.004471303770691373 -0 0.0015942843454754536 -0.00056892367532501069 0.00076963990757334918
leaf_count=22 25 37 28 46 25 86
internal_value=0 -0.00690562 0.0109316 0.0184558 0.0235093 0.00468379
internal_count=269 244 207 185 157 111
shrinkage=0.034217


Tree=124
num_leaves=6
num_cat=0
split_feature=0 0 8 1 1
split_gain=1.98231 0.455368 0.234975 0.075306 0.0525566
threshold=-1.2072531828247663 0.13730192244945053 -0.56932768187977412 -0.28016299726262345 -0.27106806012791601
decision_type=2 2 2 2 2
left_child=-1 2 -2 -3 -4
right_child=1 3 4 -5 -6
leaf_value=0.0051842256887222153 -0.00077637256855440733 -0 0 -0.0015701190293780629 0.0021976122194160294
leaf_count=30 24 27 29 131 28
internal_value=0 -0.0293115 0.0229418 -0.0623647 0.0651272
internal_count=269 239 81 158 57
shrinkage=0.0216585


Tree=125
num_leaves=8
num_cat=0
split_feature=1 8 0 3 0 1 1
split_gain=1.08093 1.16292 0.206403 0.153105 0.0565932 0.0245902 0.00940614
threshold=-0.57676196619668396 0.656377040147755 0.78268837298107485 0.46727932077900874 -0.077826894394424209 0.13028271407465961 -0.19958878880528827
decision_type=2 2 2 2 2 2 2
left_child=4 2 3 -2 -1 6 -5
right_child=1 -3 -4 5 -6 -7 -8
leaf_value=0.002994883532056839 0.0015832209079442701 -0.0053576877753153933 -0.0014202340108989641 -0 0 -0.00062616185351843049 0.0004843373059139966
leaf_count=50 39 29 52 22 20 35 22
internal_value=0 -0.0412337 -0.00313253 0.0135061 0.102152 -0.000462208 0
internal_count=269 199 170 118 70 79 44
shrinkage=0.02395


Tree=126
num_leaves=10
num_cat=0
split_feature=1 0 0 1 8 7 0 1 1
split_gain=0.681063 0.489771 0.195854 0.305861 0.130033 0.102929 0.057134 0.0304365 0.000150961
