tree
version=v2
num_class=1
num_tree_per_iteration=1
label_index=0
max_feature_idx=8
objective=regression
feature_names=Age KM FuelType HP MetColor Automatic CC Doors Weight
feature_infos=[-2.9551748196812486:1.2936193129852771] [-1.8278492496168937:4.6532669638634134] 2:1:0 [-2.1702983121423713:6.0429181144229389] 1:0 1:0 [-1.4259935648809674:2.3149763342965377] [2:5] [-1.3769625762389988:10.309989424488604]
tree_sizes=571 653 717 560 711 852 830 849 698 767 774 792 749 835 744 853 826 640 792 791 761 761 734 874 770 672 662 803 802 772 777 586 770 972 833 477 658 762 694 547 715 835 731 770 783 561 844 645 834 694 473 636 682 577 725 776 765 573 621 546 572 794 765 868 796 747 685 827 783 697 715 751 717 722 773 748 758 638 487 624 693 734 547 600 551 717 701 743 769 760 462 770 564 750 641 727 841 875 713 730 698 696 488 771 572 768 621 629 671 677 674 783 865 698 718 779 431 766 571 635 711 626 710 764 728 756 798 565 725 765 923 629 713 643 760 562 545 807 831 603 633 560 925 846 665 685 791 712 451 782 645 621 567 633 778 626 768 720 692 709 674 738 770 770 536 490 748 759 657 640 667 584 930 777 651 797 485 468 709 552 776 609 742 636 614 548 771 787 792 628 615 842 836 820 774 647 663 813 688 698 723 622 711 729 550 620 659 773 848 613 469 704 795 680 702 646 753 662 725 689 489 858 746 719 471 504 705 583 563 777 701 638 609 836 466 775 834 619 834 748 679 547 563 563 692 660 797 677 611 561 697 713 946 721 614 621 778 684 686 617 511 517 825 563 866 741 560 743 657 700 646 565 491 567 757 699 643 550 696 674 543 752 630 622 659 488 797 576 542 577 787 756 557 634 684 550 766 905 756 654 566 726 620 710 767 494 562 628 690 713 683 754 771 627 778 691 711 839 493 823 765 713 627 828 643 494 751 792 758 710 640 565 746 723 766 846 332 744 744 696 634 629 919 666 709 703 648 629 790 488 690 881 698 654 620 734 625 862 586 605 760 711 863 469 626 625 693 605 532 830 548 471 710 684 763 685 766 482 688 612 575 627 616 769 735 705 615 753 675 552 780 825 759 527 746 726 632 725 710 812 767 700 763 702 756 633 694 624 618 639 760 886 638 722 681 719 805 414 694 687 861 903 826 627 622 756 695 676 756 568 683 847 763 724 615 733 775 763 765 552 766 778 473 674 757 638 856 678 776 782 671 585 694 563 685 745 781 688 582 825 703 599 834 705 814 572 587 608 595 542 619 726 695 632 522 571 691 787 646 531 623 708 602 667 693 756 753 551 843 606 667 783 713 754 668 761 535 726 694 771 628 614 634 676 679 788 686 752 707 829 616 783 736 822 685 546 704 575 469 689 800 730 522 570 553 763 590 780 848 775 622 570 575 756 759 585 598 681 771 604 756 764 798 763 626 681 650 714 601 467 781 676 698 735 677 626 625 703 790 677 856 635 780 626 871 755 679 853 774 570 630 714 850 474 652 627 582 617 844 659 726 514 689 846 617 638 462 493 645 768 563 577 710 585 487 793 561 828 625 528 615 619 671 470 562 704 766 676 690 766 777 641 542 558 765 724 760 530 909 682 584 548 602 702 721 719 595 754 727 855 676 938 778 735 691 670 765 579 659 631 772 765 647 719 762 636 692 630 585 545 333 548 693 569 609 770 489 791 705 568 697 827 823 593 605 679 675 653 539 602 748 675 620 714 661 725 685 686 772 691 574 758 683 682 615 604 802 681 681 615 613 628 680 687 681 737 602 624 678 845 657 711 720 842 734 623 711 610 482 615 699 686 910 737 747 541 700 695 740 683 694 773 783 754 693 847 467 686 496 719 807 669 392 681 698 784 705 546 781 674 696 799 687 563 686 586 839 670 568 621 432 699 729 574 656 629 757 869 752 564 695 612 336 634 527 791 627 773 834 725 748 566 719 565 705 727 553 694 599 681 624 551 517 625 650 700 671 533 693 753 657 672 821 631 673 769 623 530 613 692 761 432 682 609 716 632 661 790 685 671 636 684 588 640 776 601 662 679 630 720 687 546 731 639 625 499 685 681 800 666 751 716 532 743 627 646 681 570 552 740 683 575 755 660 651 715 730 744 707 703 622 701 654 634 792 674 614 746 757 810 697 691 706 493 773 741 634 766 815 411 548 768 622 712 492 764 807 753 618 642 793 681 513 608 554 829 620 639 601 705 772 701 532 603 631 453 651 791 502 608 764 349 469 610 768 666 754 537 751 561 656 807 768 628 690 763 701 546 606 316 756 554 564 614 784 685 899 743 653 633 557 630 837 786 782 710 657 630 545 691 710 654 692 598 666 696 751 625 614 793 565 753 544 655 772 393 671 710 758 692 696 607 484 606 690 766 495 703 702 630 661 738 686 676 610 635 609 532 532 764 585 633 659 814 626 759 775 581 762 704 675 805 664 564 624 687 674 666 751 454 746 663 696 699 783 603 682 680 774 751 750 604 654 472 679 607 663 782 604 559 632 542 894 665 682 856 737 608 739 712 604 615 644 601 395 566 569 703 610 708 551 625 760 670 510 701 683 744 685 780 628 706 730 828 681 693 621 709 625 568 421 713 692 618 723 389 538 585 516 750 700 703 848 722 541 754 612 765 608 767 670 800 695 607 487 698 627 621 642 574 545 466 695 710 700 631 687 764 642 706 684 740 631 633 722 688 547 693 645 640 852 540 685 773 566 497 730 621 684 703 601 599 601 785 749 480 551 628 669 786 722 692 661 602 797 695 628 608 689 721 630 680 613 737 559 669 682 565 532 664 671 634 679 653 687 856 791 646 745 716 664 531 672 673 433 599 682 509 476 705 689 632 673 697 762 642 647 764 674 553 577 581 721 741 663 815 680 785 560 686 646 719 704 664 583 846 684 769 625 644 669 608 782 696 546 598 755 827 591 537 672 585 657 683 488 721 551 537 755 690 606 479 693 549 761 642 605 690 510 818 637 662 690 591 703 823 692 558 509 629 696 754 649 664 728 608 417 693 676 678 692 568 737 698 640 819 745 676 669 762 834 676 543 849 642 614 746 613 560 757 562 615 622 670 683 767 779 414 632 756 796 693 487 412 625 570 510 618 621 657 689 671 625 702 541 652 714 627 722 665 645 524 708 611 553 641 676 656 738 698 487 851 710 652 620 742 739 778 647 544 655 614 624 536 766 472 693 595 753 613 823 749 684 697 700 544 673 622 633 613 952 631 677 698 659 501 544 683 815 623 850 751 664 700 546 718 766 694 820 651 545 608 732 620 747 625 692 682 682 685 608 745 740 752 596 682 736 746 742 680 559 691 554 698 698 648 685 427 536 670 778 746 808 754 596 735 843 698 497 644 633 681 681 793 531 625 674 769 644 470 612 781 674 632 754 548 748 486 747 651 767 766 609 543 559 660 760 585 705 565 651 656 694 568 514 572 670 632 565 800 676 625 769 614 706 618 692 689 707 546 783 651 721 667 666 676 557 548 787 668 709 637 665 704 737 594 645 535 746 611 598 532 689 533 697 619 519 708 621 595 529 515 473 750 667 767 568 627 565 550 620 551 724 574 601 858 743 647 699 686 539 767 643 651 672 686 625 646 539 629 697 687 652 523 643 702 599 603 671 725 842 651 647 624 553 774 544 538 844 731 614 683 574 742 773 641 677 586 762 703 748 768 500 746 609 537 653 542 639 650 725 552 614 659 504 607 699 694 815 549 759 608 672 752 771 576 607 702 690 648 661 653 537 515 599 600 812 489 511 571 534 633 720 806 664 655 686 501 735 500 720 797 550 799 591 731 628 699 628 660 760 819 721 466 851 694 791 776 644 554 756 619 699 553 456 617 657 723 501 658 664 693 735 608 327 561 615 718 813 765 534 772 610 483 754 654 709 678 602 646 803 566 735 630 602 688 563 683 681 628 732 749 622 662 701 586 610 806 674 578 680 615 755 579 394 735 742 689 685 675 822 824 553 702 655 401 758 705 780 726 699 692 670 762 664 691 636 704 674 672 649 725 722 658 531 553 622 725 713 748 608 760 758 625 698 548 698 617 666 613 397 763 761 754 653 667 550 547 567 599 725 655 670 687 711 678 831 805 684 558 622 670 731 611 636 543 771 734 518 749 583 653 599 699 553 662 748 678 714 623 691 491 595 662 557 576 692 562 518 583 726 598 602 713 720 735 532 647 678 565 569 577 683 540 491 663 553 630 621 671 657 677 747 615 566 616 592 732 661 655 513 693 575 674 538 563 605 760 530 539 307 783 523 604 535 724 600 750 797 539 623 466 612 607 595 762 544 677 726 683 540 775 471 685 397 654 650 573 553 784 679 582 686 549 665 477 718 477 644 626 770 714 558 576 578 486 583 673 268 489 490 611 596 385 554 701 628 662 554 684 520 843 723 559 673 621 595 628 734 687 591 668 762 544 812 602 547 800 672 686 616 765 796 610 722 749 491 650 557 425 618 612 745 782 612 612 704 694 662 699 766 689 549 738 670 728 767 464 731 667 546 792 536 769 644 851 594 712 509 816 565 554 623 621 746 464 589 672 610 608 760 695 749 654 645 643 684 547 804 706 585 544 748 664 650 650 643 565 647 681 768 457 601 529 604 595 647 712 461 636 612 669 733 625 762 517 766 634 758 509 706 846 744 613 578 562 563 729 841 697 630 776 665 820 629 624 760 822 503 608 685 598 715 696 609 481 623 623 605 635 766 739 683 636 530 475 550 521 697 754 667 622 630 760 604 608 555 579 660 659 562 533 633 618 839 744 533 760 701 737 850 625 743 774 638 709 740 591 541 536 675 666 672 623 616 628 794 562 771 532 810 657 655 654 515 763 358 616 717 477 703 636 496 707 684 683 696 690 703 696 421 702 524 685 580 712 599 595 623 676 796 556 693 544 603 486 821 697 686 745 771 756 789 701 631 584 648 679 659 617 756 743 657 663 611 697 692 621 738 575 659 488 815 707 627 759 746 687 741 668 729 494 648 704 625 698 654 499 628 624 531 672 538 548 617 688 591 727 671 674 685 776 652 490 646 799 764 789 583 484 420 637 599 747 629 578 604 834 764 702 630 549 748 655 589 546 521 745 577 677 646 565 672 540 534 675 839 435 725 724 542 384 576 385 618 601 743 605 631 295 601 624 786 689 682 676 758 739 622 494 661 638 696 571 670 597 621 543 520 732 606 791 709 695 593 603 356 740 763 653 759 469 752 525 594 690 647 631 540 657 607 832 687 760 704 703 666 629 524 633 613 609 606 541 695 784 681 492 583 520 546 604 617 692 537 646 702 724 604 531 690 599 620 519 898 628 535 647 548 601 468 713 337 443 656 559 705 554 674 580 663 790 685 592 745 642 624 699 791 666 550 763 459 638 592 565 531 468 470 618 684 670 681 623 651 684 709 647 557 507 544 553 611 552 654 572 661 597 728 608 744 488 614 674 769 743 594 774 741 568 518 606 619 662 751 593 686 736 696 616 619 481 684 756 622 762 694 657 552 639 659 817 682 702 615 596 854 533 665 658 596 563 760 748 735 603 612 693 624 590 679 703 757 577 637 724 688 730 751 665 540 613 390 659 485 747 537 623 554 569 536 540 674 683 552 626 540 743 587 677 697 567 630 455 671 666 678 682 569 631 682 572 568 623 640 731 488 671 682 687 762 625 682 624 656 524 738 622 549 595 688 577 584 663 737 552 522 579 724 624 459 510 672 603 570 535 519 663 663 735 611 447 707 647 549 565 603 653 670 681 651 746 606 631 818 623 758 549 568 656 665 565 684 652 575 742 578 488 686 475 603 683 690 760 557 685 617 751 680 551 386 604 604 616 599 697 662 610 528 604 743 671 625 632 532 502 659 698 669 538 436 595 784 650 519 540 619 744 546 473 670 738 666 665 584 608 552 660 742 454 621 685 645 649 799 749 551 678 743 791 475 626 519 747 609 712 621 624 692 651 615 673 808 539 771 749 476 739 532 478 553 702 642 711 679 658 532 708 633 732 790 743 526 742 733 790 542 461 514 725 766 721 587 685 590 627 564 671 497 558 654 554 620 684 618 687 633 475 501 671 592 763 684 679 540 550 741 616 676 526 488 648 791 735 681 675 688 650 597 654 591 758 677 687 634 484 519 749 536 455 679 606 683 545 646 724 474 465 553 658 630 700 741 663 700 525 594 826 722 686 516 549 523 527 611 499 670 604 639 651 627 531 666 518 630 473 551 562 625 607 555 694 489 398 678 671 697 603 770 456 661 664 706 555 754 522 555 534 755 730 752 675 726 534 661 605 633 697 679 531 707 784 481 558 607 672 544 750 588 505 416 569 766 676 626 600 652 718 625 688 608 654 679 617 742 587 708 479 762 608 693 677 623 614 603 570 450 611 758 698 682 730 650 551 762 619 613 560 662 609 623 566 551 488 534 623 649 645 593 793 561 713 511 680 621 586 620 672 687 688 759 337 690 550 757 684 544 682 687 685 594 666 572 432 555 631 505 674 636 660 520 681 514 609 685 563 806 475 685 601 685 538 705 638 612 731 665 475 720 640 714 476 532 509 633 536 654 707 562 671 764 648 747 649 635 634 531 533 535 556 720 645 559 762 591 696 632 630 545 759 591 661 849 609 600 683 730 542 673 679 656 669 721 695 538 682 628 732 528 611 700 686 550 660 682 537 708 745 658 622 670 530 703 723 420 806 609 768 710 578 684 770 513 533 724 639 630 786 677 759 598 803 749 590 637 739 706 701 669 758 679 475 708 552 612 507 620 668 538 674 666 597 645 617 511 662 697 612 680 336 732 763 545 652 685 536 579 558 511 680 668 635 619 407 442 683 700 401 401 604 817 666 445 671 558 708 502 619 588 615 679 591 622 611 473 675 719 602 677 533 569 731 530 417 709 673 551 593 710 691 680 544 542 656 683 544 694 728 678 685 577 613 805 608 654 677 667 613 669 398 663 470 594 762 580 558 644 551 754 580

Tree=0
num_leaves=6
num_cat=0
split_feature=0 0 0 0 8
split_gain=152.282 23.157 17.1724 4.63761 0.297381
threshold=-0.77699554913701696 -1.2610353870357349 0.029737514027513141 0.67512396455913748 -0.094248332256700929
decision_type=2 2 2 2 2
left_child=1 -1 4 -4 -2
right_child=2 -3 3 -5 -6
leaf_value=0.058012105220528846 -0.00087926297536697166 0.016474529473691553 -0.013798800524381807 -0.026306697305043224 0.0053708678585041893
leaf_count=37 22 28 88 74 20
internal_value=0 1.30551 -0.440797 -0.5888 0.107236
internal_count=269 65 204 162 42
shrinkage=0.0804663


Tree=1
num_leaves=7
num_cat=0
split_feature=0 0 0 1 1 1
split_gain=56.2849 16.8895 2.42574 1.01924 0.863163 0.0563466
threshold=-1.2610353870357349 -0.23917350702733023 0.67512396455913748 0.30698053963899136 -0.40730541755925281 -0.19604149660905337
decision_type=2 2 2 2 2 2
left_child=-1 4 3 5 -2 -3
right_child=1 2 -4 -5 -6 -7
leaf_value=0.041201991027522603 0.0121577600164092 -8.494719496093429e-05 -0.013638631120697244 -0.0094559429674181475 0.0026266910089484592 -0.0034732914329382043
leaf_count=27 37 31 78 42 25 29
internal_value=0 -0.147133 -0.304575 -0.182772 0.291665 -0.0738218
internal_count=269 242 180 102 62 60
shrinkage=0.0305204


Tree=2
num_leaves=8
num_cat=1
split_feature=0 8 0 3 3 0 4
split_gain=21.007 4.50969 2.10188 0.290959 0.177343 1.02177 0.132538
threshold=-0.56186673229314221 0.9129198889442145 0.083519718238481838 0.46727932077900874 1.0000000180025095e-35 0.51377735192623142 0
decision_type=2 2 2 2 2 2 1
left_child=1 -1 3 -2 -4 -6 -7
right_child=2 -3 4 -5 5 6 -8
leaf_value=0.0079125842975566549 -0.0018632688405646619 0.028360717593443961 -0.00989737927966447 0.0030535272489879812 -0 -0.0089474554829794342 -0.0023280841866249648
leaf_count=39 24 23 57 24 29 52 21
internal_value=0 0.493222 -0.165567 0 -0.220846 -0.16527 -0.227653
internal_count=269 62 207 48 159 102 73
cat_boundaries=0 1
cat_threshold=2
shrinkage=0.033158


Tree=3
num_leaves=6
num_cat=0
split_feature=0 0 7 3 0
split_gain=20.5574 1.27737 0.810971 0.596212 0.101277
threshold=-1.3148175912467037 -0.34673791544926758 4.5000000000000009 0.46727932077900874 0.51377735192623142
decision_type=2 2 2 2 2
left_child=-1 3 -3 -2 -4
right_child=1 2 4 -5 -6
leaf_value=0.023306691036366116 -0.0019307777473462355 -0.0056862546983065818 0 0.0041489431726454218 -0.0020336133747424013
leaf_count=31 21 111 36 30 40
internal_value=0 -0.0900431 -0.129471 0.0350053 -0.0323297
internal_count=269 238 187 51 76
shrinkage=0.0305431


Tree=4
num_leaves=8
num_cat=0
split_feature=1 8 3 8 1 1 8
split_gain=3.53054 3.52459 1.80769 0.685323 0.642226 0.30826 0.0545106
threshold=-0.90579332092489195 0.55185958323067885 1.0000000180025095e-35 0.076780233607605455 0.93866526426776609 0.16100813219543095 1.0000000180025095e-35
decision_type=2 2 2 2 2 2 2
left_child=1 -1 4 5 -2 6 -4
right_child=2 -3 3 -5 -6 -7 -8
leaf_value=-0 -0.0031212225536011904 0.015660029663833099 -3.8591956471472923e-05 0.004853585989578745 -0.010489099081953673 -0.0027521990891538608 0.0012798958874405996
leaf_count=27 67 21 38 22 21 44 29
internal_value=0 0.227832 -0.0676998 0 -0.178167 -0.026038 0.00348868
internal_count=269 48 221 133 88 111 67
shrinkage=0.0298181


Tree=5
num_leaves=10
num_cat=0
split_feature=0 1 8 0 0 8 1 1 0
split_gain=6.33999 0.846625 0.454317 0.440981 0.460635 0.0801661 0.0344756 0.177171 0.0791776
threshold=-1.8795307354618747 1.4637445234202187 -0.37929594203054484 -1.1534709786137978 0.2448663308713879 1.0000000180025095e-35 0.27856219501426754 -0.36013709989728743 0.19108412666041921
decision_type=2 2 2 2 2 2 2 2 2
left_child=-1 2 6 -4 -5 -6 7 8 -2
right_child=1 -3 3 4 5 -7 -8 -9 -10
leaf_value=0.017162317488005514 -0.0043363475749012021 -0.0079516957282893489 -0.003546389521382946 0.0041546208625994271 -0.001740464421467872 0.00063730430428755316 -0.0046088547020971867 0 -0
leaf_count=22 23 22 20 46 26 27 23 39 21
internal_value=0 -0.0453675 -0.0216203 0.0140696 0.0487301 -0 -0.0707902 -0.0396404 -0.0828875
internal_count=269 247 225 119 99 53 106 83 44
shrinkage=0.0340896


Tree=6
num_leaves=10
num_cat=0
split_feature=8 1 8 8 0 0 0 1 8
split_gain=4.85345 1.30175 0.359701 0.298656 0.125339 0.0536899 0.095133 0.0329877 0.0353591
threshold=1.3784976515748264 0.88678944981906793 0.66587862714021639 -0.18926420218131557 -0.29295571123829889 -0.40052011966023626 0.62134176034816868 -0.25882590134542122 -1.0444070315028473
decision_type=2 2 2 2 2 2 2 2 2
left_child=1 2 3 4 -1 -5 -7 -6 -9
right_child=-2 -3 -4 5 7 6 -8 8 -10
leaf_value=-0.0029220743909316202 0.014611256883813626 -0.0066202650888526737 -0.0041103586791274094 0 0.00062790189717211431 0.0035332822031335187 0 -0.001596481647573833 -0
leaf_count=20 20 37 20 27 30 31 24 21 39
internal_value=0 -0.0383025 -0.0028979 0.00576884 -0.0220782 0.0549888 0.073759 -0 -0.0184463
internal_count=269 249 212 192 110 82 55 90 60
shrinkage=0.0316107


Tree=7
num_leaves=10
num_cat=0
split_feature=0 0 1 1 1 0 0 1 1
split_gain=25.4886 3.24658 2.4122 0.903636 0.358071 0.338863 0.0849432 0.0390081 0.146646
threshold=-1.0459065701918602 0.72890616877010606 -1.160264861107426 -0.50911003645420438 0.064364423375452673 -0.29295571123829889 -0.23917350702733023 0.51220339530763292 -0.039533898056374382
decision_type=2 2 2 2 2 2 2 2 2
left_child=2 3 -1 6 -3 -5 -2 8 -7
right_child=1 4 -4 5 -6 7 -8 -9 -10
leaf_value=0.027863858149375587 0.0038604146307978007 -0.002293106627105539 0.010552486185815379 0 -0.0088652294590082122 -0.0027639327789094875 1.7983472828662664e-05 -0.0046796463027185056 0
leaf_count=20 23 22 21 29 55 26 25 25 23
internal_value=0 -0.105774 0.7409 -0.0130542 -0.272284 -0.0713046 0.0904374 -0.107557 -0.0516624
internal_count=269 228 41 151 77 103 48 74 49
shrinkage=0.0271366


Tree=8
num_leaves=8
num_cat=0
split_feature=0 0 3 8 0 0 8
split_gain=1.60825 0.573712 1.03019 0.406021 0.222738 0.050381 0.0264666
threshold=-1.8795307354618747 0.083519718238481838 0.46727932077900874 1.0000000180025095e-35 1.1591638024578557 0.62134176034816868 0.47584688729098706
decision_type=2 2 2 2 2 2 2
left_child=-1 2 -2 4 5 -3 -5
right_child=1 3 -4 6 -6 -7 -8
leaf_value=0.0083233796747171768 -0.0015460847452654499 -0.0010197584666299727 0.0048831396760993821 0.001290795482416756 0 -0.0042179468787578653 -0
leaf_count=22 39 42 47 22 21 53 23
internal_value=0 -0.00849852 0.0518176 -0.0470109 -0.080142 -0.100737 0.0165402
internal_count=269 247 86 161 116 95 45
shrinkage=0.0313259


Tree=9
num_leaves=9
num_cat=0
split_feature=1 0 6 0 0 1 1 0
split_gain=4.18534 0.361696 0.537611 0.31654 0.500633 0.0738406 0.157339 0.0517183
threshold=-1.1279791678477091 0.9978171898249496 2.0344035918582253 -1.0459065701918602 0.51377735192623142 0.11932078104719689 -0.54179580026236862 0.67512396455913748
decision_type=2 2 2 2 2 2 2 2
left_child=-1 2 3 -2 5 6 -5 -6
right_child=1 -3 -4 4 7 -7 -8 -9
leaf_value=0.011669070162729427 0.0041452856083834212 -0.0036686723015795348 -0.0047489197140234808 -0 0.0039502988192938928 0 -0.0032489708640445992 6.308072713292356e-05
leaf_count=31 20 43 24 31 22 24 45 29
internal_value=0 -0.0282945 -0.00431522 0.0102924 -0 -0.0465949 -0.0616989 0.0735571
internal_count=269 238 195 171 151 100 76 51
shrinkage=0.032832


Tree=10
num_leaves=9
num_cat=0
split_feature=8 8 3 8 1 0 1 1
split_gain=1.49082 0.225234 0.201808 0.2558 0.0834603 0.126961 0.0958659 0.0360192
threshold=0.9129198889442145 -0.094248332256700929 -0.26723596940162875 0.17179610353222011 0.33618568967566204 0.13730192244945053 -0.42849582094202437 -0.50911003645420438
decision_type=2 2 2 2 2 2 2 2
left_child=1 4 -3 7 5 -1 -7 -4
right_child=-2 2 3 -5 -6 6 -8 -9
leaf_value=0.00063128370132978055 0.0077813608983263814 -0.0055591482139426482 -0 0.0014788945714338344 0.0016059578556715092 0 -0.0027802374270917288 -0.0031469191849558226
leaf_count=37 29 22 23 26 36 20 38 38
internal_value=0 -0.0241465 -0.0576628 -0.0211004 0 -0.0114217 -0.0466191 -0.0636374
internal_count=269 240 109 87 131 95 58 61
shrinkage=0.0366775


Tree=11
num_leaves=9
num_cat=0
split_feature=1 1 0 0 8 8 0 8
split_gain=2.71098 0.643067 0.620857 0.505411 0.50488 0.0848541 0.0744653 0.0181451
threshold=-0.90579332092489195 1.4637445234202187 -0.99212436598089171 0.083519718238481838 -0.37929594203054484 -0.094248332256700929 0.9978171898249496 -0.66434355180438875
decision_type=2 2 2 2 2 2 2 2
left_child=-1 2 -2 5 7 -4 -6 -5
right_child=1 -3 3 4 6 -7 -8 -9
leaf_value=0.0073767394722916079 -0.007134868140258298 -0.0082485164755721086 0.003029077046971891 -0.0051183276484908675 0.0011131205686906716 0 -0.0012712590317315899 -0.001201160072284774
leaf_count=37 21 21 27 40 41 30 20 32
internal_value=0 -0.0681827 -0.0450286 -0.0205581 -0.0578521 0.0487171 0 -0.114279
internal_count=269 232 211 190 133 57 61 72
shrinkage=0.0339794


Tree=12
num_leaves=9
num_cat=0
split_feature=1 0 8 0 8 8 0 0
split_gain=0.417195 0.428031 0.52811 0.387059 0.246567 0.117589 0.0516309 0.0891605
threshold=1.6397355576822932 -0.77699554913701696 0.66587862714021639 0.029737514027513141 -0.56932768187977412 -0.56932768187977412 0.45999514771526268 0.9440349856139808
decision_type=2 2 2 2 2 2 2 2
left_child=1 2 -1 4 -3 -5 -7 -8
right_child=-2 3 -4 5 -6 6 7 -9
leaf_value=-0.0051346295359964806 -0.004920967558684616 0 0 -0.001742148608334931 0.004554356572496596 -0.00072874977205506018 0.0018997912523482621 -0
leaf_count=35 22 22 22 43 30 27 34 34
internal_value=0 -0.00735405 -0.0849252 0.0110045 0.0862875 -0.0105855 0 0.0230949
internal_count=269 247 57 190 52 138 95 68
shrinkage=0.0316678


Tree=13
num_leaves=10
num_cat=0
split_feature=0 8 1 8 8 8 1 0 0
split_gain=1.35311 0.633393 0.389543 0.080297 0.268402 0.203524 0.143968 0.0311213 0.0247437
threshold=-0.83077775334798576 0.9129198889442145 1.513713334921317 -0.094248332256700929 -0.66434355180438875 0.076780233607605455 0.0127419869407713 0.29864853508235661 0.62134176034816868
decision_type=2 2 2 2 2 2 2 2 2
left_child=1 -1 3 4 7 8 -6 -2 -5
right_child=2 -3 -4 5 6 -7 -8 -9 -10
leaf_value=0.0010817065199003459 0 0.010582736715791184 -0.0045809597594710996 -0.0029763399338802359 0.0041008849106264258 0.00089786611390738275 0 -0.0010574316088613313 -0
leaf_count=29 20 20 21 29 30 29 30 41 20
internal_value=0 0.170797 -0.00829012 0.00075716 0.0211494 -0.018086 0.0716246 -0.0127237 -0.0645243
internal_count=269 49 220 199 121 78 60 61 49
shrinkage=0.0337789


Tree=14
num_leaves=9
num_cat=0
split_feature=3 0 8 7 0 0 0 0
split_gain=0.297021 0.941075 0.33197 0.0635607 0.0338761 0.015031 0.0116101 0.0230717
threshold=1.0000000180025095e-35 -1.099688774402829 0.66587862714021639 3.5000000000000004 -0.50808452808217364 0.72890616877010606 0.72890616877010606 -0.34673791544926758
decision_type=2 2 2 2 2 2 2 2
left_child=2 -2 6 5 -5 -3 7 -1
right_child=1 3 -4 4 -6 -7 -8 -9
leaf_value=0 0.0062350046505884049 -0 -0.0045447639871295182 0 -0.001224188138922485 0.0009696773647558546 0 -0.00097552448960601097
leaf_count=21 25 31 27 21 66 20 22 36
internal_value=0 0.0193706 -0.0471928 -0.0065725 -0.0272044 0.00923863 -0.00067241 -0.0141703
internal_count=269 163 106 138 87 51 79 57
shrinkage=0.0318465


Tree=15
num_leaves=10
num_cat=0
split_feature=8 8 0 0 1 1 1 0 1
split_gain=0.634275 0.391994 0.166989 0.0411982 0.0535915 0.0267146 0.069695 0.0501855 0.0243962
threshold=0.79890084503467695 0.47584688729098706 -0.77699554913701696 -0.29295571123829889 -0.57718870811502787 0.053149112333973195 0.27856219501426754 0.62134176034816868 0.76467458274792943
decision_type=2 2 2 2 2 2 2 2 2
left_child=1 2 -1 -4 -5 7 -7 -6 -8
right_child=-2 -3 3 4 5 6 8 -9 -10
leaf_value=-0.002665698096575199 0.0033507514400313342 -0.0042858831235070222 0.0012489618133209063 -0.0011996597297855604 -0 -0.0015471256105810891 0.0010296859621577552 0.0015950468762311182 -0
leaf_count=22 36 27 22 34 28 26 20 26 28
internal_value=0 -0.0281853 -0.00781173 0 -0.00329318 0 -0.00432874 0.0214515 0.00122778
internal_count=269 233 206 184 162 128 74 54 48
shrinkage=0.0301646


Tree=16
num_leaves=10
num_cat=0
split_feature=1 0 0 1 0 0 0 7 3
split_gain=0.506808 0.592682 0.419936 0.287246 0.0936249 0.0874143 0.0561541 0.0273236 0.00875715
threshold=-0.12200177377636133 0.13730192244945053 1.1591638024578557 -0.54825027177732233 0.62134176034816868 0.19108412666041921 -1.0459065701918602 3.5000000000000004 0.46727932077900874
decision_type=2 2 2 2 2 2 2 2 2
left_child=3 -2 4 6 -3 -5 -1 -8 -6
right_child=1 2 -4 5 8 -7 7 -9 -10
leaf_value=-0.0012893251223776809 -0.0054735550720953026 0.0017724593917182519 -0.0039700702391984371 0.0048920920603905179 0 0 0.0011649601356138765 -0 -0.00059080496515281022
leaf_count=31 37 38 27 20 20 22 26 22 26
internal_value=0 -0.0564946 -0.00961983 0.0275118 0.0154248 0.0939555 -0 0.0117149 -0
internal_count=269 148 111 121 84 42 79 48 46
shrinkage=0.0328054


Tree=17
num_leaves=7
num_cat=0
split_feature=6 0 1 1 8 1
split_gain=0.631855 0.257736 0.200161 0.104998 0.0723936 0.0573191
threshold=0.7117035203633213 0.2448663308713879 -0.92997091773607188 0.043680776020714664 0.076780233607605455 -0.38595498595710226
decision_type=2 2 2 2 2 2
left_child=1 2 -1 5 -4 -3
right_child=-2 3 4 -5 -6 -7
leaf_value=-0.00086679351060312351 0.0052826351119640708 -0.0015715010627888072 0.0026163940456523948 -0.0022548221801113083 0 0.00053570633985084869
leaf_count=29 27 23 57 73 21 39
internal_value=0 -0.00623635 0.0249767 -0.0383302 0.0561726 -0
internal_count=269 242 107 135 78 62
shrinkage=0.0351329


Tree=18
num_leaves=9
num_cat=1
split_feature=0 1 3 0 0 4 1 1
split_gain=1.56237 0.466596 0.204962 0.302199 0.203494 0.16906 0.0923131 0.0405677
threshold=-1.7988574291454218 0.15416692581697797 -0.90159008364854298 -0.93834216176992313 -0.13160909860539288 0 0.86806614815172278 -0.22692694294920371
decision_type=2 2 2 2 2 1 2 2
left_child=-1 2 -2 -4 -5 -3 -7 -6
right_child=1 5 3 4 7 6 -8 -9
leaf_value=0.0086576973267347406 0 0.0023611050157990219 -0.0057106427570770626 0.00011080226442054231 -0 0.00089151779833491996 -0.0019594295547064964 -0.0036238152254527319
leaf_count=21 32 52 28 39 28 21 21 27
internal_value=0 -0.0168091 -0.0531873 -0.0723271 -0.0306625 0.0321955 -0 -0.0722553
internal_count=269 248 154 122 94 94 42 55
cat_boundaries=0 1
cat_threshold=2
shrinkage=0.0332327


Tree=19
num_leaves=9
num_cat=0
split_feature=3 1 8 1 8 8 8 1
split_gain=0.523768 0.964744 0.557796 0.182571 0.158489 0.0575388 0.0514166 0.0291882
threshold=1.0000000180025095e-35 -0.96893778915486251 0.47584688729098706 -0.36013709989728743 -0.66434355180438875 1.0000000180025095e-35 -0.37929594203054484 -0.037480202574343653
decision_type=2 2 2 2 2 2 2 2
left_child=2 -2 4 -3 7 6 -5 -1
right_child=1 3 -4 5 -6 -7 -8 -9
leaf_value=-0.0019477398535415942 0.0058853787780889103 -0.0018975029286462108 -0.0044981002950200289 0 0.0012013146307393984 -0.00027764790834792249 0.001744553871636987 -0
leaf_count=26 20 38 40 38 24 37 25 21
internal_value=0 0.0146773 -0.0713241 -0.00879063 -0.00264684 0.005008 0.0296047 -0.0478661
internal_count=269 158 111 138 71 100 63 47
shrinkage=0.02713


Tree=20
num_leaves=9
num_cat=0
split_feature=1 8 0 0 7 0 1 1
split_gain=2.1495 0.390634 0.197039 0.126304 0.107272 0.0365782 0.0550982 0.0301523
threshold=-1.2213022911155729 -0.2842800721059302 0.72890616877010606 -0.99212436598089171 3.5000000000000004 -0.50808452808217364 -0.037480202574343653 0.63230457395158546
decision_type=2 2 2 2 2 2 2 2
left_child=-1 2 -2 -3 -5 -6 -7 -8
right_child=1 3 -4 4 5 6 7 -9
leaf_value=0.0081956587907496929 -0.002681711083803418 -0.0013214120253033518 -0 0.0024974247343624158 0.0011204185499011725 -0.0013797967360995433 0.00101933908458339 -0
leaf_count=20 78 22 49 20 20 20 20 20
internal_value=0 -0.0283073 -0.0677797 0.00486967 0.0270174 0 -0.0015652 0
internal_count=269 249 127 122 100 80 60 40
shrinkage=0.026901


Tree=21
num_leaves=9
num_cat=0
split_feature=0 1 1 1 1 1 0 1
split_gain=0.466684 0.169942 0.0968545 0.0753689 0.190065 0.124453 0.0194135 0.00449084
threshold=-1.2072531828247663 -0.50911003645420438 -0.93791898596522971 0.76467458274792943 1.6397355576822932 0.15416692581697797 0.45999514771526268 -0.19604149660905337
decision_type=2 2 2 2 2 2 2 2
left_child=-1 2 -2 5 -5 6 7 -3
right_child=1 3 -4 4 -6 -7 -8 -9
leaf_value=-0.0035391776081660472 -0 0 0.0027547562363082175 0.002935189144987476 -0.00019346821031876389 -0.0019213058240471054 -0.00023774928985574527 0.001032371422520663
leaf_count=36 20 20 41 27 23 46 35 21
internal_value=0 0.011729 0.0570983 -0 0.02696 -0.017646 0 0.0204151
internal_count=269 233 61 172 50 122 76 41
shrinkage=0.0326498


Tree=22
num_leaves=9
num_cat=0
split_feature=3 3 0 0 1 0 1 1
split_gain=0.129457 0.531 0.321061 0.259664 0.0764436 0.0532185 0.0119766 0.0397146
threshold=-0.90159008364854298 1.0000000180025095e-35 -0.66943114071507959 -0.83077775334798576 -1.1279791678477091 0.62134176034816868 0.51220339530763292 0.1087989256230265
decision_type=2 2 2 2 2 2 2 2
left_child=5 3 4 -2 -3 -1 7 -4
right_child=1 2 6 -5 -6 -7 -8 -9
leaf_value=0.0014239172512998943 -0.0075609075568710549 0.004140633126986145 -0.00098249151250166073 -0 0 -0 -0.0022149967089427325 0
leaf_count=40 21 20 61 20 24 24 31 28
internal_value=0 -0.0302605 -0 -0.130897 0.0673142 0.0133072 -0.0311166 -0.0087472
internal_count=269 205 164 41 44 64 120 89
shrinkage=0.0358367


Tree=23
num_leaves=10
num_cat=1
split_feature=8 8 1 0 8 8 4 1 0
split_gain=0.442191 0.271432 0.1687 0.0270138 0.0448746 0.0492233 0.0292149 0.0128399 0.00405712
threshold=1.1409579767632898 -0.85437529165361803 -0.69772996436227286 1.0515993940359183 0.076780233607605455 -0.094248332256700929 0 -0.94850751981414139 -1.4761642038796097
decision_type=2 2 2 2 2 2 1 2 2
left_child=1 -1 7 4 5 6 -4 8 -3
right_child=-2 2 3 -5 -6 -7 -8 -9 -10
leaf_value=-0.0023434488913545298 -0.0054823265591518984 0.00054123947469055683 0.0017706115231098522 0.0036636556923216115 0.0025539129732827931 -0.00043579624854741443 -0 -0.00094304264837672183 -0
leaf_count=37 20 20 35 30 28 35 22 22 20
internal_value=0 0.0101839 0.0273844 0.046591 0.0257734 0.00232871 0.0279219 -0.0032122 0
internal_count=269 249 212 150 120 92 57 62 40
cat_boundaries=0 1
cat_threshold=2
shrinkage=0.0389395


Tree=24
num_leaves=9
num_cat=0
split_feature=6 8 0 0 7 0 0 8
split_gain=0.637742 0.124006 0.140524 0.102182 0.0980785 0.0267286 0.0143782 0.00030861
threshold=0.7117035203633213 -0.094248332256700929 -1.5299464080905785 0.083519718238481838 3.5000000000000004 0.19108412666041921 0.78268837298107485 -1.0444070315028473
decision_type=2 2 2 2 2 2 2 2
left_child=1 4 -3 -4 5 -1 -5 -7
right_child=-2 2 3 6 -6 7 -8 -9
leaf_value=-0.0012015381759015087 0.0054582971930307771 0.00022320676463880121 -0.0034707398925223217 0 0.0019383373691369255 -0 -0.00090965719037836392 0.00011171632529724773
leaf_count=28 30 20 47 22 39 22 25 36
internal_value=0 -0.0100034 -0.0354368 -0.054699 0.00535243 -0.00379262 -0 0
internal_count=269 239 114 94 125 86 47 58
shrinkage=0.0386823


Tree=25
num_leaves=8
num_cat=0
split_feature=0 0 8 7 0 1 8
split_gain=0.854809 0.685886 0.487608 0.300104 0.289089 0.109842 0.0813948
threshold=-0.66943114071507959 -0.13160909860539288 0.84640877999698427 4.5000000000000009 0.40621294350429399 -0.82624596020857199 -0.18926420218131557
decision_type=2 2 2 2 2 2 2
left_child=2 -2 5 6 -5 -1 -3
right_child=1 3 -4 4 -6 -7 -8
leaf_value=-0 -0.0060286246521091547 -0.0019700474612157266 0.0094134204024227293 0.0059176844041416024 0 0.0031322971581863794 0
leaf_count=28 39 85 20 21 36 20 20
internal_value=0 -0.0312295 0.097639 -0 0.0555218 0.0176628 -0.0338294
internal_count=269 201 68 162 57 48 105
shrinkage=0.0405783


Tree=26
num_leaves=8
num_cat=0
split_feature=1 0 6 1 1 0 1
split_gain=0.379341 0.222167 0.438258 0.183249 0.0758474 0.0311526 0.00629711
threshold=1.1608644468755318 -0.56186673229314221 0.17193500633913836 -0.042947833403126752 -0.66049673198675485 0.9978171898249496 -0.29903299146439927
decision_type=2 2 2 2 2 2 2
left_child=1 2 -1 4 -3 -5 -6
right_child=-2 3 -4 5 6 -7 -8
leaf_value=-0 -0.002186578962820711 0 0.0044051630430863801 0.001804753944807308 -0.0020549934796851143 0 -0
leaf_count=21 35 23 50 62 26 26 26
internal_value=0 0.0361887 0.0848222 0.00851923 -0.0192042 0.0433334 -0.0442711
internal_count=269 234 71 163 75 88 52
shrinkage=0.0321702


Tree=27
num_leaves=9
num_cat=0
split_feature=1 8 8 1 3 0 0 8
split_gain=0.376384 0.964219 0.507493 0.063524 0.0569218 0.0585951 0.0295507 0.0335366
threshold=-0.26514701601089236 0.28581514744175773 0.79890084503467695 -0.11833446041559219 0.46727932077900874 0.62134176034816868 -0.77699554913701696 -0.56932768187977412
decision_type=2 2 2 2 2 2 2 2
left_child=1 6 3 -2 -5 -6 -1 -8
right_child=2 -3 -4 4 5 -7 7 -9
leaf_value=0.00016677240818172763 -0.0014454140109075551 0.0048731556603686353 -0.004633091646602451 0.00098464321342673928 -0.0011206081193853167 5.6949598950789078e-05 -0.0013761046709454053 -0
leaf_count=21 20 34 20 39 32 41 22 40
internal_value=0 0.0445524 -0.0304824 -0 0.00161177 -0.00423072 -0.00259301 -0.0215413
internal_count=269 117 152 132 112 73 83 62
shrinkage=0.0263414


Tree=28
num_leaves=10
num_cat=0
split_feature=8 1 7 1 1 1 6 1 1
split_gain=0.113324 0.0878168 0.143614 0.0473339 0.0334428 0.0320389 0.0252615 0.0216963 0.000724352
threshold=-0.47431181195515953 1.1608644468755318 4.5000000000000009 0.25434459114824287 -0.54179580026236862 -0.75692706984756108 -1.3404856814711956 0.053149112333973195 -0.98188673923961467
decision_type=2 2 2 2 2 2 2 2 2
left_child=3 2 4 5 -2 -1 -7 8 -4
right_child=1 -3 7 -5 -6 6 -8 -9 -10
leaf_value=-0 -0 7.5982348354450284e-06 -0 -0 -0.0034570297920596851 0.0024968556489681744 0 -0.00089023574417653384 0.00015831952940504836
leaf_count=22 21 25 21 22 42 24 20 35 37
internal_value=0 -0.0263059 -0.0368989 0.0124947 -0.0747258 0.0302301 0.0455259 -0.000113564 0
internal_count=269 181 156 88 63 66 44 93 58
shrinkage=0.036262


Tree=29
num_leaves=9
num_cat=0
split_feature=1 8 7 0 0 0 8 1
split_gain=0.40909 0.760336 0.355248 0.273084 0.0458127 0.0316439 0.020508 0.00916385
threshold=-1.1279791678477091 1.1409579767632898 4.5000000000000009 0.083519718238481838 0.67512396455913748 -0.34673791544926758 1.0000000180025095e-35 1.0000000180025095e-35
decision_type=2 2 2 2 2 2 2 2
left_child=-1 2 3 -2 7 -4 -7 -5
right_child=1 -3 5 4 -6 6 -8 -9
leaf_value=0.0036802492867938821 0.0032553760462188598 -0.0050042697098085231 -0 0 0.00085922193445792377 -0.0016566260088880156 -0 -0.00053585580718660652
leaf_count=21 37 21 29 21 46 38 33 23
internal_value=0 -0.00474996 0.00824773 0.0465295 0.00428839 -0.0304485 -0.0417137 -0.00222629
internal_count=269 248 227 127 90 100 71 44
shrinkage=0.0270952


Tree=30
num_leaves=9
num_cat=1
split_feature=1 8 1 4 1 1 1 1
split_gain=0.722981 0.198013 0.0316542 0.0433296 0.129135 0.0298172 0.00864276 0.000376287
threshold=-1.0901324939645716 0.47584688729098706 -0.5975389633460596 0 -0.18286583988018093 0.36597760985005573 0.60819365556514693 0.74351085073505441
decision_type=2 2 2 1 2 2 2 2
left_child=-1 2 -2 4 -4 -6 -3 -7
right_child=1 6 3 -5 5 7 -8 -9
leaf_value=-0.0040238133192728644 -0 -0 0.001954803297431338 0.0016897518167486515 -0.00076108365206204029 0.00011473700372894823 -0.0019609885303361317 -0
leaf_count=34 36 24 26 48 39 21 20 21
internal_value=0 0.00659127 0.024151 0.0303444 0.00693786 -0.00186771 -0.0462547 0
internal_count=269 235 191 155 107 81 44 42
cat_boundaries=0 1
cat_threshold=2
shrinkage=0.0277431


Tree=31
num_leaves=6
num_cat=1
split_feature=0 4 8 8 8
split_gain=0.526506 0.112639 0.0902928 0.0625304 0.11163
threshold=-0.40052011966023626 0 0.076780233607605455 0.55185958323067885 1.0000000180025095e-35
decision_type=2 1 2 2 2
left_child=1 2 -1 4 -2
right_child=3 -3 -4 -5 -6
leaf_value=-0.0020063557556846061 0.0008828705636918121 -0.0041490019621831069 0 0.0023911943635780437 -0.00060832914232443534
leaf_count=24 125 21 36 25 38
internal_value=0 -0.0682421 -0.0230763 0.0276633 0.0125416
internal_count=269 81 60 188 163
cat_boundaries=0 1
cat_threshold=2
shrinkage=0.02863


Tree=32
num_leaves=9
num_cat=0
split_feature=0 7 8 8 1 0 1 1
split_gain=0.282223 0.191464 0.300627 0.159628 0.0992848 0.0400629 3.94833e-06 0.0123085
threshold=0.56755955613720011 4.5000000000000009 0.17179610353222011 0.076780233607605455 -0.32027673758696384 0.78268837298107485 0.1449519675177362 0.80678867581450742
decision_type=2 2 2 2 2 2 2 2
left_child=1 2 4 -3 -1 -2 -7 -8
right_child=5 3 -4 -5 -6 6 7 -9
leaf_value=0 0.0015544429324708113 -0.0018038906464524552 -0.0068039073493388327 0.0014924390548865843 -0.002480538036406034 -1.5991446484904451e-05 0.00091387112305620609 -0
leaf_count=37 27 47 27 31 39 21 20 20
internal_value=0 -0.0519429 -0.0810093 -0.000362445 -0.0308841 0.00912979 -0 0
internal_count=269 181 103 78 76 88 61 40
shrinkage=0.0377479


Tree=33
num_leaves=12
num_cat=1
split_feature=0 4 7 3 0 0 0 0 0 0 0
split_gain=1.70157 0.159665 0.166445 0.0726854 0.0576698 0.0408571 0.0344176 0.0425715 0.0226219 0.0179837 0.00477026
threshold=-1.8795307354618747 0 3.5000000000000004 -0.5343324385582241 0.3524307392933253 0.83647057719204343 -0.40052011966023626 -0.99212436598089171 0.083519718238481838 0.62134176034816868 0.29864853508235661
decision_type=2 1 2 2 2 2 2 2 2 2 2
left_child=-1 3 4 9 -3 6 7 -5 -4 -2 -8
right_child=1 2 8 5 -6 -7 10 -9 -10 -11 -12
leaf_value=0.0075414045269559292 -0.0026157286269871847 -0.0013905995355657425 0 0 0 -0.0011055685552838232 0.00093480408632586737 -0.0011637872728428203 0.0025598778406120391 -0 0
leaf_count=20 24 21 20 20 21 27 20 28 22 20 26
internal_value=0 -0.0104856 0.0179702 -0.0310172 -0.00790501 -0.00794311 0 -0.0163836 0.0666833 -0.0706621 0.0212707
internal_count=269 249 84 165 42 121 94 48 42 44 46
cat_boundaries=0 1
cat_threshold=2
shrinkage=0.0265491


Tree=34
num_leaves=10
num_cat=2
split_feature=8 1 8 4 4 8 1 1 1
split_gain=0.959375 0.616835 0.147227 0.159525 0.0731861 0.0987419 0.0308162 0.0209515 0.0117917
threshold=1.1409579767632898 -1.0536593956311038 -0.094248332256700929 0 1 -0.85437529165361803 -0.27865606486347111 0.064364423375452673 -0.12854959508595279
decision_type=2 2 2 1 1 2 2 2 2
left_child=1 -1 4 8 6 -6 -3 -8 -4
right_child=-2 2 3 -5 5 -7 7 -9 -10
leaf_value=-0.0037292317378330038 0.0032432999069053146 0 0 -0.0022890493879096706 -0 0.001658102344396375 -0.0010247689687696614 -0 -0.00037302529738005648
leaf_count=24 25 30 32 25 21 23 20 36 33
internal_value=0 -0.0354198 -0.0134682 -0.0453488 0.00114702 0.0391712 -0.00703957 -0.0248248 -0.00190225
internal_count=269 244 220 90 130 44 86 56 65
cat_boundaries=0 1 2
cat_threshold=2 2
shrinkage=0.0198306


Tree=35
num_leaves=5
num_cat=0
split_feature=0 8 1 1
split_gain=1.63215 0.586666 0.407556 0.0361379
threshold=-0.77699554913701696 0.55185958323067885 -0.10141147621626111 -0.72216093918746938
decision_type=2 2 2 2
left_child=1 -1 3 -2
right_child=2 -3 -4 -5
leaf_value=0 -0.00072014041806761034 0.0053350558311911923 -0.0023306318335847187 0.00044452166284880164
leaf_count=32 25 39 118 55
internal_value=0 0.123 -0.052283 0
internal_count=269 71 198 80
shrinkage=0.0260638


Tree=36
num_leaves=8
num_cat=0
split_feature=1 7 1 0 0 1 0
split_gain=0.324006 0.372546 0.32743 0.315835 0.0376153 0.0653279 0.0290437
threshold=0.46731547977181848 3.5000000000000004 -0.18286583988018093 0.51377735192623142 0.083519718238481838 -0.72216093918746938 0.9440349856139808
decision_type=2 2 2 2 2 2 2
left_child=1 2 -1 -2 5 -3 -5
right_child=3 4 -4 6 -6 -7 -8
leaf_value=-0.004088134667390335 -0.0066087005383464502 0 0 0 -0 0.0025662195866736686 -0.001607657523659389
leaf_count=53 31 27 38 22 49 25 24
internal_value=0 -0.0163337 -0.0651695 -0.102449 0.0180704 0.0365809 -0.0218179
internal_count=269 192 91 77 101 52 46
shrinkage=0.0354496


Tree=37
num_leaves=9
num_cat=0
split_feature=8 1 0 0 0 0 1 0
split_gain=0.614917 0.345293 0.208932 0.154317 0.0927574 0.0297248 0.00670262 0.00394483
threshold=1.2359738466879044 -0.47951815155403438 -0.93834216176992313 0.9440349856139808 0.13730192244945053 -0.45430232387120495 0.63230457395158546 -0.23917350702733023
decision_type=2 2 2 2 2 2 2 2
left_child=1 2 -1 4 5 -3 -5 -4
right_child=-2 3 7 6 -6 -7 -8 -9
leaf_value=-0.0035229160760331577 0.0059792476112501677 0.0011527105266915987 0.00021396358846916512 0 0.0026979174811516964 -0 -0.00055914516440226159 -0.00031842607011746957
leaf_count=28 23 23 25 26 70 23 22 29
internal_value=0 0.00802082 -0.0390475 0.0377096 0.0576572 0 -0 -0
internal_count=269 246 82 164 116 46 48 54
shrinkage=0.0327542


Tree=38
num_leaves=8
num_cat=0
split_feature=8 1 0 3 8 0 0
split_gain=0.388126 0.33689 0.559777 0.243038 0.137315 0.0181057 0.0248735
threshold=-0.56932768187977412 -0.93791898596522971 -0.88455995755895434 1.0000000180025095e-35 -0.85437529165361803 0.40621294350429399 0.83647057719204343
decision_type=2 2 2 2 2 2 2
left_child=4 -2 -3 -4 -1 -5 -7
right_child=1 2 3 5 -6 6 -8
leaf_value=-0 0.0026912697391395235 -0.004356990781200977 0.0027716124902021143 -0.00063322349406956351 -0.0032428320950131668 0.00079807613913792307 -0
leaf_count=36 40 22 28 36 39 31 37
internal_value=0 0.0118573 -0.00350016 0.0147236 -0.0703401 -0 0
internal_count=269 194 154 132 75 104 68
shrinkage=0.0286254


Tree=39
num_leaves=6
num_cat=0
split_feature=0 3 1 3 8
split_gain=0.529865 0.225347 0.327685 0.271955 0.174488
threshold=-0.99212436598089171 -0.90159008364854298 0.0127419869407713 0.46727932077900874 -0.47431181195515953
decision_type=2 2 2 2 2
left_child=-1 2 -2 -3 -5
right_child=1 3 -4 4 -6
leaf_value=0.0021441473026704528 -0 0.0020336634393339401 -0.0054705871922436488 0 -0.0021310487883299694
leaf_count=38 22 21 41 28 119
internal_value=0 -0.0537911 -0.110521 -0.026072 -0.0455094
internal_count=269 231 63 168 147
shrinkage=0.0336594


Tree=40
num_leaves=8
num_cat=1
split_feature=4 8 1 6 1 1 1
split_gain=0.319818 0.219848 0.223219 0.146016 0.0479634 0.0286542 0.0857043
threshold=0 0.076780233607605455 -0.6265840851633514 0.17193500633913836 1.0000000180025095e-35 -0.12200177377636133 0.17311693412844326
decision_type=1 2 2 2 2 2 2
left_child=1 2 -1 -2 -3 -4 -7
right_child=3 4 5 -5 -6 6 -8
leaf_value=-0.002368196576578472 -0 0.0025095178171346978 0.00085413961595492873 -0.002354283548030659 0 -0.0014168391218719026 0.0004101169450939183
leaf_count=29 32 26 26 66 27 25 38
internal_value=0 0.00382677 -0.0136869 -0.063221 0.0608694 0.000941469 -0
internal_count=269 171 118 98 53 89 63
cat_boundaries=0 1
cat_threshold=2
shrinkage=0.0261826


Tree=41
num_leaves=10
num_cat=0
split_feature=1 6 0 8 0 8 1 1 1
split_gain=1.32018 0.627309 0.194443 0.360525 0.222182 0.0464558 0.139428 0.0104997 0.00799932
threshold=-0.73168261824052105 0.17193500633913836 0.029737514027513141 0.17179610353222011 0.9978171898249496 -0.18926420218131557 0.053149112333973195 0.27856219501426754 0.17311693412844326
decision_type=2 2 2 2 2 2 2 2 2
left_child=1 -1 3 -2 5 6 -4 -7 -6
right_child=2 -3 4 -5 8 7 -8 -9 -10
leaf_value=0 0.0032679955443527522 0.0072307186392054227 -0.0052519990355069787 -0.0019553451825269708 -0 0 -0.00033752253235285292 -0.0009498369152941377 0.00067473688732983049
leaf_count=28 30 40 32 26 22 20 31 20 20
internal_value=0 0.130007 -0.0290397 0.00707514 -0.0497898 -0.0749436 -0.0988388 -0.0114255 0
internal_count=269 68 201 56 145 103 63 40 42
shrinkage=0.0345715


Tree=42
num_leaves=8
num_cat=1
split_feature=8 0 0 0 0 4 0
split_gain=0.389628 0.122636 0.0740713 0.0850528 0.0297371 0.0748493 0.00625722
threshold=0.9129198889442145 0.19108412666041921 -0.34673791544926758 -0.99212436598089171 0.62134176034816868 0 0.9978171898249496
decision_type=2 2 2 2 2 1 2
left_child=1 2 3 -1 -3 6 -6
right_child=-2 4 -4 -5 5 -7 -8
leaf_value=-0.0013306308829372205 0.0022102477940768302 0.00048194041325525335 -0.0019087812197608176 0.00026332149815605954 0.00029419827137771453 -0.0012086530423527297 -0
leaf_count=23 33 47 38 31 37 29 31
internal_value=0 -0.0176266 -0.0459395 -0.000461681 0 -0.00932786 0
internal_count=269 236 92 54 144 97 68
cat_boundaries=0 1
cat_threshold=2
shrinkage=0.0229267


Tree=43
num_leaves=9
num_cat=1
split_feature=1 0 1 0 4 0 0 0
split_gain=0.270079 0.103038 0.281914 0.170071 0.1668 0.141542 0.0895736 0.0145002
threshold=0.35744277148317483 -1.7988574291454218 -1.0667950453051316 1.0000000180025095e-35 0 0.62134176034816868 1.0515993940359183 -0.83077775334798576
decision_type=2 2 2 2 1 2 2 2
left_child=1 -1 -3 4 7 -5 -2 -4
right_child=6 2 3 5 -6 -7 -8 -9
leaf_value=0.0021055722507409757 -0.0021885875919327772 -0.0031323355769745801 0.00077512222252525945 0.0024915270379884638 -0.0025101228225485653 0 -0 -0
leaf_count=20 63 20 20 43 22 38 21 22
internal_value=0 0.00742675 -0 0.0146134 -0.0126518 0.0482429 -0.0577497 0.00445587
internal_count=269 185 165 145 64 81 84 42
cat_boundaries=0 1
cat_threshold=2
shrinkage=0.0286662


Tree=44
num_leaves=9
num_cat=0
split_feature=8 8 1 1 3 8 1 1
split_gain=0.467297 0.109488 0.107857 0.3432 0.0478261 0.0311225 0.0824342 0.00153913
threshold=0.75139291007236964 -0.94939116157823267 -0.58911081045876468 -0.39536997953056779 1.0000000180025095e-35 0.17179610353222011 0.20353563149540482 -0.16548944239260929
decision_type=2 2 2 2 2 2 2 2
left_child=1 -1 4 -4 -3 6 7 -5
right_child=-2 2 3 5 -6 -7 -8 -9
leaf_value=-0.0023582496398091841 -0.0046884442270729342 0 0.0050269430023681923 0 -0.0021646919648682342 -0.0011308798830517483 0.0014260889838734732 -0.00034290031780665435
leaf_count=25 35 24 20 20 27 24 56 38
internal_value=0 -0.00126093 0.00184876 0.0189943 -0.0313818 0 0.00779582 -0.00570789
internal_count=269 234 209 158 51 138 114 58
shrinkage=0.036398


Tree=45
num_leaves=6
num_cat=0
split_feature=0 0 0 0 1
split_gain=47.8896 6.09096 5.82257 0.708036 0.0703654
threshold=-0.66943114071507959 -1.3148175912467037 0.029737514027513141 0.72890616877010606 -0.065631833500102446
decision_type=2 2 2 2 2
left_child=1 -1 4 -4 -2
right_child=2 -3 3 -5 -6
leaf_value=0.024086636847432352 -0 0.0088212466057213113 -0.0059638178949154583 -0.010614390709085013 0.0013016836097920507
leaf_count=29 32 40 85 62 21
internal_value=0 0.701446 -0.258789 -0.360938 0.00744923
internal_count=269 69 200 147 53
shrinkage=0.0225414


Tree=46
num_leaves=10
num_cat=0
split_feature=1 0 1 8 0 0 0 8 0
split_gain=0.701089 0.590884 0.783451 0.481284 0.211327 0.200533 0.0666498 0.040538 0.0160358
threshold=-0.27865606486347111 -0.13160909860539288 -1.1876163509362898 1.0000000180025095e-35 0.029737514027513141 0.72890616877010606 1.0515993940359183 -0.47431181195515953 0.29864853508235661
decision_type=2 2 2 2 2 2 2 2 2
left_child=1 2 -1 -4 -2 8 -7 -3 -6
right_child=4 7 3 -5 5 6 -8 -9 -10
leaf_value=-0.00093232044166016573 -0.0044447087084491547 -0 0.0003912524972963466 0.008325428419875899 0.00094212598718627276 -0.0036208697688202454 -0 -0.0019957749518273475 -0
leaf_count=21 35 26 25 32 20 27 25 22 36
internal_value=0 0.0430123 0.0996894 0.163559 -0.0576548 -0.0232683 -0.0699117 -0.0288348 0.0029663
internal_count=269 126 78 57 143 108 52 48 56
shrinkage=0.0335727


Tree=47
num_leaves=7
num_cat=1
split_feature=1 8 0 8 0 4
split_gain=0.330429 0.268395 0.209815 0.17467 0.0387831 0.00266146
threshold=-1.1876163509362898 -0.094248332256700929 -0.13160909860539288 -0.56932768187977412 0.3524307392933253 0
decision_type=2 2 2 2 2 1
left_child=-1 3 -3 -2 -5 -4
right_child=1 2 5 4 -6 -7
leaf_value=0.0013858739601347613 -0.0016242965571581262 -0.0048265100008307088 -0.0016757383645400463 0.001008542988514184 -0 -0
leaf_count=20 65 38 51 30 37 28
internal_value=0 -0.0602463 -0.0977654 -0.0189869 0.0043631 -0.0478192
internal_count=269 249 117 132 67 79
cat_boundaries=0 1
cat_threshold=2
shrinkage=0.0280495


Tree=48
num_leaves=10
num_cat=0
split_feature=0 8 1 8 8 0 0 1 1
split_gain=0.176831 0.289022 0.233162 0.666052 0.140752 0.0800649 0.115788 0.0893861 0.0400695
threshold=-0.88455995755895434 0.55185958323067885 1.7222434404571247 0.28581514744175773 -0.75935942172900339 0.56755955613720011 0.083519718238481838 0.57189392113600646 0.15048627677126056
decision_type=2 2 2 2 2 2 2 2 2
left_child=1 -1 3 4 -2 6 -6 -7 -8
right_child=2 -3 -4 -5 5 7 8 -9 -10
leaf_value=-0.003386968028598435 -0.0013056844459499372 0 -0.0021824278736042417 0.0040040270199305974 0.00045730859621059681 0.00135998132033397 -0.0016469345751023434 -0 -0
leaf_count=20 38 26 20 20 32 44 25 24 20
internal_value=0 -0.0662724 0 0.0116004 -0.00242802 0.00590785 -0.00657707 0.0344284 -0.0477695
internal_count=269 46 223 203 183 145 77 68 45
shrinkage=0.0220507


Tree=49
num_leaves=8
num_cat=0
split_feature=0 1 0 6 1 0 0
split_gain=1.256 0.511978 0.152026 0.111865 0.0721814 0.026614 0.0210816
threshold=-1.4761642038796097 0.053149112333973195 0.2448663308713879 0.17193500633913836 -0.34709480001789755 -0.29295571123829889 0.62134176034816868
decision_type=2 2 2 2 2 2 2
left_child=-1 3 -3 -2 5 -5 -4
right_child=1 2 6 4 -6 -7 -8
leaf_value=0.004590381981222736 0.0014108808968619137 -0.0030327983654633577 0 -0.0011752884698630393 0.00072153098773414031 -0 -0.00081755034389337949
leaf_count=27 40 33 21 20 38 30 60
internal_value=0 -0.0175453 -0.0682153 0.0200097 -0 -0.0248536 -0.0271862
internal_count=269 242 114 128 88 50 81
shrinkage=0.0223411


Tree=50
num_leaves=5
num_cat=0
split_feature=0 6 1 8
split_gain=0.805768 0.123872 0.1298 0.00444869
threshold=-1.1534709786137978 1.0000000180025095e-35 -0.58911081045876468 -1.0444070315028473
decision_type=2 2 2 2
left_child=-1 3 -3 -2
right_child=1 2 -4 -5
leaf_value=0.0058194078217250374 -0 0 -0.0020403922973332091 0.00051229450750609417
leaf_count=32 20 36 145 36
internal_value=0 -0.0225037 -0.0365319 0.00513906
internal_count=269 237 181 56
shrinkage=0.0403844


Tree=51
num_leaves=7
num_cat=1
split_feature=6 8 4 3 1 1
split_gain=0.159196 0.240841 0.0764333 0.030919 0.0155898 0.00425729
threshold=0.7117035203633213 -0.2842800721059302 0 0.46727932077900874 -0.08675555845813275 0.46731547977181848
decision_type=2 2 1 2 2 2
left_child=1 2 4 -3 -1 -6
right_child=-2 3 -4 -5 5 -7
leaf_value=0.00032988157583514489 0.00234900993893449 -0 0.0016921954391747997 -0.0018614328870608136 -0.00098731124785214619 -0
leaf_count=37 28 22 43 98 20 21
internal_value=0 -0.0111572 0.0143708 -0.0450684 -0 -0.0170813
internal_count=269 241 121 120 78 41
cat_boundaries=0 1
cat_threshold=2
shrinkage=0.0352102


Tree=52
num_leaves=8
num_cat=0
split_feature=6 1 0 1 8 1 1
split_gain=1.74841 0.596088 0.356728 0.25838 0.148951 0.0482292 0.0299487
threshold=0.7117035203633213 -0.83955497378692701 0.78268837298107485 0.15416692581697797 -0.37929594203054484 0.1951341499780064 -0.019997119607186007
decision_type=2 2 2 2 2 2 2
left_child=1 -1 4 -4 6 -6 -3
right_child=-2 2 3 -5 5 -7 -8
leaf_value=-0.0041143200413416622 0.0053669114698071162 -0.00080594548554090443 0 -0.0034668953762519599 0.0022691881736630051 0 0
leaf_count=46 39 38 25 40 37 20 24
internal_value=0 -0.0400387 -0.00840632 -0.0709367 0.0177221 0.056665 -0.00253842
internal_count=269 230 184 65 119 57 62
shrinkage=0.0288885


Tree=53
num_leaves=6
num_cat=1
split_feature=1 0 1 1 4
split_gain=0.8883 0.138488 0.0687571 0.102971 0.098356
threshold=-0.17213061349683853 -0.077826894394424209 -0.41562688496696171 -0.92997091773607188 0
decision_type=2 2 2 2 1
left_child=2 -2 3 -1 -5
right_child=1 -3 -4 4 -6
leaf_value=0.0023318453422045337 0 -0.0018366389042647313 0.0041521430477580515 0.0015986805436425441 -0.00090645835397740648
leaf_count=46 30 110 29 26 28
internal_value=0 -0.0427936 0.0705477 0.0407592 0
internal_count=269 140 129 100 54
cat_boundaries=0 1
cat_threshold=2
shrinkage=0.0307223


Tree=54
num_leaves=8
num_cat=1
split_feature=3 7 3 1 1 4 1
split_gain=0.223408 0.326069 0.116948 0.143509 0.0617021 0.0183407 0.0168861
threshold=-0.26723596940162875 3.5000000000000004 -0.90159008364854298 0.69130164416264994 -0.30596754763749007 0 -0.50470926042128139
decision_type=2 2 2 2 2 1 2
left_child=2 4 3 -1 -2 6 -3
right_child=1 5 -4 -5 -6 -7 -8
leaf_value=0.0016478412723740421 0.005217143031678995 -0 -0.0023736899118861877 -0.0020476187507072335 0.0008737598834376839 -0.00075347233295412091 0.00082907291434066539
leaf_count=38 29 26 39 22 39 32 44
internal_value=0 0.0352975 -0.0207137 0 0.0883931 -0 0.00843589
internal_count=269 170 99 60 68 102 70
cat_boundaries=0 1
cat_threshold=2
shrinkage=0.0375485


Tree=55
num_leaves=9
num_cat=1
split_feature=1 0 8 8 4 1 1 1
split_gain=0.600778 0.199032 0.0565601 0.0887539 0.090754 0.0133196 0.000659229 0.0232518
threshold=1.5405580687221472 -0.93834216176992313 0.076780233607605455 -0.47431181195515953 0 1.0000000180025095e-35 0.4559001334561153 -0.45888784693908941
decision_type=2 2 2 2 1 2 2 2
left_child=1 -1 3 6 5 -5 7 -3
right_child=-2 2 -4 4 -6 -7 -8 -9
leaf_value=0.0013772054445342413 -0.0039223861818763334 -0 3.2086586442887277e-05 -0.0021734164558467415 -0 -0 -0.00013443248615554256 0.00060161871673739453
leaf_count=43 25 25 31 36 33 20 20 36
internal_value=0 -0 -0.0163701 -0.025436 -0.0470684 -0.0713458 -0 6.83363e-05
internal_count=269 244 201 170 89 56 81 61
cat_boundaries=0 1
cat_threshold=2
shrinkage=0.0239989


Tree=56
num_leaves=9
num_cat=0
split_feature=0 0 1 0 1 8 1 0
split_gain=0.075574 0.127244 0.189049 0.0720396 0.300592 0.144161 0.0960091 0.0685812
threshold=1.1591638024578557 0.56755955613720011 0.40474444599462273 -0.88455995755895434 0.0127419869407713 1.0000000180025095e-35 -0.82624596020857199 -1.7450752249344532
decision_type=2 2 2 2 2 2 2 2
left_child=1 3 -3 7 6 -6 -5 -1
right_child=-2 2 -4 4 5 -7 -8 -9
leaf_value=-0 -0.0015489335927484878 0.0032543664865644804 -0 -0 0.0024275735016238047 -9.9433200246652547e-05 -0.0032101914004343582 0.0019292684332365918
leaf_count=21 28 34 31 25 32 26 44 28
internal_value=0 0.00752152 0.0461625 -0.00127975 -0.0187304 0.0221876 -0.0672366 0.0234195
internal_count=269 241 65 176 127 58 69 49
shrinkage=0.0335309


Tree=57
num_leaves=6
num_cat=1
split_feature=0 0 0 4 1
split_gain=30.7475 5.56922 1.51376 0.285972 0.156378
threshold=-1.3148175912467037 0.029737514027513141 0.67512396455913748 0 -0.5975389633460596
decision_type=2 2 2 1 2
left_child=-1 3 -3 4 -2
right_child=1 2 -4 -5 -6
leaf_value=0.017145559094158956 4.420246262826152e-05 -0.0022918962706852826 -0.0066152645448185974 -0 0.0033381501768273564
leaf_count=33 22 82 78 22 32
internal_value=0 -0.128509 -0.23562 0.0841309 0.122917
internal_count=269 236 160 76 54
cat_boundaries=0 1
cat_threshold=2
shrinkage=0.0192998


Tree=58
num_leaves=7
num_cat=0
split_feature=8 3 1 8 1 1
split_gain=2.9855 1.43894 1.13901 0.247611 0.22802 0.0197444
threshold=0.9129198889442145 -0.5343324385582241 -0.715399746918706 1.0000000180025095e-35 1.0000000180025095e-35 0.17000971953550068
decision_type=2 2 2 2 2 2
left_child=1 -1 -3 4 -4 -5
right_child=-2 2 3 5 -6 -7
leaf_value=-0.0037833341673522754 0.0074167241430118918 0.0033270048016257945 0 0.00083705108153568966 -0.0023155854104336447 -0
leaf_count=51 27 52 37 27 50 25
internal_value=0 -0.0167115 0.0187047 -0.0225973 -0.0584748 0.0185314
internal_count=269 242 191 139 87 52
shrinkage=0.022738


Tree=59
num_leaves=6
num_cat=1
split_feature=0 8 1 4 8
split_gain=2.19633 0.597511 0.0920632 0.0885671 0.0290124
threshold=1.0000000180025095e-35 0.55185958323067885 1.3135313681631144 0 1.0000000180025095e-35
decision_type=2 2 2 1 2
left_child=1 3 -2 4 -1
right_child=2 -3 -4 -5 -6
leaf_value=0 -0.0030087571610897951 0.0060263050001930331 -0 -0 0.0023186993127445412
leaf_count=29 126 38 21 24 31
internal_value=0 0.0914671 -0.0889259 0.0289695 0.051199
internal_count=269 122 147 84 60
cat_boundaries=0 1
cat_threshold=2
shrinkage=0.0301778


Tree=60
num_leaves=6
num_cat=1
split_feature=0 0 8 0 4
split_gain=18.8381 4.02796 0.992832 0.988498 0.121036
threshold=-1.099688774402829 0.029737514027513141 0.79890084503467695 0.67512396455913748 0
decision_type=2 2 2 2 1
left_child=2 4 -1 -3 -2
right_child=1 3 -4 -5 -6
leaf_value=0.0066059731197898666 0.0014849948790368779 -0.0030129019532232179 0.01623708708303424 -0.007421266586907632 -0
leaf_count=26 41 70 21 89 22
internal_value=0 -0.168088 0.520928 -0.253272 0.0318736
internal_count=269 222 47 159 63
cat_boundaries=0 1
cat_threshold=2
shrinkage=0.0223115


Tree=61
num_leaves=9
num_cat=1
split_feature=1 0 1 4 1 1 1 0
split_gain=1.99023 0.861835 0.294629 0.0663451 0.0412096 0.279362 0.0318981 0.0150614
threshold=-0.50470926042128139 -1.8795307354618747 -0.69772996436227286 0 0.53767455355879323 1.1231911368967216 1.9034487275339655 -0.99212436598089171
decision_type=2 2 2 1 2 2 2 2
left_child=1 -1 3 7 -2 -6 -7 -3
right_child=4 2 -4 -5 5 6 -8 -9
leaf_value=0.011640957863596701 -0.0029052157119273054 -0.0010143775697533663 0.005613270173482344 0.0020906062878726615 0.0013404723398998061 -0 -0.0044002688649876706 0
leaf_count=20 93 20 24 20 30 22 20 20
internal_value=0 0.117633 0.0564748 0.000650821 -0.0575249 -0.0168597 -0.0777757 -0.0033371
internal_count=269 104 84 60 165 72 42 40
cat_boundaries=0 1
cat_threshold=2
shrinkage=0.0373157


Tree=62
num_leaves=9
num_cat=1
split_feature=0 1 0 8 1 2 1 0
split_gain=0.239376 0.638795 0.0519162 0.0848489 0.141536 0.0727753 0.0596725 0.00760805
threshold=0.51377735192623142 0.18009149735637878 0.3524307392933253 0.076780233607605455 -0.28605737000975068 0 -0.68336743167300595 1.0515993940359183
decision_type=2 2 2 2 2 1 2 2
left_child=2 -2 3 4 6 -5 -1 -3
right_child=1 7 -4 5 -6 -7 -8 -9
leaf_value=-0 -0.0042271516083292032 0.0004814070737023199 0.0013478450455860803 0.0014059938513743271 0 -0 -0.0031734996413748484 -0
leaf_count=24 48 29 25 42 30 21 23 27
internal_value=0 -0.055468 0.000422298 -0.000648121 -0.0287132 0.0179413 -0.0654858 0.000718057
internal_count=269 104 165 140 77 63 47 56
cat_boundaries=0 1
cat_threshold=4
shrinkage=0.0301717


Tree=63
num_leaves=10
num_cat=0
split_feature=0 1 0 0 1 1 1 1 1
split_gain=5.86516 0.700176 0.62881 0.263936 0.183996 0.0643915 0.187229 0.057119 0.0078968
threshold=-0.077826894394424209 1.1608644468755318 -1.3148175912467037 0.62134176034816868 1.0000000180025095e-35 -0.8513837263360261 0.043680776020714664 0.43903049199657723 -0.41562688496696171
decision_type=2 2 2 2 2 2 2 2 2
left_child=2 3 -1 8 -5 -4 -7 -6 -2
right_child=1 -3 5 4 7 6 -8 -9 -10
leaf_value=0.01015023229108898 -0.00052993974822684636 -0.0075260694350254287 0.00024056004739013325 -0.005411348908175709 0 0.006094101091738237 0.00032494252827870832 -0.0020050417210047771 3.509113394803194e-05
leaf_count=34 24 26 20 23 26 35 20 21 40
internal_value=0 -0.0927895 0.205455 -0.0529523 -0.0951255 0.128003 0.152847 -0.0294565 -0
internal_count=269 160 109 134 70 75 55 47 64
shrinkage=0.0299245


Tree=64
num_leaves=9
num_cat=0
split_feature=1 8 0 3 1 1 8 1
split_gain=0.979379 0.349783 0.274879 0.278107 0.338472 0.406026 0.164485 0.0174462
threshold=-0.094476920043170334 -0.18926420218131557 0.62134176034816868 1.0000000180025095e-35 -0.95680231585195374 -0.41562688496696171 0.37132943037391092 -0.73168261824052105
decision_type=2 2 2 2 2 2 2 2
left_child=2 -2 3 7 -5 -6 -3 -1
right_child=1 6 -4 4 5 -7 -8 -9
leaf_value=0.00061487249724715993 -0.0029836391764828142 0.0004156870361708102 -0.00041127571587325077 0.0056817850955897574 -0 0.0036899873244876195 -0.0017812320022954 -5.2286911823152357e-05
leaf_count=25 56 45 21 20 34 21 26 21
internal_value=0 -0.0653103 0.0550526 0.0758405 0.113545 0.0467505 -0.00301141 0
internal_count=269 127 142 121 75 55 71 46
shrinkage=0.0238093


Tree=65
num_leaves=9
num_cat=1
split_feature=8 1 8 8 4 3 8 8
split_gain=2.27575 0.26016 0.16485 0.0997424 0.133358 0.0103749 0.0192199 1.25203e-05
threshold=1.1409579767632898 0.80678867581450742 1.0000000180025095e-35 0.66587862714021639 0 -0.5343324385582241 -0.66434355180438875 -0.37929594203054484
decision_type=2 2 2 2 1 2 2 2
left_child=1 2 5 4 -4 -1 -7 -8
right_child=-2 -3 3 -5 -6 6 7 -9
leaf_value=-0 0.013431329986481074 -0.0016197938939703962 0.0046851107749024375 0 0 0.0013477276013826457 -0 2.2700554405598245e-05
leaf_count=40 21 37 42 23 23 23 28 32
internal_value=0 0.0212762 0.0375845 0.0720346 0.0922416 0.00449063 0.0123806 0
internal_count=269 248 211 88 65 123 83 60
cat_boundaries=0 1
cat_threshold=2
shrinkage=0.0368542


Tree=66
num_leaves=8
num_cat=1
split_feature=2 0 0 0 3 0 0
split_gain=0.449205 0.190537 0.0644025 0.0620184 0.0592473 0.0585141 0.052426
threshold=0 0.083519718238481838 0.89025278140301223 -1.7450752249344532 1.0000000180025095e-35 -0.93834216176992313 -0.40052011966023626
decision_type=1 2 2 2 2 2 2
left_child=1 3 4 -1 -3 -5 -7
right_child=-2 2 -4 5 -6 6 -8
leaf_value=-0 -0.0034919817760372036 -0 0 0.0029283728375743981 -0.001659015258964531 -0 0.001132364057823436
leaf_count=20 30 27 45 21 52 34 40
internal_value=0 0.000648671 -0.0219018 0.0335638 -0.0394277 0.0448023 0.0135383
internal_count=269 239 124 115 79 95 74
cat_boundaries=0 1
cat_threshold=4
shrinkage=0.0281864


Tree=67
num_leaves=10
num_cat=0
split_feature=1 1 0 1 1 1 0 0 1
split_gain=0.20927 0.165606 0.156531 0.151821 0.152048 0.127975 0.0199803 0.002172 0.00128037
threshold=1.6397355576822932 -0.36013709989728743 1.0515993940359183 -0.011048875006909287 0.65308157110096132 -0.715399746918706 0.40621294350429399 -0.50808452808217364 -1.0390701562977169
decision_type=2 2 2 2 2 2 2 2 2
left_child=1 5 3 -3 6 7 -5 8 -1
right_child=-2 2 -4 4 -6 -7 -8 -9 -10
leaf_value=0 -0.0024528080376078161 0.0031304633646810033 -0.00016542554632603047 -0.0007554313167415169 0.0023727779350313084 -0.0019501823938785105 0 -0 0.00037196280208142015
leaf_count=22 24 43 27 31 24 32 21 24 21
internal_value=0 0.012539 0.0359429 0.0536633 0.0103995 -0.01199 -0.0037171 0 0.00702592
internal_count=269 245 146 119 76 99 52 67 43
shrinkage=0.0296929


Tree=68
num_leaves=9
num_cat=0
split_feature=1 8 0 1 1 8 1 0
split_gain=0.544265 0.59795 0.128329 0.185954 0.0778917 0.295747 0.0634813 0.0518345
threshold=-1.160264861107426 0.9129198889442145 0.89025278140301223 0.26523984575096432 -0.042947833403126752 -0.37929594203054484 -0.63831948791781257 -0.18539130281636157
decision_type=2 2 2 2 2 2 2 2
left_child=-1 2 4 -4 6 -6 -2 -8
right_child=1 -3 3 -5 5 -7 7 -9
leaf_value=0.0026247893569091183 0.00021671333420462464 -0.0037885860233937163 0 -0.002101393642257796 -0.00033413457855420496 0.0020495744595428684 0 -0.0013144740050523521
leaf_count=28 37 24 22 33 32 42 20 31
internal_value=0 -0.0241217 -0.0024947 -0.0467861 0.0066023 0.0332712 -0.00470969 -0.0344707
internal_count=269 241 217 55 162 74 88 51
shrinkage=0.0220595


Tree=69
num_leaves=8
num_cat=0
split_feature=6 1 1 0 0 1 1
split_gain=0.565512 0.0795908 0.124679 0.125152 0.153712 0.00486907 0.0417303
threshold=2.0344035918582253 0.8279924148822273 -1.1279791678477091 0.51377735192623142 -0.99212436598089171 0.20353563149540482 -0.16548944239260929
decision_type=2 2 2 2 2 2 2
left_child=1 2 -1 4 -4 6 -5
right_child=-2 -3 3 5 -6 -7 -8
leaf_value=-0.00091179613689110033 0.0040341399026709935 -0.0007283355720084934 -0 0 0.0014532895450807147 4.8013220922697964e-05 -0.0010435696616788958
leaf_count=21 20 32 24 30 96 26 20
internal_value=0 0.00486303 0.015134 0.0264136 0.0465854 -0 -0.00964323
internal_count=269 249 217 196 120 76 50
shrinkage=0.0221836


Tree=70
num_leaves=8
num_cat=1
split_feature=3 0 0 8 8 7 4
split_gain=0.436657 0.553133 0.371061 0.395751 0.321493 0.10105 0.0162973
threshold=1.0000000180025095e-35 0.3524307392933253 0.67512396455913748 0.47584688729098706 0.17179610353222011 3.5000000000000004 0
decision_type=2 2 2 2 2 2 1
left_child=2 4 3 -1 6 -3 -2
right_child=1 5 -4 -5 -6 -7 -8
leaf_value=-0.00032107729112667958 0.00094590604432964851 0 0.00049542605768710692 -0.0063401344512156593 0.0054224142693667697 -0.0021437876801509992 -0
leaf_count=43 41 30 25 30 32 44 24
internal_value=0 0.0227129 -0.0595927 -0.098431 0.0755194 -0.033257 0.0161137
internal_count=269 171 98 73 97 74 65
cat_boundaries=0 1
cat_threshold=2
shrinkage=0.0335256


Tree=71
num_leaves=9
num_cat=0
split_feature=1 8 1 0 0 1 1 0
split_gain=0.551571 0.221808 0.0670448 0.0271438 0.097456 0.0361733 0.023846 0.0091621
threshold=-1.160264861107426 -0.47431181195515953 -0.54825027177732233 -1.1534709786137978 0.56755955613720011 -0.17213061349683853 -0.04673516792843016 1.1053815982468869
decision_type=2 2 2 2 2 2 2 2
left_child=-1 2 -2 -3 5 -5 -4 -6
right_child=1 3 6 4 7 -7 -8 -9
leaf_value=0.0069402370445556466 0.0045739752647180497 -0.0011481583914017023 -0 0.0018896771374864567 -0.00085949210465720977 0 0.0013817449678557264 0
leaf_count=24 24 21 23 47 39 39 30 22
internal_value=0 0.0218605 0.0659611 0 0.00621213 0.0322513 0.0191931 -0.0142979
internal_count=269 245 77 168 147 86 53 61
shrinkage=0.0367856


Tree=72
num_leaves=8
num_cat=0
split_feature=6 8 0 1 1 0 8
split_gain=0.313017 0.829436 0.155682 0.161157 0.142424 0.0606193 0.0319667
threshold=0.7117035203633213 0.47584688729098706 0.51377735192623142 0.29812564483335241 -0.78085128864472408 0.89025278140301223 -0.094248332256700929
decision_type=2 2 2 2 2 2 2
left_child=1 2 4 5 -1 -4 -6
right_child=-2 -3 3 -5 6 -7 -8
leaf_value=-0.0012624950049167374 0.0022286168277586213 -0.0061957586566286256 -0.0015314936049695776 -0.0033407954633206689 0.0017046465177807991 0.00090480971115525016 0
leaf_count=28 30 35 21 33 63 27 32
internal_value=0 -0.0354137 -0.00555048 -0.0424141 0.0108073 -0 0.0352533
internal_count=269 239 204 81 123 48 95
shrinkage=0.0350623


Tree=73
num_leaves=8
num_cat=0
split_feature=0 8 8 1 1 7 8
split_gain=1.04428 0.416008 0.481251 0.151276 0.0970731 0.0703107 0.0287355
threshold=-1.3148175912467037 0.66587862714021639 1.0000000180025095e-35 0.58717661608670257 -0.068232292065011482 3.5000000000000004 0.076780233607605455
decision_type=2 2 2 2 2 2 2
left_child=-1 2 3 4 5 -2 -4
right_child=1 -3 6 -5 -6 -7 -8
leaf_value=0.0039430044285594761 -0.0012861479607602887 -0.0024432807039460177 0.00063215066145345825 -0.0021101018580038412 0.00075302028494116839 0 0.0029801155970039252
leaf_count=39 37 33 45 22 45 21 27
internal_value=0 -3.33453e-05 0.0131113 -0.0181374 -0 -0.0285185 0.0805665
internal_count=269 230 197 125 103 58 72
shrinkage=0.0230514


Tree=74
num_leaves=9
num_cat=1
split_feature=1 0 0 0 1 0 1 4
split_gain=0.356403 0.155476 0.274431 0.0582146 0.0444531 0.141132 0.0116989 0.00762336
threshold=0.93866526426776609 -0.18539130281636157 -0.72321334492604838 1.1053815982468869 -1.0390701562977169 -1.099688774402829 -0.56922730420092182 0
decision_type=2 2 2 2 2 2 2 1
left_child=1 2 4 6 -1 -6 -3 -8
right_child=-2 3 -4 -5 5 -7 7 -9
leaf_value=-0.0013721158408164817 -0.0037717577785020685 -0 0.0039734951770549424 0 0.0028273031474783084 -0.0002008370792368412 -0.0015710332481197026 -0
leaf_count=21 33 23 32 33 24 26 57 20
internal_value=0 0.00221789 0.0346072 -0.015474 -0 0.0158022 -0.0299008 -0.0361618
internal_count=269 236 103 133 71 50 100 77
cat_boundaries=0 1
cat_threshold=2
shrinkage=0.0361368


Tree=75
num_leaves=9
num_cat=0
split_feature=1 0 0 8 0 0 0 8
split_gain=0.339229 0.262275 0.235352 0.0523916 0.10558 0.0519917 0.0433706 0.0125997
threshold=-1.1876163509362898 -0.23917350702733023 -0.77699554913701696 -0.75935942172900339 0.67512396455913748 1.0515993940359183 0.40621294350429399 -0.094248332256700929
decision_type=2 2 2 2 2 2 2 2
left_child=-1 2 -2 -3 6 -6 7 -5
right_child=1 3 -4 4 5 -7 -8 -9
leaf_value=0.0030410479913670833 -0 -0.0011098876530469411 -0.0042919460197837671 0.00068816946787747676 -0.0012940935362022981 0 0.0020448067089209455 -0
leaf_count=25 32 29 27 23 31 40 32 30
internal_value=0 -0.0173966 -0.0748802 0 0.00853032 -0.0101486 0.0356972 0
internal_count=269 244 59 185 156 71 85 53
shrinkage=0.0300345


Tree=76
num_leaves=9
num_cat=1
split_feature=3 0 0 1 0 0 1 4
split_gain=1.2701 0.524341 0.359649 0.196315 0.125654 0.264748 0.0534305 0.00504488
threshold=1.0000000180025095e-35 -0.34673791544926758 -0.77699554913701696 0.16100813219543095 0.083519718238481838 0.72890616877010606 -0.26514701601089236 0
decision_type=2 2 2 2 2 2 2 1
left_child=2 -2 -1 6 -4 -6 -3 -5
right_child=1 3 4 7 5 -7 -8 -9
leaf_value=0 0.0032984214619442751 0 -0.0040010132219539443 0.001825343071561473 0 -0.0027636145091457166 -0.00097469228555211005 0
leaf_count=27 51 25 34 30 23 23 36 20
internal_value=0 0.0597767 -0.0797982 0.0107282 -0.113712 -0.0436809 -0.0153118 0.0617822
internal_count=269 162 107 111 80 46 61 50
cat_boundaries=0 1
cat_threshold=2
shrinkage=0.0227416


Tree=77
num_leaves=7
num_cat=1
split_feature=0 0 4 1 1 0
split_gain=7.47645 1.04453 0.25089 0.181165 0.126839 0.0504186
threshold=-1.2610353870357349 -0.40052011966023626 0 -0.60666057185066369 -0.2540383904489989 0.19108412666041921
decision_type=2 2 1 2 2 2
left_child=-1 3 4 -2 -3 -4
right_child=1 2 5 -5 -6 -7
leaf_value=0.0080786269842515347 0.0024958100936834583 0 -0.00042994111959634854 0 -0.001257306289855631 -0.0032558323879341568
leaf_count=34 20 28 20 24 91 52
internal_value=0 -0.0584179 -0.0926743 0.0668189 -0.0498295 -0.148136
internal_count=269 235 191 44 119 72
cat_boundaries=0 1
cat_threshold=2
shrinkage=0.0185031


Tree=78
num_leaves=5
num_cat=0
split_feature=0 8 0 0
split_gain=0.355759 0.352792 0.434601 0.0687913
threshold=0.72890616877010606 -0.37929594203054484 -1.6375108165125158 0.45999514771526268
decision_type=2 2 2 2
left_child=1 3 -3 -1
right_child=-2 2 -4 -5
leaf_value=0 -0.0016018874789510481 -0.0011275047375625994 0.0029737410763248985 -0.0018496981834259258
leaf_count=49 71 21 104 24
internal_value=0 0.0299753 0.0639588 -0.01478
internal_count=269 198 125 73
shrinkage=0.0317302


Tree=79
num_leaves=7
num_cat=0
split_feature=0 1 0 1 7 0
split_gain=0.290556 0.198945 0.29709 0.110617 0.126033 0.136343
threshold=-1.6375108165125158 0.1951341499780064 0.9440349856139808 -0.042947833403126752 4.5000000000000009 -0.40052011966023626
decision_type=2 2 2 2 2 2
left_child=-1 3 -3 4 5 -2
right_child=1 2 -4 -5 -6 -7
leaf_value=-0.0043540901731824525 0.0035380575640636845 -0.0027317939214802959 0.00083352293190281886 0.0026953810933030811 -0.0011054651587601675 0
leaf_count=20 20 67 29 29 48 56
internal_value=0 -0 -0.0369429 0.0207898 0 0.0316955
internal_count=269 249 96 153 124 76
shrinkage=0.0350732


Tree=80
num_leaves=8
num_cat=0
split_feature=8 1 7 1 1 1 1
split_gain=1.956 2.69369 0.307737 0.0514758 0.0505839 0.0411238 0.0912389
threshold=0.076780233607605455 -0.36013709989728743 3.5000000000000004 0.41667988402330775 0.80678867581450742 0.73136204174719721 -0.42849582094202437
decision_type=2 2 2 2 2 2 2
left_child=2 -2 5 -4 -3 6 -1
right_child=1 4 3 -5 -6 -7 -8
leaf_value=3.0819482658913621e-05 0.0083929954944385651 0 -0.0024558888934671863 -0 -0.0011733195372429003 0.00080991327122709145 -0.0012120512247972952
leaf_count=35 36 20 69 22 22 22 43
internal_value=0 0.143798 -0.0421695 -0.0840007 -0.006755 -0 -0.0142699
internal_count=269 78 191 91 42 100 78
shrinkage=0.0245477


Tree=81
num_leaves=8
num_cat=1
split_feature=0 0 7 8 0 4 0
split_gain=1.36655 0.184186 0.338824 0.14515 0.0422597 0.0887561 0.0851468
threshold=-1.4761642038796097 -0.29295571123829889 4.5000000000000009 0.076780233607605455 0.89025278140301223 0 0.56755955613720011
decision_type=2 2 2 2 2 1 2
left_child=-1 2 -2 4 5 6 -3
right_child=1 3 -4 -5 -6 -7 -8
leaf_value=0.0081232002341374357 -0.0058871117046220703 -0.0018933522455746408 0 0.0027323513142409146 -0.0012294310669346538 0.0020775309642938953 0.00079662940712213785
leaf_count=38 24 36 35 36 43 35 22
internal_value=0 -0.00209034 -0.0530069 0.00980032 -0 0.00593649 -0.00426912
internal_count=269 231 59 172 136 93 58
cat_boundaries=0 1
cat_threshold=2
shrinkage=0.0413232


Tree=82
num_leaves=6
num_cat=0
split_feature=3 8 1 0 7
split_gain=0.435161 0.708587 0.416239 0.113476 0.069691
threshold=-0.26723596940162875 0.076780233607605455 0.17311693412844326 0.19108412666041921 4.5000000000000009
decision_type=2 2 2 2 2
left_child=4 2 3 -2 -1
right_child=1 -3 -4 -5 -6
leaf_value=-0.0017071321581517323 -0 0.0033247511515490063 0.0014714164337777285 -0.0019549240585229094 -0
leaf_count=69 42 36 45 43 34
internal_value=0 0.0248019 -0.0025506 -0.0505481 -0.0567174
internal_count=269 166 130 85 103
shrinkage=0.0224643


Tree=83
num_leaves=7
num_cat=0
split_feature=3 8 0 0 0 8
split_gain=0.107099 0.25153 0.135575 0.197331 0.116114 0.00833443
threshold=0.46727932077900874 -0.56932768187977412 0.13730192244945053 -0.56186673229314221 1.1053815982468869 -1.0444070315028473
decision_type=2 2 2 2 2 2
left_child=2 -2 3 -1 -3 -4
right_child=1 4 5 -5 -6 -7
leaf_value=0 -0.00146537389143565 0.0015352125876503476 -0 -0.003258391036446017 -0 0.0005446675816453085
leaf_count=30 21 118 23 21 25 31
internal_value=0 0.0258291 -0.0111159 -0.0524713 0.0450881 0.010004
internal_count=269 164 105 51 143 54
shrinkage=0.0261913


Tree=84
num_leaves=6
num_cat=0
split_feature=0 0 1 3 7
split_gain=14.8817 1.93304 0.596709 0.325047 0.230035
threshold=-1.4761642038796097 0.40621294350429399 -0.56922730420092182 0.46727932077900874 4.5000000000000009
decision_type=2 2 2 2 2
left_child=-1 2 3 -2 -4
right_child=1 -3 4 -5 -6
leaf_value=0.0076276685104870014 0 -0.0013522828241034847 -0.000629093028354505 0.0019763146585628152 0.00052083499103560923
leaf_count=30 21 104 39 37 38
internal_value=0 -0.021451 0.0522312 0.128071 -0
internal_count=269 239 135 58 77
shrinkage=0.0107148


Tree=85
num_leaves=8
num_cat=0
split_feature=0 1 1 8 8 8 1
split_gain=0.665782 0.156584 0.159351 0.0902471 0.0426159 0.1385 0.00513206
threshold=-1.5837286123015473 1.2399450586186629 0.1087989256230265 -0.18926420218131557 -0.094248332256700929 -0.37929594203054484 0.49364012185966688
decision_type=2 2 2 2 2 2 2
left_child=-1 2 4 6 5 -2 -4
right_child=1 -3 3 -5 -6 -7 -8
leaf_value=0.0057097048128410717 -0.0015894766857269434 -0.0037727800827519098 0 0.0021849815149335792 -0.0025547008064496185 0.0016670850469112453 -0.00058376142507236264
leaf_count=21 61 37 22 32 53 21 22
internal_value=0 -0.0312639 -0.014699 0.0129488 -0.0375975 -0.00702663 -0
internal_count=269 248 211 76 135 82 44
shrinkage=0.0390799


Tree=86
num_leaves=8
num_cat=1
split_feature=2 8 1 8 1 1 8
split_gain=0.799226 0.16273 0.1239 0.0585796 0.0511379 0.0453107 0.0655825
threshold=0 0.55185958323067885 -0.13719111893241973 -1.0444070315028473 -0.86763992628794451 0.41667988402330775 -0.37929594203054484
decision_type=1 2 2 2 2 2 2
left_child=1 2 4 -4 -1 6 -5
right_child=-2 -3 3 5 -6 -7 -8
leaf_value=0 -0.0062641497502019692 0.0029682777045641328 -0 0.0021217392508086613 -0.0017984105871354989 0.0026774338311749001 -0.00053673882735381798
leaf_count=31 33 32 22 21 66 33 31
internal_value=0 0.00752139 -0 0.02013 -0.0285958 0.0344969 0
internal_count=269 236 204 107 97 85 52
cat_boundaries=0 1
cat_threshold=4
shrinkage=0.040629


Tree=87
num_leaves=8
num_cat=0
split_feature=0 0 8 1 1 1 8
split_gain=1.55885 0.192525 0.152039 0.0958067 0.118574 0.155312 0.0197797
threshold=-1.4761642038796097 -0.29295571123829889 -0.18926420218131557 0.66194980159154848 -0.13719111893241973 -0.47032986462468912 1.0000000180025095e-35
decision_type=2 2 2 2 2 2 2
left_child=-1 2 -2 4 5 -3 -5
right_child=1 3 -4 6 -6 -7 -8
leaf_value=0.0042849177598209007 0.0013531564671954029 -0.0011512001830496009 -0.00015168595671539845 0.00020388033922657628 -0.0015877813023851169 0.0005377973382832635 -0.00043249144998917945
leaf_count=24 27 31 38 27 68 27 27
internal_value=0 -0.0238994 0.011777 -0.0423013 -0.0574859 -0.00357122 -0
internal_count=269 245 65 180 126 58 54
shrinkage=0.0179896


Tree=88
num_leaves=9
num_cat=0
split_feature=0 8 3 0 1 1 0 8
split_gain=1.41049 0.765887 0.291392 0.0368225 0.0724408 0.0576558 0.0343398 0.0111803
threshold=-0.99212436598089171 0.9129198889442145 -0.90159008364854298 -0.18539130281636157 -0.26514701601089236 0.54652944836443218 -0.72321334492604838 1.0000000180025095e-35
decision_type=2 2 2 2 2 2 2 2
left_child=1 -1 -2 6 -5 7 -4 -6
right_child=2 -3 3 4 5 -7 -8 -9
leaf_value=4.6835203601633838e-05 -0.001879786240469378 0.0070118128443150494 -0 -0.0012557037748022754 0.00069526565990017653 -0.00066918195711651509 0.0010354419355795706 0
leaf_count=24 58 20 23 27 38 34 25 20
internal_value=0 0.169492 -0.0234496 -0 -0.0113961 0 0.0208189 0.021156
internal_count=269 44 225 167 119 92 48 58
shrinkage=0.0223956


Tree=89
num_leaves=9
num_cat=0
split_feature=0 8 1 0 1 0 8 1
split_gain=3.75979 1.86962 0.589772 0.180157 0.207721 0.120267 0.0425869 0.0153189
threshold=-0.56186673229314221 0.55185958323067885 0.15048627677126056 0.62134176034816868 -0.56431977213996531 -0.88455995755895434 1.0000000180025095e-35 -0.19604149660905337
decision_type=2 2 2 2 2 2 2 2
left_child=1 5 3 4 -2 -1 -4 -6
right_child=2 -3 6 -5 7 -7 -8 -9
leaf_value=0 -0 0.0087135081611044198 -0.0028707983102738721 -0.00090551064822973453 0.0027307753169466837 0.0023598164418096009 -0.00052391293361219295 0
leaf_count=24 27 34 52 37 21 20 34 20
internal_value=0 0.217869 -0.0389902 0.00253389 0.0410682 0.0519991 -0.100629 0.0878441
internal_count=269 78 191 105 68 44 86 41
shrinkage=0.0219853


Tree=90
num_leaves=5
num_cat=0
split_feature=1 8 8 1
split_gain=4.5395 2.56171 0.72091 0.374436
threshold=-0.6682180935717924 0.17179610353222011 0.28581514744175773 -0.32027673758696384
decision_type=2 2 2 2
left_child=1 -1 3 -2
right_child=2 -3 -4 -5
leaf_value=0.00016901160441844961 -0 0.0092341745509046773 0 -0.0032693639576290216
leaf_count=39 28 22 37 143
internal_value=0 0.191651 -0.113663 -0.141031
internal_count=269 61 208 171
shrinkage=0.0201378


Tree=91
num_leaves=9
num_cat=1
split_feature=0 1 6 4 1 0 0 1
split_gain=1.15461 0.201688 0.168248 0.0901997 0.0945456 0.0401486 0.0238062 0.00017547
threshold=0.2448663308713879 0.07093891605494064 0.7117035203633213 0 0.57398762367288192 -0.40052011966023626 -0.88455995755895434 -0.19604149660905337
decision_type=2 2 2 1 2 2 2 2
left_child=2 7 5 4 -3 6 -1 -2
right_child=1 3 -4 -5 -6 -7 -8 -9
leaf_value=0.0013100266006244514 9.3660849618457817e-05 -0.0025177515927482055 0.0072762908236205905 -0.0046353710031968344 0 0.0037238601137313983 -0 -0
leaf_count=44 30 24 28 30 25 47 21 20
internal_value=0 -0.0334679 0.0936957 -0.0658883 -0.0124186 0.0606285 0.0198573 0
internal_count=269 129 140 79 49 112 65 50
cat_boundaries=0 1
cat_threshold=2
shrinkage=0.0393674


Tree=92
num_leaves=6
num_cat=0
split_feature=1 8 1 1 0
split_gain=0.219981 0.159552 0.212617 0.0399917 0.00513808
threshold=-0.25882590134542122 -0.37929594203054484 -0.72216093918746938 0.93866526426776609 -1.5837286123015473
decision_type=2 2 2 2 2
left_child=1 -1 4 -2 -3
right_child=3 2 -4 -5 -6
leaf_value=-0.00079028657949989996 -0.0017901526178211275 -0.00012396608986700182 0.004369213639860571 -0 0.00050947072123094512
leaf_count=36 117 21 28 41 26
internal_value=0 0.0166903 0.0479293 -0.0375753 0
internal_count=269 111 75 158 47
shrinkage=0.0378121


Tree=93
num_leaves=9
num_cat=0
split_feature=0 8 1 1 1 0 0 1
split_gain=2.82448 1.02209 0.2309 0.132252 0.1259 0.0833025 0.0551357 0.0184783
threshold=-0.18539130281636157 0.9129198889442145 -0.81307030347969966 0.11932078104719689 -0.21015065128430341 0.78268837298107485 0.40621294350429399 -0.47951815155403438
decision_type=2 2 2 2 2 2 2 2
left_child=1 2 -1 4 -2 6 -5 -4
right_child=3 -3 7 5 -6 -7 -8 -9
leaf_value=-0 -0.0012551825248182337 0.0068073731129102248 0.0031462474824599574 -0.0016892322715162844 0 -0.0031742618327092634 -0 0.0002665445386273688
leaf_count=31 50 21 20 21 33 44 28 21
internal_value=0 0.136559 0.0603709 -0.0778062 -0.029245 -0.109735 -0.0445782 0.108777
internal_count=269 93 72 176 83 93 49 41
shrinkage=0.0201577


Tree=94
num_leaves=7
num_cat=1
split_feature=0 1 4 8 1 1
split_gain=1.79794 1.15158 0.2423 0.230413 0.103812 0.0559407
threshold=-0.56186673229314221 -0.78085128864472408 0 0.17179610353222011 -0.068232292065011482 0.49364012185966688
decision_type=2 2 1 2 2 2
left_child=1 -1 3 -2 -4 -6
right_child=2 -3 4 -5 5 -7
leaf_value=0.0049713624597597459 -0.0010779540036110788 -0 -0.0010648563025184949 -0.0041776323480922249 0.0012012352654598064 -0
leaf_count=39 95 39 34 22 20 20
internal_value=0 0.118281 -0.0603095 -0.0892826 -0.000587644 0.0179676
internal_count=269 78 191 117 74 40
cat_boundaries=0 1
cat_threshold=2
shrinkage=0.0209294


Tree=95
num_leaves=8
num_cat=0
split_feature=0 1 1 8 1 8 0
split_gain=2.08257 0.144897 0.306991 0.101542 0.128801 0.0808813 0.0327841
threshold=-1.4761642038796097 -0.27209490786893137 -0.60666057185066369 0.55185958323067885 0.29812564483335241 -0.37929594203054484 -0.13160909860539288
decision_type=2 2 2 2 2 2 2
left_child=-1 2 6 4 -3 -6 -2
right_child=1 3 -4 -5 5 -7 -8
leaf_value=0.0061434445579026048 -0.0011574323286367753 -0.0012658020488503789 0.0021481868410699848 -0.0024116536952315435 -0.00036239807453308803 0.0010718247886994635 0
leaf_count=31 29 54 34 27 30 37 27
internal_value=0 -0.0157874 0.00744826 -0.0365838 -0.0135984 0.00322825 -0.0251039
internal_count=269 238 90 148 121 67 56
shrinkage=0.0241857


Tree=96
num_leaves=10
num_cat=0
split_feature=0 3 0 0 1 0 1 0 0
split_gain=0.336508 0.102233 0.231739 0.0923112 0.17797 0.0893289 0.0423824 0.0206944 0.0203904
threshold=0.62134176034816868 -0.5343324385582241 0.13730192244945053 -1.4761642038796097 -0.27209490786893137 0.89025278140301223 0.40474444599462273 1.0000000180025095e-35 0.029737514027513141
decision_type=2 2 2 2 2 2 2 2 2
left_child=1 2 -1 -3 8 -2 -7 -6 -5
right_child=5 3 -4 4 7 6 -8 -9 -10
leaf_value=-0.0042808021114138246 -0.0048039702545590269 0.0033883304649815573 0.00047115141155461331 -0.0014283432334737133 0.002892219419264572 0 -0.0018626873654080769 0 0
leaf_count=21 29 24 24 40 31 31 27 21 21
internal_value=0 0.00787289 -0.0231206 0.0253934 0.0033588 -0.0642648 -0.01773 0.0526981 -0.0227435
internal_count=269 182 45 137 113 87 58 52 61
shrinkage=0.0399307


Tree=97
num_leaves=10
num_cat=1
split_feature=0 1 0 8 0 8 1 4 8
split_gain=5.54516 0.858447 0.532948 0.109227 0.0452689 0.0768143 0.00796792 0.0722351 0.00374571
threshold=-1.0459065701918602 1.6397355576822932 -0.66943114071507959 0.9129198889442145 -0.13160909860539288 1.0000000180025095e-35 -0.04673516792843016 0 0.076780233607605455
decision_type=2 2 2 2 2 2 2 1 2
left_child=3 2 -2 -1 -4 6 -6 -8 -7
right_child=1 -3 4 -5 5 8 7 -9 -10
leaf_value=0.0042582027250454907 0.0023495266320435158 -0.0049389568250660307 0 0.011026613132143204 -0.0018834903656203682 0.00018085705943507956 0 -0.0014420233299087045 -0.0002136116341563122
leaf_count=20 35 20 26 20 35 21 45 22 25
internal_value=0 -0.0254144 -0.00117806 0.371449 -0.0285545 -0.035517 -0.050701 -0.017887 -0
internal_count=269 229 209 40 174 148 102 67 46
cat_boundaries=0 1
cat_threshold=2
shrinkage=0.0225576


Tree=98
num_leaves=8
num_cat=1
split_feature=6 8 0 1 8 1 4
split_gain=0.50919 0.576296 0.134613 0.320229 0.103274 0.0444864 0.035109
threshold=0.7117035203633213 0.66587862714021639 -0.56186673229314221 1.0000000180025095e-35 -0.66434355180438875 0.37841980390677438 0
decision_type=2 2 2 2 2 2 1
left_child=1 2 -1 6 -5 -6 -4
right_child=-2 -3 3 4 5 -7 -8
leaf_value=0.0017415543121028585 0.0035406511575394668 -0.0047305416389175139 -0.00035576995615076292 -0 0 0.0022074300208942913 -0.0027158264634745272
leaf_count=35 32 24 54 28 23 38 35
internal_value=0 -0.0141626 0 -0.00846274 0.0267113 0.0519753 -0.0546539
internal_count=269 237 213 178 89 61 89
cat_boundaries=0 1
cat_threshold=2
shrinkage=0.0299417


Tree=99
num_leaves=8
num_cat=1
split_feature=0 3 4 0 0 8 0
split_gain=0.120103 0.228202 0.115367 0.0901176 0.110806 0.0202795 0.00714546
threshold=-0.40052011966023626 0.46727932077900874 0 0.51377735192623142 1.0515993940359183 0.17179610353222011 0.72890616877010606
decision_type=2 2 1 2 2 2 2
left_child=1 -1 3 -2 -5 -3 -4
right_child=2 5 6 4 -6 -7 -8
leaf_value=-0.00021005061899942857 -0.0023606263199693 4.1446620624275112e-05 0.00051179088322223041 0.00078118968635198572 -0.002050020574846921 0.004293068431801877 -0
leaf_count=35 54 23 48 40 26 21 22
internal_value=0 0.0310724 -0.0149805 -0.0358032 -0 0.0822153 0.00663273
internal_count=269 79 190 120 66 44 70
cat_boundaries=0 1
cat_threshold=2
shrinkage=0.0353531


Tree=100
num_leaves=8
num_cat=0
split_feature=0 0 1 3 0 1 1
split_gain=20.4855 4.06009 1.02797 0.330688 0.219678 0.142429 0.0958499
threshold=-1.3148175912467037 0.029737514027513141 0.46731547977181848 0.46727932077900874 0.62134176034816868 -0.27865606486347111 -0.47951815155403438
decision_type=2 2 2 2 2 2 2
left_child=-1 3 4 -2 5 -3 -5
right_child=1 2 -4 6 -6 -7 -8
leaf_value=0.010573023895300571 -0.00047240726655411471 -0 -0.0059146786965610532 0.0022544540156084806 -0.0035953287384283775 -0.0020261567482810446 0
leaf_count=35 29 23 59 23 53 27 20
internal_value=0 -0.155785 -0.243942 0.0294953 -0.162137 -0.076098 0.0915397
internal_count=269 234 162 72 103 50 43
shrinkage=0.0162043


Tree=101
num_leaves=8
num_cat=0
split_feature=0 0 8 8 0 8 0
split_gain=1.77986 0.245743 0.0718141 0.0742096 0.0708238 0.0243929 0.00140678
threshold=-1.7450752249344532 0.72890616877010606 0.47584688729098706 -0.18926420218131557 -0.34673791544926758 -0.66434355180438875 0.029737514027513141
decision_type=2 2 2 2 2 2 2
left_child=-1 2 3 5 -5 6 -2
right_child=1 -3 -4 4 -6 -7 -8
leaf_value=0.0062556935452148703 0.00018721330436980604 -0.0015080439701436309 -0.00087419929292378807 -0 0.0014208974590010563 -0.00059425021791427955 -0
leaf_count=20 22 68 33 24 38 32 32
internal_value=0 -0.0177975 0 0.0109943 0.0382597 -0 0.00218442
internal_count=269 249 181 148 62 86 54
shrinkage=0.0219757


Tree=102
num_leaves=5
num_cat=0
split_feature=0 0 1 0
split_gain=7.82446 2.30277 0.387437 0.0628336
threshold=-1.2072531828247663 0.3524307392933253 -0.25882590134542122 -0.29295571123829889
decision_type=2 2 2 2
left_child=-1 2 -2 -4
right_child=1 -3 3 -5
leaf_value=0.0063715010230044958 0.0013198346785750978 -0.0025936695051746303 0 -0.00068687231171267753
leaf_count=37 54 113 24 41
internal_value=0 -0.068588 0.0212186 -0.0189065
internal_count=269 232 119 65
shrinkage=0.0151419


Tree=103
num_leaves=9
num_cat=0
split_feature=0 1 1 3 0 1 1 1
split_gain=1.77843 0.605784 0.380291 0.272311 0.425533 0.200148 0.081104 0.0752313
threshold=-1.8795307354618747 -0.24598363674025506 -1.0390701562977169 -0.5343324385582241 0.78268837298107485 0.46731547977181848 -0.5280600447656697 -0.031332451813199734
decision_type=2 2 2 2 2 2 2 2
left_child=-1 2 -2 4 -3 7 -4 -5
right_child=1 3 6 5 -6 -7 -8 -9
leaf_value=0.012472928838258894 -0.00050483838045051643 -0.0064763358378365776 0.0056372715625286835 -0 0 -0.0023045658947225874 0.00066405363226965857 0.0022978675454301328
leaf_count=20 21 31 45 20 21 37 30 44
internal_value=0 0.00412703 0.0693696 -0.0305006 -0.0885497 -0 0.105354 0.0336664
internal_count=269 249 96 153 52 101 75 64
shrinkage=0.0399465


Tree=104
num_leaves=6
num_cat=0
split_feature=0 8 0 8 0
split_gain=29.4027 6.8197 2.25369 0.434788 0.0692014
threshold=-0.66943114071507959 0.79890084503467695 0.083519718238481838 0.17179610353222011 -0.18539130281636157
decision_type=2 2 2 2 2
left_child=1 3 4 -1 -2
right_child=2 -3 -4 -5 -6
leaf_value=0.0022242202116300475 0.00067195030052384229 0.015798328590381352 -0.0047478824314412544 0.0070578641340065243 -0.0007252729820562292
leaf_count=33 20 31 141 21 23
internal_value=0 0.502371 -0.204896 0.253066 -0
internal_count=269 85 184 54 43
shrinkage=0.0178732


Tree=105
num_leaves=9
num_cat=0
split_feature=0 0 1 1 1 1 0 1
split_gain=5.20287 0.262663 0.0692574 0.141253 0.136421 0.0553924 0.00263729 0.000623599
threshold=-1.0459065701918602 0.9978171898249496 -0.47951815155403438 -0.10141147621626111 -0.82624596020857199 0.53767455355879323 1.1591638024578557 0.99659547968297035
decision_type=2 2 2 2 2 2 2 2
left_child=-1 2 4 -4 -2 -5 -3 -7
right_child=1 6 3 5 -6 7 -8 -9
leaf_value=0.006331077238198559 0 -0.0018581146903186515 0.0011216143701392588 -0.00047440851464205673 -0.0014755485547348372 0 -0.00018969340190753368 0.00038305500009183863
leaf_count=35 29 24 34 48 21 24 29 25
internal_value=0 -0.016569 0 0.0137381 -0.0294873 -0 -0.0778385 0.0165974
internal_count=269 234 181 131 50 97 53 49
shrinkage=0.0162782


Tree=106
num_leaves=7
num_cat=0
split_feature=0 0 1 1 1 1
split_gain=9.62534 1.61002 0.783436 0.538451 0.0605155 0.0617146
threshold=-1.099688774402829 -0.077826894394424209 -0.12854959508595279 -0.69772996436227286 0.49364012185966688 0.15048627677126056
decision_type=2 2 2 2 2 2
left_child=-1 2 3 -2 5 -3
right_child=1 4 -4 -5 -6 -7
leaf_value=0.0069858112638375427 0 -0.0018755192925134915 -0.0013771156731731318 0.0037963632428361007 -0.0031588102762450522 -0
leaf_count=41 24 73 27 20 61 23
internal_value=0 -0.0864879 0.026791 0.118331 -0.14389 -0.0986134
internal_count=269 228 71 44 157 96
shrinkage=0.0160936


Tree=107
num_leaves=7
num_cat=0
split_feature=0 8 8 1 0 3
split_gain=1.2128 0.775169 0.167 0.112745 0.166278 0.0492082
threshold=-0.66943114071507959 0.55185958323067885 0.37132943037391092 0.15416692581697797 0.83647057719204343 0.46727932077900874
decision_type=2 2 2 2 2 2
left_child=1 -1 3 5 -5 -2
right_child=2 -3 -4 4 -6 -7
leaf_value=0 -0.0025671773609888277 0.0082500366617158823 -0.004685179415592395 0.0015975806503834167 -0.001591056864105613 -9.2954684380747201e-05
leaf_count=42 44 29 20 45 32 57
internal_value=0 0.112699 -0.038718 -0.0216459 0 -0.0439043
internal_count=269 71 198 178 77 101
shrinkage=0.0347631


Tree=108
num_leaves=8
num_cat=0
split_feature=0 8 3 1 0 8 1
split_gain=4.39073 1.02356 1.62944 0.205377 0.197178 0.181172 0.162442
threshold=0.029737514027513141 0.28581514744175773 0.46727932077900874 -0.6794067332433753 0.72890616877010606 -0.2842800721059302 -0.19789515681686032
decision_type=2 2 2 2 2 2 2
left_child=1 3 -3 -1 6 -5 -2
right_child=4 2 -4 5 -6 -7 -8
leaf_value=-0 0 0.00068085221643030859 0.008527839355988014 0.002743847301426293 -0.0032027204563047596 0 -0.0016603796362692194
leaf_count=29 21 26 23 28 66 26 50
internal_value=0 0.135774 0.255156 0.0511919 -0.118588 0.0879575 -0.0563032
internal_count=269 132 49 83 137 54 71
shrinkage=0.0189705


Tree=109
num_leaves=8
num_cat=0
split_feature=0 0 8 8 0 0 0
split_gain=5.41337 0.352535 0.134798 0.166287 0.0902771 0.0856128 0.0144708
threshold=-1.2610353870357349 0.83647057719204343 -0.094248332256700929 -0.75935942172900339 0.40621294350429399 -0.61564893650411101 0.2448663308713879
decision_type=2 2 2 2 2 2 2
left_child=-1 2 3 -2 5 -4 -5
right_child=1 -3 4 6 -6 -7 -8
leaf_value=0.0060098423406968384 -0.00075803877317621353 -0.0019449384520454952 -0 0.0009688795391098611 0 -0.0017300226516218046 0
leaf_count=34 36 68 21 28 23 34 25
internal_value=0 -0.0544784 -0.0218021 0 -0.0521261 -0.0737916 0.0401437
internal_count=269 235 167 89 78 55 53
shrinkage=0.0163776


Tree=110
num_leaves=8
num_cat=0
split_feature=0 8 0 0 1 0 1
split_gain=1.80178 0.2827 0.13526 0.125803 0.0902333 0.0328676 0.0081306
threshold=-0.56186673229314221 -0.47431181195515953 0.13730192244945053 -1.7988574291454218 0.1951341499780064 -1.0459065701918602 -0.45888784693908941
decision_type=2 2 2 2 2 2 2
left_child=3 4 -3 -1 6 -5 -2
right_child=1 2 -4 5 -6 -7 -8
leaf_value=0.010718612803660359 0 0 -0.0030257592731871398 2.4775800797181176e-05 -0 0.0052036237147405368 0.0030661606211966918
leaf_count=24 20 37 86 22 22 33 25
internal_value=0 -0.018806 -0.0501215 0.156876 0.0238692 0.0929226 0.0529511
internal_count=269 190 123 79 67 55 45
shrinkage=0.0422234


Tree=111
num_leaves=9
num_cat=1
split_feature=8 3 0 0 8 7 0 4
split_gain=0.535758 0.870866 0.273184 0.262717 0.131709 0.107591 0.0578495 0.00047797
threshold=0.66587862714021639 -0.5343324385582241 0.67512396455913748 -0.83077775334798576 -0.85437529165361803 3.5000000000000004 0.13730192244945053 0
decision_type=2 2 2 2 2 2 2 1
left_child=2 -2 3 -1 -5 -4 7 -6
right_child=1 -3 5 4 6 -7 -8 -9
leaf_value=-0.0027510989653971689 -0.00058411597133155671 0.007136387357067943 -0.0044248907388389222 -0.00050042647139312809 0.00015829248064847209 -0 0.0023606928236327845 -0
leaf_count=31 24 30 28 30 22 31 52 21
internal_value=0 0.0900106 -0.0204299 0 0.0221551 -0.0778179 0.0441491 0
internal_count=269 54 215 156 125 59 95 43
cat_boundaries=0 1
cat_threshold=2
shrinkage=0.0347235


Tree=112
num_leaves=10
num_cat=1
split_feature=6 7 0 1 0 0 1 4 0
split_gain=0.279954 0.280017 0.238148 0.193646 0.0248234 0.0471114 0.0202467 0.0112899 0.0371838
threshold=0.7117035203633213 3.5000000000000004 -0.077826894394424209 -0.49549430212203965 0.62134176034816868 1.1053815982468869 -0.47951815155403438 0 0.45999514771526268
decision_type=2 2 2 2 2 2 2 1 2
left_child=1 3 6 -1 -4 -6 -3 8 -5
right_child=-2 2 4 7 5 -7 -8 -9 -10
leaf_value=0.0030257674049439516 0.0033945642457225652 -0.0037071867034204954 0.00083841452074500408 0 -0.0017694306703058885 0 -8.0844154620861935e-07 0.0005821821431468636 -0.0013521629967672081
leaf_count=38 29 38 30 20 20 21 24 22 27
internal_value=0 -0.00272472 -0.0368586 0.0303925 0 -0.012833 -0.0816685 -0 -0.0100871
internal_count=269 240 133 107 71 41 62 69 47
cat_boundaries=0 1
cat_threshold=2
shrinkage=0.0348845


Tree=113
num_leaves=8
num_cat=0
split_feature=1 6 8 1 8 1 0
split_gain=1.07173 0.156795 0.11958 0.128412 0.0735577 0.0199854 0.0101822
threshold=-0.88983050604183489 2.0344035918582253 0.076780233607605455 -0.082621496124174812 -0.75935942172900339 0.52808619608100049 0.62134176034816868
decision_type=2 2 2 2 2 2 2
left_child=-1 2 3 4 -2 6 -5
right_child=1 -3 -4 5 -6 -7 -8
leaf_value=0.0063056299308551153 -0 -0.0039322899827452821 0.0015359462855195126 0.001249686678260177 -0.0028689157309115063 -0.00046933006261020159 0
leaf_count=41 21 27 36 27 57 36 24
internal_value=0 -0.0210827 -0.00580609 -0.0213449 -0.0508215 0 0.0171229
internal_count=269 228 201 165 78 87 51
shrinkage=0.0414688


Tree=114
num_leaves=8
num_cat=0
split_feature=0 6 7 0 1 6 0
split_gain=0.519602 0.775457 0.135605 0.124728 0.0676483 0.0327194 0.0246125
threshold=-1.6375108165125158 0.7117035203633213 4.5000000000000009 0.56755955613720011 -0.6794067332433753 0.17193500633913836 0.083519718238481838
decision_type=2 2 2 2 2 2 2
left_child=-1 2 3 4 -2 -4 -6
right_child=1 -3 5 -5 6 -7 -8
leaf_value=-0.0053223357365719025 -0.0020601914589503086 0.0055391876566144149 -0 0.0017249602453855801 0.00099869620413489289 -0.0019595050265009111 -0.00039366457096839437
leaf_count=22 23 29 26 45 24 65 35
internal_value=0 0.00363334 -0.0128696 0.00121783 -0.0132249 -0.0431992 0
internal_count=269 247 218 127 82 91 59
shrinkage=0.0352104


Tree=115
num_leaves=9
num_cat=0
split_feature=1 1 1 1 0 0 0 1
split_gain=0.686921 0.343156 0.597733 0.141152 0.0780865 0.070231 0.00487252 0.00613238
threshold=1.6397355576822932 -0.50470926042128139 0.043680776020714664 0.18009149735637878 -0.50808452808217364 -1.3685997954576725 0.56755955613720011 0.66194980159154848
decision_type=2 2 2 2 2 2 2 2
left_child=1 4 -3 -4 5 -1 -5 -8
right_child=-2 2 3 6 -6 -7 7 -9
leaf_value=-0.0020802032854579924 -0.0065799074858790552 0.0042751422617770792 -0.0032171845510012083 -0 -0.0032650218541626927 0.00073671478368022311 0.00088973251423245584 -0
leaf_count=22 25 70 22 29 33 26 22 20
internal_value=0 0.00556982 0.0354332 -0.00762667 -0.0420297 -0 0.00164227 0.010855
internal_count=269 244 163 93 81 48 71 42
shrinkage=0.0403211


Tree=116
num_leaves=4
num_cat=0
split_feature=0 1 1
split_gain=5.5818 0.878094 0.830262
threshold=-0.77699554913701696 -0.61234157363861874 -0.51527112290029653
decision_type=2 2 2
left_child=1 -1 -2
right_child=2 -3 -4
leaf_value=0.0071828833747436018 0.00081205672388901299 0.00059808415345069196 -0.0021963986312094797
leaf_count=42 38 20 169
internal_value=0 0.264418 -0.0752256
internal_count=269 62 207
shrinkage=0.0205274


Tree=117
num_leaves=9
num_cat=0
split_feature=6 1 1 0 1 1 0 0
split_gain=0.589449 0.0907931 0.179037 0.0499682 0.0826969 0.0378973 0.0584173 0.0108829
threshold=2.0344035918582253 -0.92997091773607188 -0.715399746918706 0.40621294350429399 0.26523984575096432 0.63230457395158546 0.9978171898249496 -0.13160909860539288
decision_type=2 2 2 2 2 2 2 2
left_child=1 -1 -3 4 7 6 -5 -4
right_child=-2 2 3 5 -6 -7 -8 -9
leaf_value=-0.0022138843838970862 0.0050617739693971497 0.002685761746116005 0 0 -0.0029458347960684347 0.0011749022490647983 -0.0015940112056390585 -0.00067017157388338158
leaf_count=45 24 20 31 34 28 22 35 30
internal_value=0 -0.0190042 -0.0041186 -0.0188105 -0.0355921 -0 -0.01367 -0
internal_count=269 245 200 180 89 91 69 61
shrinkage=0.0357681


Tree=118
num_leaves=6
num_cat=0
split_feature=0 8 0 1 7
split_gain=3.59438 0.388156 0.328359 0.354239 0.00478232
threshold=-1.2610353870357349 0.55185958323067885 0.13730192244945053 -0.065631833500102446 3.5000000000000004
decision_type=2 2 2 2 2
left_child=-1 2 3 4 -2
right_child=1 -3 -4 -5 -6
leaf_value=0.0054060653542649401 -0.00095649482853880409 -0.0042797606875842661 -0.0015048678089363142 0.0025187364466540871 -0
leaf_count=44 23 21 130 22 29
internal_value=0 -0.0588275 -0.0387219 0.00246119 -0.0282297
internal_count=269 225 204 74 52
shrinkage=0.0216099


Tree=119
num_leaves=7
num_cat=2
split_feature=0 2 0 8 3 4
split_gain=2.78303 1.44622 0.731695 0.0864716 0.0376133 0.0219891
threshold=-1.9602040417783277 0 -0.077826894394424209 -0.37929594203054484 0.46727932077900874 1
decision_type=2 1 2 2 2 1
left_child=-1 -2 4 -4 -3 -5
right_child=1 2 3 5 -6 -7
leaf_value=0.0054632595711617297 -0.0039666830795414562 0 -0.0010485732980390419 -0.00037327944837528071 0.001487552593878414 6.4332238990370103e-05
leaf_count=20 25 29 87 37 50 21
internal_value=0 -0.0299344 -0 -0.0459719 0.0727269 -0
internal_count=269 249 224 145 79 58
cat_boundaries=0 1 2
cat_threshold=2 2
shrinkage=0.0156504


Tree=120
num_leaves=8
num_cat=1
split_feature=3 0 8 1 1 4 0
split_gain=0.850137 0.316189 0.0477822 0.0369377 0.0194886 0.0185568 0.0106262
threshold=-0.5343324385582241 -1.2610353870357349 -0.37929594203054484 -0.19604149660905337 -0.21480480533124316 0 -0.66943114071507959
decision_type=2 2 2 2 2 1 2
left_child=-1 -2 3 -3 6 -6 -4
right_child=1 2 4 -5 5 -7 -8
leaf_value=-0.002693915638715824 0.0024627129738096537 -0.0012090933641052005 0 -0 -0.00034150450648408879 0.00044629633975379839 0.00081286529269557716
leaf_count=61 30 26 22 34 42 23 31
internal_value=0 0.0138341 -0 -0.0249064 0.00914037 -0 0.0233455
internal_count=269 208 178 60 118 65 53
cat_boundaries=0 1
cat_threshold=2
shrinkage=0.022975


Tree=121
num_leaves=7
num_cat=0
split_feature=0 0 3 8 7 0
split_gain=5.81311 0.781514 0.311104 0.234811 0.125019 0.0121524
threshold=-1.2610353870357349 0.45999514771526268 1.0000000180025095e-35 -0.37929594203054484 4.5000000000000009 1.0515993940359183
decision_type=2 2 2 2 2 2
left_child=-1 2 4 -4 -2 -3
right_child=1 5 3 -5 -6 -7
leaf_value=0.0079035445903107605 -0.0020277347400521053 -0.0025444074034780585 -0 0.0018324988546740877 0 -0.00079285077623308432
leaf_count=34 22 69 26 52 20 46
internal_value=0 -0.0417899 0.00721962 0.0512426 -0.0505718 -0.101172
internal_count=269 235 120 78 42 115
shrinkage=0.0200608


Tree=122
num_leaves=8
num_cat=0
split_feature=6 0 0 1 1 1 1
split_gain=0.422949 0.190852 0.0769691 0.0806114 0.143894 0.0294142 0.000896728
threshold=2.0344035918582253 -1.2610353870357349 1.1591638024578557 -0.6265840851633514 0.24372938592943469 0.65308157110096132 -0.94850751981414139
decision_type=2 2 2 2 2 2 2
left_child=1 -1 3 6 -5 -6 -3
right_child=-2 2 -4 4 5 -7 -8
leaf_value=0.0039721447970893402 -0.0034010287245615743 0 -0.00077773093018577825 0.0021316253970643283 -0.00093500679472153744 0.00054896307271018506 -0.00022578415924792201
leaf_count=27 25 21 21 88 24 43 20
internal_value=0 0.0304799 0.0149021 0.0240805 0.0353414 0 -0
internal_count=269 244 217 196 155 67 41
shrinkage=0.034552


Tree=123
num_leaves=9
num_cat=2
split_feature=1 6 8 4 3 4 8 8
split_gain=0.323573 0.758634 0.284905 0.0858019 0.0844981 0.0588402 0.0228193 0.0216512
