tree
version=v2
num_class=1
num_tree_per_iteration=1
label_index=0
max_feature_idx=8
objective=regression
feature_names=Age KM FuelType HP MetColor Automatic CC Doors Weight
feature_infos=[-2.9551748196812486:1.2936193129852771] [-1.8278492496168937:4.6532669638634134] 2:1:0 [-2.1702983121423713:6.0429181144229389] 1:0 1:0 [-1.4259935648809674:2.3149763342965377] [2:5] [-1.3769625762389988:7.7445609365240076]
tree_sizes=496 630 573 714 503 701 793 718 652 667 733 753 810 789 770 787 544 670 750 877 697 800 776 824 735 910 871 639 641 802 717 598 649 761 796 749 911 633 845 720 489 821 783 612 695 641 552 727 734 741 628 776 690 833 778 847 736 565 705 577 559 759 752 627 723 638 783 676 753 622 713 691 722 832 823 810 811 699 705 689 803 669 853 811 492 709 774 611 664 718 539 691 631 782 623 834 703 546 698 616 482 756 626 819 657 565 586 596 646 489 757 751 847 761 620 620 686 682 722 677 582 611 685 746 778 509 606 672 822 735 693 719 771 407 492 562 735 734 679 582 690 689 762 722 671 718 914 637 779 633 562 427 749 687 710 662 698 807 895 708 613 528 628 712 742 780 782 775 879 634 776 483 673 733 740 693 701 787 604 805 619 739 735 682 534 725 765 486 424 567 771 807 830 453 625 540 566 719 780 851 626 750 725 704 673 703 728 573 685 767 570 766 690 645 473 472 707 830 619 625 486 750 611 764 665 781 418 568 715 842 811 622 674 710 633 852 717 650 677 796 622 745 700 691 727 684 648 689 689 733 562 707 750 690 729 704 622 552 581 738 684 692 705 788 777 598 641 596 628 623 610 734 713 670 683 639 698 625 667 617 585 705 760 592 768 656 763 892 772 689 745 492 695 838 634 472 717 631 710 786 542 749 586 624 633 717 635 689 490 694 799 618 529 759 605 688 663 835 698 744 764 658 767 759 681 663 765 561 810 790 772 569 634 662 620 714 705 637 685 639 743 668 788 641 831 770 559 632 793 552 814 830 645 681 795 609 471 701 650 424 750 843 678 754 771 577 546 709 641 819 553 652 689 676 753 553 635 487 761 732 606 737 555 659 649 774 741 623 750 835 667 828 702 920 752 637 667 772 789 493 711 647 687 699 721 716 487 959 487 759 734 833 729 706 845 607 757 706 799 834 617 657 527 733 638 542 823 396 639 466 725 791 849 792 495 681 575 632 594 673 683 675 553 716 614 686 778 586 822 755 613 713 679 705 756 641 789 657 741 755 656 779 745 723 599 757 618 578 661 565 767 710 758 761 660 548 761 619 555 778 741 685 616 802 488 759 611 603 621 470 600 702 819 748 783 841 613 667 667 711 573 897 611 676 708 675 471 693 687 551 661 863 565 714 818 679 650 796 485 739 692 488 734 781 680 757 626 835 749 726 645 780 641 751 685 666 753 687 847 643 795 677 673 630 621 766 782 503 613 777 555 860 777 692 664 609 669 679 778 678 856 659 626 735 605 579 495 746 677 620 544 700 692 495 756 543 781 737 626 782 838 550 696 731 568 690 814 545 659 836 745 646 557 739 758 811 712 641 642 783 773 610 735 750 716 649 548 779 671 742 675 770 675 617 700 766 797 690 662 758 730 627 818 650 654 694 813 834 793 567 808 613 627 560 754 676 663 433 635 653 751 557 705 686 683 551 559 731 626 614 699 487 698 560 782 757 699 755 433 747 640 623 572 619 733 716 682 705 563 677 702 638 584 670 635 540 660 627 680 699 686 778 774 707 682 672 602 657 700 523 726 491 863 835 695 461 818 558 586 612 807 614 738 498 635 631 724 724 743 738 685 590 613 488 638 563 682 885 737 742 684 490 739 582 661 662 666 776 724 727 875 765 576 829 766 548 768 801 549 775 554 692 833 754 702 722 739 733 741 713 530 693 746 723 733 585 707 760 679 679 682 823 688 794 788 472 710 759 772 673 555 353 705 758 682 540 736 732 627 704 557 644 606 545 677 783 574 732 592 767 500 757 613 769 704 654 640 676 645 736 707 542 612 567 688 768 737 713 575 747 756 702 839 693 842 797 734 674 485 664 695 784 633 794 788 469 757 493 560 748 708 722 617 639 486 606 791 720 756 596 612 700 711 684 544 768 603 517 575 679 760 664 720 742 668 637 492 574 642 849 707 768 746 638 600 641 665 707 708 701 762 670 656 549 649 631 569 618 626 736 549 546 687 725 450 824 617 727 689 668 624 405 589 566 469 726 728 637 659 689 754 604 710 698 623 556 605 569 490 555 601 399 585 749 699 476 698 632 585 735 633 625 413 483 560 650 765 565 942 581 637 706 736 738 645 477 674 594 625 637 637 579 465 555 721 700 706 747 553 700 731 582 694 744 704 672 593 701 608 652 603 658 667 508 601 651 677 525 838 748 567 665 707 716 674 599 705 546 772 750 790 739 739 660 868 654 679 710 717 614 844 719 631 792 575 560 698 670 602 625 645 690 673 742 771 781 678 616 620 604 747 539 832 683 695 756 609 657 794 681 776 547 737 832 718 606 736 703 632 758 416 776 677 617 538 753 683 783 574 692 577 711 462 694 707 781 760 684 551 561 765 569 640 698 685 758 893 729 630 515 475 686 757 697 547 601 545 660 621 721 735 779 735 710 618 396 759 753 626 759 852 738 770 769 644 601 744 605 654 542 743 628 554 676 619 739 536 610 609 654 813 702 621 800 568 553 538 661 694 751 621 618 682 681 550 724 536 694 713 721 676 841 606 852 704 684 767 549 647 696 855 832 559 624 598 773 427 535 693 647 570 606 737 763 850 599 758 697 599 770 420 724 781 609 528 630 662 547 700 774 682 616 547 746 720 706 769 578 707 496 746 794 615 743 494 743 339 643 726 643 758 696 758 608 557 647 594 612 296 564 686 558 688 752 604 701 618 679 662 627 735 726 691 800 612 541 785 787 813 608 602 688 837 636 625 680 686 675 705 759 760 681 759 620 784 785 549 707 675 701 466 808 689 728 775 692 527 765 679 642 592 645 546 763 684 671 554 737 667 734 740 667 839 677 757 617 690 694 752 602 588 648 740 706 529 699 710 624 683 395 745 737 626 663 471 693 653 682 686 627 663 712 734 693 760 492 627 651 668 545 714 780 567 734 623 766 616 548 702 741 563 624 661 778 547 596 711 567 626 469 578 479 553 776 667 625 607 589 600 633 600 547 615 850 652 618 623 549 674 845 765 690 612 735 777 588 779 470 643 724 680 532 740 724 557 556 539 817 755 678 738 775 642 612 828 658 634 512 681 841 612 675 675 674 673 772 743 621 684 727 552 592 536 553 584 592 548 692 610 726 676 603 662 717 706 535 679 555 819 675 718 581 621 668 761 545 566 679 642 738 810 473 803 491 608 702 596 474 489 593 806 652 628 735 770 792 718 611 544 624 687 593 557 647 681 804 754 569 613 597 799 572 414 626 771 694 829 536 592 689 741 648 681 764 608 798 780 636 653 696 647 675 629 735 645 572 698 581 690 683 610 737 556 751 432 729 513 586 682 632 636 635 694 781 740 633 556 811 752 698 656 746 671 798 777 758 716 563 603 675 527 758 743 555 699 762 709 721 752 700 698 779 589 473 591 701 668 645 744 732 773 481 737 761 698 699 555 647 706 646 615 755 725 744 828 599 687 656 661 727 491 726 557 522 688 603 362 605 584 813 681 825 657 665 672 760 677 755 684 719 591 659 550 366 784 796 502 510 585 825 601 688 630 612 713 687 707 663 539 618 692 735 747 633 671 612 535 663 714 636 509 689 844 538 613 684 769 564 795 682 725 743 695 527 702 621 625 789 560 542 693 722 589 666 562 572 682 720 553 689 414 700 571 553 583 705 803 702 686 674 734 741 661 670 602 535 572 470 487 657 475 645 774 694 585 724 709 722 677 769 781 608 804 766 760 697 474 490 675 355 619 716 638 762 550 765 539 826 658 612 760 666 715 611 667 529 684 616 685 692 764 669 671 415 514 827 586 611 712 718 455 609 555 643 750 665 753 607 553 767 588 805 640 758 594 764 561 610 483 761 624 479 585 516 724 703 746 713 693 686 779 688 758 660 609 530 837 530 609 649 658 783 681 653 469 687 682 599 734 682 534 761 685 724 702 703 677 597 789 746 638 708 728 603 462 656 655 627 665 779 732 475 729 685 800 637 662 557 471 784 654 537 677 672 740 666 812 732 741 687 628 417 551 665 640 627 627 672 565 590 556 625 561 585 829 781 667 530 611 818 695 737 612 626 610 675 632 646 566 604 530 658 679 844 782 590 552 589 602 645 737 825 711 629 637 783 676 613 784 733 683 702 689 637 526 675 650 612 582 531 651 692 535 648 557 750 560 582 695 618 803 759 679 538 725 553 535 731 616 668 484 671 581 730 505 608 677 685 792 603 651 606 650 475 648 694 534 491 672 666 679 666 645 819 558 669 723 706 714 711 717 607 614 784 632 590 683 662 622 567 798 678 550 546 832 675 679 587 603 632 551 534 612 693 702 644 786 750 552 727 398 534 674 661 529 550 676 623 824 565 756 617 681 549 550 536 495 749 614 604 666 559 653 572 674 546 564 617 662 582 572 559 595 610 716 602 727 599 651 549 685 495 669 492 400 753 704 706 617 701 599 672 676 650 739 416 820 592 625 607 656 517 599 712 615 682 714 683 542 669 624 400 546 489 603 584 756 697 584 788 611 593 479 723 811 422 775 574 543 536 665 718 614 473 660 680 672 683 486 601 404 664 568 742 724 714 621 800 501 816 632 848 703 627 765 626 601 561 718 577 659 548 473 548 710 615 590 673 648 279 631 496 683 685 444 673 665 676 640 556 739 584 587 669 689 590 623 497 650 646 641 758 685 489 738 766 612 644 592 579 650 700 467 701 634 738 815 468 474 708 634 752 665 583 628 624 602 723 626 733 775 684 612 692 581 710 692 695 516 598 774 717 770 556 699 523 702 671 528 523 761 745 639 752 829 803 582 469 690 536 769 470 609 685 681 593 661 543 664 735 705 680 648 619 492 621 671 591 653 648 680 537 733 741 752 725 524 766 614 479 710 684 693 652 752 655 617 552 708 553 672 609 576 515 740 702 822 680 561 557 671 648 517 671 658 621 682 750 639 690 601 592 685 676 745 674 742 492 630 663 542 671 617 633 641 581 587 670 540 594 681 701 663 617 658 516 610 628 461 611 719 743 711 412 606 652 721 556 599 727 641 604 452 528 675 741 757 649 537 781 640 668 651 708 398 623 524 636 616 766 541 742 471 687 662 725 640 576 662 600 685 755 754 599 738 621 741 606 666 553 697 684 590 468 705 471 553 686 642 604 691 611 473 531 593 692 649 555 560 553 675 638 582 683 443 695 834 689 691 593 690 642 586 635 658 512 618 408 325 766 852 684 639 695 519 691 668 475 624 639 689 756 664 642 594 687 685 539 643 469 699 769 746 668 587 615 753 729 712 763 532 776 617 665 578 575 669 619 678 555 563 679 624 522 502 613 668 593 655 547 487 605 788 681 671 679 715 460 471 750 535 685 666 809 803 603 609 624 555 679 512 645 579 595 612 555 677 609 613 688 602 565 676 567 774 653 537 631 743 598 520 685 666 532 673 614 735 574 560 680 669 635 608 597 421 653 336 633 572 482 683 813 626 712 739 739 597 676 547 819 821 544 479 398 668 535 559 566 763 718 550 404 705 670 657 598 518 556 676 466 545 588 546 723 809 399 608 533 544 496 579 470 565 637 685 615 529 564 669 627 637 532 611 644 526 672 601 655 673 639 612 417 796 661 654 632 477 507 642 557 628 522 853 655 546 754 612 764 758 676 632 604 550 667 690 694 673 482 611 637 781 692 532 580 681 689 666 526 630 557 617 652 719 664 583 609 608 627 569 415 600 671 573 741 693 701 461 694 420 601 616 640 555 530 619 615 747 581 617 564 399 622 615 576 598 469 522 701 507 648 665 807 748 499 453 598 694 781 521 653 712 742 553 548 695 546 596 668 458 782 692 536 580 585 600 693 667 522 660 659 749 607 551 640 593 608 458 678 629 769 538 463 602 637 546 814 611 563 680 752 807 718 538 536 628 688 788 831 581 507 783 706 748 739 692 699 593 468 669 818 531 566 387 427 728 466 516 596 476 714 433 546 602 632 515 619 669 477 483 671 624 555 652 613 670 457 643 531 716 577 478 697 654 672 742 591 626 624 588 744 577 688 743 566 668 625 629 543 623 629 543 591 679 483 554 651 608 597 544 565 707 669 807 673 618 606 579 596 652 557 615 629 405 727 735 613 685 767 599 672 582 754 547 679 483 460 558 595 609 672 457 547 711 608 862 588 607 654 620 565 528 668 610 601 700 527 541 555 614 641 646 541 552 526 685 692 636 490 608 518 535 676 626 765 517 630 551 667 570 423 603 748 741 617 562 533 715 768 617 537 704 567 664 548 718 676 622 456 579 597 653 475 602 745 652 550 525 786 642 490 598 515 550 794 629 629 476 537 743 736 634 686 667 621 456 698 748 646 710 771 695 532 679 546 593 720 537 688 582 562 616 706 484 631 457 455 711 752 587 670 626 704 618 665 539 660 657 517 655 467 727 608 476 655 668 340 603 617 476 724 643 685 526 615 679 753 643 743 523 540 706 608 692 666 517 624 702 621 506 612 557 530 687 537 586 743 532 653 695 472 615 539 416 521 602 820 697 796 536 663 720 669 630 621 690 535 703 466 480 553 753 781 641 625 548 560 630 759 483 447 614 749 682 658 696 608 625 607 655 651 485 640 673 591 565 807 756 509 492 508 326 523 772 542 705 630 456 598 702 582 525 420 509 460 484 597 594 647 545 603 594 622 719 482 615 678 664 783 581 841 637 459 458 596 707 461 732 627 538 624 624 522 786 614 593 655 612 484 737 722 675 502 659 736 607 569 587 835 382 555 589 691 452 477 626 682 546 456 582 568 607 706 782 533 728 706 577 665 619 608

Tree=0
num_leaves=5
num_cat=0
split_feature=0 0 0 0
split_gain=173.062 30.9945 4.66609 3.39002
threshold=-1.2610353870357349 0.083519718238481838 -0.50808452808217364 0.67512396455913748
decision_type=2 2 2 2
left_child=-1 2 -2 -3
right_child=1 3 -4 -5
leaf_value=0.063603670281037736 0.013928258190515368 -0.01238800623238057 -0.0010601789476767153 -0.023822997978297782
leaf_count=38 41 81 37 72
internal_value=0 -0.319461 0.182399 -0.581328
internal_count=269 231 78 153
shrinkage=0.0804663


Tree=1
num_leaves=7
num_cat=0
split_feature=0 1 8 1 0 3
split_gain=67.1816 11.6303 2.76448 1.69119 2.53567 0.651755
threshold=-1.2610353870357349 -0.28391032473308214 -0.37929594203054484 0.51681754229972798 0.40621294350429399 -0.90159008364854298
decision_type=2 2 2 2 2 2
left_child=-1 2 -2 4 -3 -5
right_child=1 3 -4 5 -6 -7
leaf_value=0.041733769328754361 -0.0015545120896096973 -0 0.009920737382280503 -0.017732947158264761 -0.010590288676962349 -0.0084125501586680782
leaf_count=30 32 35 37 42 60 33
internal_value=0 -0.196543 0.13816 -0.338254 -0.223813 -0.465203
internal_count=269 239 69 170 95 75
shrinkage=0.0305204


Tree=2
num_leaves=6
num_cat=0
split_feature=0 8 3 0 7
split_gain=18.4284 4.87583 0.832855 0.552568 0.626647
threshold=-0.077826894394424209 0.57086275721560176 0.46727932077900874 0.67512396455913748 3.5000000000000004
decision_type=2 2 2 2 2
left_child=1 2 -1 4 -2
right_child=3 -3 -4 -5 -6
leaf_value=-8.2582735139246938e-05 -0.0080168513507634168 0.019776359977582557 0.0065478073974510201 -0.0104339576372871 -0.001245601476306375
leaf_count=23 46 36 41 80 43
internal_value=0 0.300019 0.111294 -0.238265 -0.155738
internal_count=269 100 64 169 89
shrinkage=0.033158


Tree=3
num_leaves=8
num_cat=1
split_feature=0 0 2 8 0 7 7
split_gain=14.0316 2.9692 1.37273 1.06795 0.196139 0.143091 0.137254
threshold=-1.8795307354618747 0.67512396455913748 0 -0.37929594203054484 0.2448663308713879 4.5000000000000009 4.5000000000000009
decision_type=2 2 1 2 2 2 2
left_child=-1 2 3 4 -2 -5 -3
right_child=1 6 -4 5 -6 -7 -8
leaf_value=0.023880521961618037 0 -0.0085655079517580404 -0.0062804088481896768 0.006700409138808738 -0.0026341338219339973 0.0019986688328340954 -0.0030010920522828533
leaf_count=20 30 50 25 23 38 54 29
internal_value=0 -0.0691129 0 0.043275 -0.0368974 0.126462 -0.228127
internal_count=269 249 170 145 68 77 79
cat_boundaries=0 1
cat_threshold=4
shrinkage=0.0305431


Tree=4
num_leaves=5
num_cat=0
split_feature=0 8 1 8
split_gain=3.72415 0.901967 0.757707 0.568251
threshold=-0.83077775334798576 0.79890084503467695 0.82829913563603708 0.076780233607605455
decision_type=2 2 2 2
left_child=1 -1 3 -2
right_child=2 -3 -4 -5
leaf_value=0.0017010668815938105 -0.0024716730087157267 0.01111710331907924 -0.0063408017066881872 0.0014973425159516449
leaf_count=34 138 20 46 31
internal_value=0 0.196839 -0.092174 -0.0524415
internal_count=269 54 215 169
shrinkage=0.0298181


Tree=5
num_leaves=8
num_cat=0
split_feature=8 1 3 0 8 1 1
split_gain=5.21471 0.755596 0.518848 0.387654 0.133487 0.11052 0.0207838
threshold=0.9129198889442145 -1.0614340999559346 1.0000000180025095e-35 0.083519718238481838 -0.18926420218131557 -0.32906495396786156 -0.10827935396461059
decision_type=2 2 2 2 2 2 2
left_child=1 -1 -3 5 -5 -4 -6
right_child=-2 2 3 4 6 -7 -8
leaf_value=0.004172977490137968 0.014245796686598972 -0.0043936283812417657 0.0032573934242553261 -0.0034394405496982099 -0.0010375616380087797 0 0
leaf_count=22 27 73 23 43 22 25 34
internal_value=0 -0.037148 -0.0581106 -0.0155742 -0.0561194 0.0470807 -0.00302813
internal_count=269 242 220 147 99 48 56
shrinkage=0.0340896


Tree=6
num_leaves=9
num_cat=1
split_feature=0 2 8 8 0 1 1 1
split_gain=2.21591 1.31463 0.294662 0.271214 0.111808 0.0239727 0.0164036 0.000339248
threshold=-1.7988574291454218 0 -1.0444070315028473 -0.12275309323408533 0.029737514027513141 -0.1665562971884694 0.37888655287996315 0.51681754229972798
decision_type=2 1 2 2 2 2 2 2
left_child=-1 2 -2 4 -4 -6 -5 -7
right_child=1 -3 3 6 5 7 -8 -9
leaf_value=0.0081747408701155436 -0.0041691296700797631 -0.007456333914075141 0.0021482077480245226 -0.0019975213004196227 -0.00080349512672580259 0.00052731670912539979 -0 0
leaf_count=22 23 37 34 60 25 26 22 20
internal_value=0 -0.0611805 -0.0246888 -0.00555311 0.0216824 -0 -0.0523171 0.0123548
internal_count=269 247 210 187 105 71 82 46
cat_boundaries=0 1
cat_threshold=4
shrinkage=0.0316107


Tree=7
num_leaves=8
num_cat=0
split_feature=0 1 1 0 0 7 3
split_gain=21.6222 2.89838 0.833314 0.954668 0.712779 0.381218 0.133403
threshold=-1.2610353870357349 0.041573737798890932 1.6750217800553664 0.083519718238481838 -0.58875783439862661 4.5000000000000009 1.0000000180025095e-35
decision_type=2 2 2 2 2 2 2
left_child=-1 4 3 -3 -2 6 -6
right_child=1 2 -4 -5 5 -7 -8
leaf_value=0.019714357714810997 0.0042223881537732672 0 -0.011592803604236462 -0.0056560091192519894 -0.0040713548658643838 0.00088377623367959473 -5.878109571508403e-05
leaf_count=35 25 24 20 79 24 33 29
internal_value=0 -0.105639 -0.210986 -0.155683 0.00300942 -0.0311319 -0.089181
internal_count=269 234 123 103 111 86 53
shrinkage=0.0271366


Tree=8
num_leaves=7
num_cat=1
split_feature=0 3 8 0 4 8
split_gain=1.27769 1.56898 0.325959 0.299744 0.0547892 0.0476167
threshold=-0.77699554913701696 0.46727932077900874 0.656377040147755 0.29864853508235661 0 1.0000000180025095e-35
decision_type=2 2 2 2 1 2
left_child=1 -1 3 4 -2 -5
right_child=2 -3 -4 5 -6 -7
leaf_value=-0.001824631689104341 -0.00011364937104306931 0.0073701467722552642 -0.0058609605401942523 -0.0026061879826317618 0.0015925677045391523 -0
leaf_count=28 38 35 25 102 20 21
internal_value=0 0.090323 -0.0677353 -0.044817 0 -0.0732485
internal_count=269 63 206 181 58 123
cat_boundaries=0 1
cat_threshold=2
shrinkage=0.0313259


Tree=9
num_leaves=8
num_cat=0
split_feature=0 1 8 3 0 1 3
split_gain=3.01659 0.407355 0.857924 0.554322 0.293621 0.127395 0.0388477
threshold=-1.8795307354618747 1.1509293615890845 0.076780233607605455 0.46727932077900874 -0.50808452808217364 0.18009149735637878 -0.5343324385582241
decision_type=2 2 2 2 2 2 2
left_child=-1 2 4 -4 -2 6 -6
right_child=1 -3 3 -5 5 -7 -8
leaf_value=0.012213474033587818 0.0022176089283276008 -0.0035015173940737597 0 0.0074408770476803747 -0 0 -0.0022336378402605015
leaf_count=23 28 30 22 27 20 43 76
internal_value=0 0 0.0158851 0.132955 -0.0130994 -0.0368534 -0.0572154
internal_count=269 246 216 49 167 139 96
shrinkage=0.032832


Tree=10
num_leaves=9
num_cat=0
split_feature=1 8 8 1 0 8 1 0
split_gain=1.1286 0.936894 0.384316 0.217265 0.100731 0.0779856 0.0368059 0.026766
threshold=-0.32906495396786156 0.57086275721560176 -0.47431181195515953 0.82829913563603708 0.51377735192623142 -0.56932768187977412 1.5048451044307296 -0.34673791544926758
decision_type=2 2 2 2 2 2 2 2
left_child=1 5 -2 4 -4 -1 -5 -7
right_child=2 -3 3 6 -6 7 -8 -9
leaf_value=-0 -0.0033586653811425232 0.010113733383051259 0.0032578824303445358 -0 0 0 -0.0022530288233441539 0.0034248282287686221
leaf_count=28 47 28 35 22 35 25 21 28
internal_value=0 0.113469 -0.0137504 0.0103656 0.050811 0.0424991 -0.0324069 0.0647061
internal_count=269 109 160 113 70 81 43 53
shrinkage=0.0366775


Tree=11
num_leaves=9
num_cat=0
split_feature=8 0 1 1 1 0 3 3
split_gain=2.02215 0.442062 0.343365 0.144181 0.122186 0.166307 0.0907393 0.0709945
threshold=0.9129198889442145 -1.099688774402829 -0.76368826211632446 0.26162587512998814 -0.22692694294920371 0.029737514027513141 0.46727932077900874 -0.5343324385582241
decision_type=2 2 2 2 2 2 2 2
left_child=1 -1 -3 4 5 -4 -6 -5
right_child=-2 2 3 7 6 -7 -8 -9
leaf_value=-0.005655447858677852 0.0083536829618000557 0.0033499055805487287 0 -0 0.0026704255170859163 -0.0027580398661534826 -0 -0.0027562185260475518
leaf_count=20 30 23 21 30 22 35 38 50
internal_value=0 -0.0249956 -0.00683521 -0.0247199 -0 -0.0352609 0.0290042 -0.0571507
internal_count=269 239 219 196 116 56 60 80
shrinkage=0.0339794


Tree=12
num_leaves=10
num_cat=0
split_feature=1 0 3 8 0 0 8 8 1
split_gain=0.734799 0.261386 0.237783 0.617127 0.274225 0.0717997 0.0685658 0.0486017 0.117349
threshold=0.47833075553907417 0.40621294350429399 0.46727932077900874 0.076780233607605455 -0.23917350702733023 0.89025278140301223 -0.75935942172900339 -0.37929594203054484 -0.28391032473308214
decision_type=2 2 2 2 2 2 2 2 2
left_child=2 -2 4 7 -1 -3 -6 -4 -9
right_child=1 5 3 -5 6 -7 -8 8 -10
leaf_value=-0.0025530597407863683 -0.0057293536678066168 0 -0 0.0058998724504328182 0 -0.001800738189810648 0.0024788903424964393 -0 0.0028057855693110526
leaf_count=31 22 23 44 30 24 26 21 27 21
internal_value=0 -0.0839113 0.0338367 0.0615268 -0 -0.0176088 0.0379468 0.00851972 0.03361
internal_count=269 71 198 122 76 49 45 92 48
shrinkage=0.0316678


Tree=13
num_leaves=9
num_cat=0
split_feature=8 8 8 1 1 0 1 8
split_gain=0.957651 0.136403 0.139462 0.0433925 0.133036 0.148467 0.0815046 0.0252158
threshold=0.89391671495929159 -1.0444070315028473 0.57086275721560176 -0.26781415300054262 0.47833075553907417 0.67512396455913748 -0.95437522119137197 -0.12275309323408533
decision_type=2 2 2 2 2 2 2 2
left_child=1 -1 3 6 5 -5 -3 -8
right_child=-2 2 -4 4 -6 -7 7 -9
leaf_value=-0.0028243760112658112 0.0059155541845698958 0.00063405120345134199 -0.0027711734180788012 0.0028036444508695571 -0.00041556765452222547 -0 -0 -0.0020266815099943846
leaf_count=28 28 21 20 44 38 28 33 29
internal_value=0 -0.0167939 -0.00298753 0.000430293 0.0176051 0.0470407 -0.0103654 -0.0362483
internal_count=269 241 213 193 110 72 83 62
shrinkage=0.0337789


Tree=14
num_leaves=9
num_cat=0
split_feature=8 0 8 6 0 0 0 8
split_gain=0.542911 0.578224 0.133437 0.0514813 0.0421517 0.115136 0.0522949 0.00171469
threshold=0.9129198889442145 -0.93834216176992313 0.076780233607605455 0.17193500633913836 0.13730192244945053 0.9978171898249496 0.62134176034816868 -0.94939116157823267
decision_type=2 2 2 2 2 2 2 2
left_child=1 -1 3 7 -5 6 -6 -3
right_child=-2 2 -4 4 5 -7 -8 -9
leaf_value=-0.0046884515026535548 0.0037780858586481283 -0 0.0021057154071504273 0.0010634503986246824 -0 0.0011206597615315555 -0.0025266575604338298 -0.0012984625279518431
leaf_count=28 34 25 28 35 39 24 21 35
internal_value=0 -0.0146017 0 -0.00607839 0 -0.00486078 -0.0375886 -0.0308704
internal_count=269 235 207 179 119 84 60 60
shrinkage=0.0318465


Tree=15
num_leaves=9
num_cat=2
split_feature=1 6 0 1 1 4 1 4
split_gain=0.397551 0.426423 0.238355 0.0541755 0.215482 0.139986 0.0541561 0.0161691
threshold=1.4006934049848858 0.7117035203633213 -1.2072531828247663 -0.39536997953056779 -0.61419523384642571 0 0.53227360115475142 1
decision_type=2 2 2 2 2 1 2 1
left_child=1 2 -1 4 5 -4 7 -5
right_child=-2 -3 3 6 -6 -7 -8 -9
leaf_value=-0.0034905694359766387 -0.0049585237647891984 0.0033967765680359098 -0.0022276949900299609 -0.0014569292983382868 0.0028492329670656326 0.00021760444170210229 0 -0
leaf_count=29 20 21 28 61 21 21 34 34
internal_value=0 -0.0120288 -0.0283169 -0.0100653 0.00133879 -0.0196597 -0.0239085 -0.0365813
internal_count=269 249 228 199 70 49 129 95
cat_boundaries=0 1 2
cat_threshold=2 2
shrinkage=0.0301646


Tree=16
num_leaves=6
num_cat=0
split_feature=0 3 7 3 1
split_gain=1.66379 0.445123 0.267854 0.204165 0.0710359
threshold=-0.72321334492604838 0.46727932077900874 3.5000000000000004 1.0000000180025095e-35 0.17307692707359851
decision_type=2 2 2 2 2
left_child=1 -1 3 -2 -5
right_child=2 -3 -4 4 -6
leaf_value=0 -0.0021485598492051016 0.00646477745335394 -0.0030421753580123908 -0 0.0020819803290583207
leaf_count=21 43 36 114 33 22
internal_value=0 0.130764 -0.0584332 -0.00789757 0.0196408
internal_count=269 57 212 98 55
shrinkage=0.0328054


Tree=17
num_leaves=8
num_cat=0
split_feature=6 0 1 8 1 0 0
split_gain=1.08396 0.0714364 0.0513825 0.0433368 0.0415318 0.0356227 0.0164718
threshold=0.7117035203633213 0.67512396455913748 0.43903049199657723 -0.47431181195515953 -0.86763992628794451 0.45999514771526268 -0.18539130281636157
decision_type=2 2 2 2 2 2 2
left_child=1 2 4 -3 -1 6 -6
right_child=-2 3 -4 -5 5 -7 -8
leaf_value=0 0.0056017507342304585 -0 0.00082461479884180118 -0.0027239720490525319 -0 0 -0.0018626561791270297
leaf_count=36 37 24 25 37 39 24 47
internal_value=0 -0.0224943 -0.0049625 -0.0546392 -0.0167606 -0.0273164 -0.0368983
internal_count=269 232 171 61 146 110 86
shrinkage=0.0351329


Tree=18
num_leaves=9
num_cat=0
split_feature=1 0 0 7 1 0 1 0
split_gain=0.355775 0.445029 0.229837 0.466519 0.0246434 0.13058 0.106006 0.0926927
threshold=-0.47951815155403438 -1.4223819996686411 -0.13160909860539288 4.5000000000000009 0.25434459114824287 0.45999514771526268 -0.082728181603760817 0.83647057719204343
decision_type=2 2 2 2 2 2 2 2
left_child=1 -1 3 -2 5 -4 -7 -6
right_child=2 -3 4 -5 7 6 -8 -9
leaf_value=-0.00049105464226724144 -0.0061946231999901406 0.0036579568051621483 -0.00088290414935022945 0 0 0 0.0032874993789414027 -0.0017522344752361437
leaf_count=33 22 56 24 21 30 22 22 39
internal_value=0 0.0530184 -0.0238306 -0.0869466 -0 0.0094286 0.051439 -0.016261
internal_count=269 89 180 43 137 68 44 69
shrinkage=0.0332327


Tree=19
num_leaves=10
num_cat=1
split_feature=1 1 4 1 8 8 1 1 8
split_gain=0.411509 0.454771 0.161084 0.183053 0.120385 0.0591832 0.0240727 0.0734372 0.0021391
threshold=-0.52387263969191866 -0.71805354822340794 0 -0.10827935396461059 0.076780233607605455 0.47584688729098706 -0.13479069564173446 0.17000971953550068 1.0000000180025095e-35
decision_type=2 2 1 2 2 2 2 2 2
left_child=1 5 4 -4 6 -1 -2 -8 -5
right_child=2 -3 3 8 -6 -7 7 -9 -10
leaf_value=0 0.0009480650986351595 -0.0051135553856898113 -0.0024926781692140481 0.00028408441299250363 0.0027119156963890632 -0.0013721482638139981 -0.0010719218601389557 0.00069109221870931599 -0
leaf_count=40 23 23 23 20 28 23 29 40 20
internal_value=0 -0.0678117 0.0134424 -0.0175504 0.0379886 -0.00587521 0.00750298 -0 0.00199685
internal_count=269 86 183 63 120 63 92 69 40
cat_boundaries=0 1
cat_threshold=2
shrinkage=0.02713


Tree=20
num_leaves=8
num_cat=0
split_feature=1 8 8 8 0 3 1
split_gain=1.25231 1.05936 0.189824 0.0995703 0.0382669 0.00792766 0.00529171
threshold=-0.85695804264439512 0.656377040147755 0.17179610353222011 0.076780233607605455 0.083519718238481838 0.46727932077900874 0.41415943956808826
decision_type=2 2 2 2 2 2 2
left_child=2 3 -1 4 -2 -6 -7
right_child=1 -3 -4 -5 5 6 -8
leaf_value=0.00048519853766227825 9.4641305350119651e-05 -0.0053392114268193706 0.0057369139169947516 0.0015708897007276547 -0 -0.00085694331155987532 -0
leaf_count=22 39 30 27 25 44 60 22
internal_value=0 -0.02706 0.147723 0 -0.00810695 -0.0195786 -0.0261159
internal_count=269 220 49 190 165 126 82
shrinkage=0.026901


Tree=21
num_leaves=9
num_cat=0
split_feature=1 1 7 0 3 1 0 1
split_gain=0.851797 0.2498 0.241351 0.81631 0.407431 0.0736785 0.065039 0.0562754
threshold=-0.89248430734653694 1.8291422910023083 3.5000000000000004 1.0000000180025095e-35 -0.90159008364854298 -0.30711441654303967 0.40621294350429399 1.0000000180025095e-35
decision_type=2 2 2 2 2 2 2 2
left_child=-1 2 4 7 -2 -6 -5 -4
right_child=1 -3 3 6 5 -7 -8 -9
leaf_value=0.004806717782380605 0.0012284936015601535 -0.0035927278683605796 0.0063478647336242724 -0.0021584530247842366 -0.0047674372826173378 -0.00061664114659161213 0 0.00080591811816153837
leaf_count=41 33 20 25 20 23 36 51 20
internal_value=0 -0.0045804 0.00125305 0.0357761 -0.03144 -0.0867202 -0.0192713 0.142899
internal_count=269 228 208 116 92 59 71 45
shrinkage=0.0326498


Tree=22
num_leaves=9
num_cat=1
split_feature=0 2 0 1 1 1 1 1
split_gain=1.13193 0.228767 0.270256 0.201117 0.194712 0.124555 0.0680358 0.0333315
threshold=-1.0459065701918602 0 0.2448663308713879 0.26952060061935301 -1.0614340999559346 -0.25207804476160595 0.07093891605494064 -0.75544680881830517
decision_type=2 1 2 2 2 2 2 2
left_child=4 -2 3 7 -1 -4 -7 -3
right_child=1 2 5 -5 -6 6 -8 -9
leaf_value=-0.0014577908657508354 -0.0027416671572313349 0 -0.0022076012045390112 -0 -0.0090961455904565707 0.0019257655409995757 -0 0.0041570642577559965
leaf_count=24 23 21 30 20 20 25 62 44
internal_value=0 0.00748084 0.0222994 0.0656872 -0.163272 -0.00103661 0.00894695 0.0931104
internal_count=269 225 202 85 44 117 87 65
cat_boundaries=0 1
cat_threshold=2
shrinkage=0.0358367


Tree=23
num_leaves=10
num_cat=0
split_feature=1 8 1 6 8 0 1 1 1
split_gain=0.446131 0.397588 0.225964 0.218558 0.0917946 0.00403792 0.0172053 0.0247524 0.0105912
threshold=-0.19472126379917645 -0.12275309323408533 -1.1135899637885458 1.9809611647271177 -0.66434355180438875 -0.077826894394424209 0.16494215925516512 0.41415943956808826 0.69054151012059961
decision_type=2 2 2 2 2 2 2 2 2
left_child=1 4 -3 5 -1 -2 -7 -8 -9
right_child=3 2 -4 -5 -6 6 7 8 -10
leaf_value=-0.0019874614742882743 0 -0 -0.0060486047800813181 0.0039151689936922762 0.00093774522473914182 0 -0.0017413439935631552 0.00048762231688314391 -0.00067903034573119406
leaf_count=26 23 20 49 22 36 28 22 20 23
internal_value=0 -0.0664507 -0.118349 0.01002 -0 -0 -0.00655413 -0.0179406 -0
internal_count=269 131 69 138 62 116 93 65 43
shrinkage=0.0389395


Tree=24
num_leaves=8
num_cat=1
split_feature=6 0 0 4 8 8 8
split_gain=0.6186 0.501341 0.144671 0.0451141 0.106086 0.00612806 0.00269137
threshold=0.7117035203633213 -0.40052011966023626 -1.099688774402829 0 1.0000000180025095e-35 -0.2842800721059302 -0.2842800721059302
decision_type=2 2 2 1 2 2 2
left_child=1 2 -1 4 6 -5 -3
right_child=-2 3 -4 5 -6 -7 -8
leaf_value=-0.00063628742721020203 0.0051845497355277837 0.0001995421251376641 -0.0058518828164740265 0 0.0027696684893289999 -0.00079847041553045132 -0.00025067590172540057
leaf_count=39 29 67 30 35 29 20 20
internal_value=0 -0.0181839 -0.0906808 0.0056124 0.020194 -0.00709582 0
internal_count=269 240 69 171 116 55 87
cat_boundaries=0 1
cat_threshold=2
shrinkage=0.0386823


Tree=25
num_leaves=10
num_cat=1
split_feature=0 1 2 1 1 6 1 8 1
split_gain=0.274529 0.337601 0.30411 0.101453 0.122115 0.0471599 0.10506 0.0921352 0.0613073
threshold=-0.93834216176992313 -0.93989266733757093 0 -0.84662288680950026 -0.56922730420092182 1.0000000180025095e-35 0.12413496331351566 -0.18926420218131557 0.16494215925516512
decision_type=2 2 1 2 2 2 2 2 2
left_child=1 -1 -2 -4 -5 6 -6 -7 -9
right_child=2 -3 3 4 5 7 -8 8 -10
leaf_value=0.0051483631629405035 -0.0049169329775609312 -5.1866123135301104e-05 -0.0027516985073628673 0.0030225753546735705 -0.00067508518298607829 -0.0023094514107517444 0.0024445882751094458 0.0014882727221357504 -0.0011251813110868662
leaf_count=29 29 23 22 20 20 43 27 28 28
internal_value=0 0.0523691 -0.0254029 -0.00477612 0 -0.00617174 0.00703031 -0.022447 0
internal_count=269 52 217 188 166 146 47 99 56
cat_boundaries=0 1
cat_threshold=2
shrinkage=0.0405783


Tree=26
num_leaves=10
num_cat=1
split_feature=1 1 0 0 3 3 4 1 1
split_gain=0.501067 0.931321 0.22195 0.1101 0.103557 0.0468718 0.0995028 0.0597011 0.00220639
threshold=-0.4058251565299969 -0.82821964158091321 -0.077826894394424209 -1.5837286123015473 -1.9365889016303501 0.46727932077900874 0 0.35945645991036079 0.18009149735637878
decision_type=2 2 2 2 2 2 1 2 2
left_child=1 3 -3 -1 -2 8 7 -7 -6
right_child=4 2 -4 -5 5 6 -8 -9 -10
leaf_value=-0.0022672864941918874 -0.0023500590716285636 0.0076217180956145878 0.00072509669916172585 0.00030367076842525113 0 -0.0020954807806235405 0.00039141203252647804 -0 0.0010595949767334329
leaf_count=21 23 29 20 27 20 40 33 30 26
internal_value=0 0.0744355 0.171618 -0.00584096 -0.0119045 -0 -0.0137935 -0.0401155 0.0240057
internal_count=269 97 49 48 172 149 103 70 46
cat_boundaries=0 1
cat_threshold=2
shrinkage=0.0321702


Tree=27
num_leaves=8
num_cat=0
split_feature=0 3 0 7 8 0 0
split_gain=0.745781 0.463094 0.282288 0.0562783 0.0654782 0.05955 0.0417116
threshold=-0.88455995755895434 -0.26723596940162875 -0.34673791544926758 4.5000000000000009 -0.75935942172900339 0.29864853508235661 0.9440349856139808
decision_type=2 2 2 2 2 2 2
left_child=1 -1 -2 4 -4 -6 -7
right_child=2 -3 3 -5 5 6 -8
leaf_value=-0.0053462298311105494 0.003327587839693869 -0 -0 -0 0 0.0025413738793969632 0
leaf_count=21 34 34 28 80 23 28 21
internal_value=0 -0.0889563 0.0387696 0.0160998 0.0319645 0.0480685 0.0675607
internal_count=269 55 214 180 100 72 49
shrinkage=0.0263414


Tree=28
num_leaves=7
num_cat=1
split_feature=8 4 8 6 1 3
split_gain=0.255384 0.0977626 0.0605304 0.0480421 0.0409358 3.52171e-05
threshold=0.79890084503467695 0 -0.56932768187977412 0.17193500633913836 0.54330221260695533 -0.5343324385582241
decision_type=2 1 2 2 2 2
left_child=1 3 -3 5 -5 -1
right_child=-2 2 -4 4 -6 -7
leaf_value=-4.2202814228174413e-05 0.0024247447398916709 -0.00046491352943635252 0.0013144107435684473 -0.0019815585340836328 -0 0
leaf_count=25 41 27 42 84 25 25
internal_value=0 -0.0171878 0.0028523 -0.0320979 -0.0439924 -0
internal_count=269 228 69 159 109 50
cat_boundaries=0 1
cat_threshold=2
shrinkage=0.036262


Tree=29
num_leaves=9
num_cat=0
split_feature=1 7 1 1 1 0 1 1
split_gain=0.673527 0.298641 0.33626 0.0900588 0.155056 0.0326904 0.0169163 0.00372433
threshold=-1.2079132634275285 4.5000000000000009 0.69054151012059961 0.07093891605494064 -0.41829402195661197 0.13730192244945053 -0.03587992038055348 -0.25207804476160595
decision_type=2 2 2 2 2 2 2 2
left_child=-1 2 5 4 -3 -2 -7 -6
right_child=1 3 -4 -5 7 6 -8 -9
leaf_value=0.0046682344202836458 -0.00080900027527179184 -0.0021879205829943914 0.0028417176949778445 -0.0024165665879712869 0.00049623931634717132 0.00061896920123108846 -0.00013017893852268088 -0
leaf_count=20 41 23 31 51 20 30 31 22
internal_value=0 -0.0141656 0.0123622 -0.0529739 -0.00848742 -0.00679219 0 0.00878637
internal_count=269 249 133 116 65 102 61 42
shrinkage=0.0270952


Tree=30
num_leaves=8
num_cat=1
split_feature=4 8 8 8 3 8 1
split_gain=0.508796 0.250216 0.236432 0.061293 0.088012 0.0185432 2.07515e-05
threshold=0 0.57086275721560176 -0.56932768187977412 0.28581514744175773 -0.5343324385582241 -0.12275309323408533 -0.066885387885238096
decision_type=1 2 2 2 2 2 2
left_child=3 2 -2 4 -1 -6 -5
right_child=1 -3 -4 6 5 -7 -8
leaf_value=-0 -0.0022978449952314839 -0.0044607580825715022 0.00025775079931697866 0 0.0020468681608305172 5.6653039708667216e-05 -2.7578524633230508e-05
leaf_count=26 38 22 49 21 54 39 20
internal_value=0 -0.0587618 -0.0200645 0.0286014 0.0401038 0.054676 -0
internal_count=269 109 87 160 119 93 41
cat_boundaries=0 1
cat_threshold=2
shrinkage=0.0277431


Tree=31
num_leaves=7
num_cat=0
split_feature=8 8 0 3 8 0
split_gain=0.698507 0.235789 0.280016 0.0348967 0.0262507 2.67694e-06
threshold=0.89391671495929159 -0.56932768187977412 0.19108412666041921 -0.5343324385582241 -0.37929594203054484 -0.40052011966023626
decision_type=2 2 2 2 2 2
left_child=1 3 5 -1 -4 -3
right_child=-2 2 4 -5 -6 -7
leaf_value=-0.0012108436351532324 -0.0035452100226139979 -6.7611401732564683e-06 0 0 0.0028026762499027773 0
leaf_count=37 39 47 25 28 61 32
internal_value=0 0.0192012 0.0416441 -0.0223855 0.0807934 -0
internal_count=269 230 165 65 86 79
shrinkage=0.02863


Tree=32
num_leaves=7
num_cat=1
split_feature=0 7 1 1 4 3
split_gain=0.62854 0.088497 0.17452 0.0875986 0.0594447 0.0177075
threshold=-1.6912930207234844 3.5000000000000004 -0.61419523384642571 0.49841429707114088 0 1.0000000180025095e-35
decision_type=2 2 2 2 1 2
left_child=-1 3 -3 5 -4 -2
right_child=1 2 4 -5 -6 -7
leaf_value=-0.0066267333913774627 -0.00083235432681726129 -0.0013103338577915825 0.002138603296153519 -0.0028635254098149506 0 0.00014461644871802224
leaf_count=22 34 34 67 25 41 46
internal_value=0 -0 0.0136067 -0.0241891 0.0381716 -0
internal_count=269 247 142 105 108 80
cat_boundaries=0 1
cat_threshold=2
shrinkage=0.0377479


Tree=33
num_leaves=9
num_cat=0
split_feature=6 8 3 8 0 0 0 0
split_gain=1.94702 0.26673 0.0897935 0.15915 0.0793565 0.0712229 0.236677 0.12233
threshold=1.9809611647271177 0.17179610353222011 1.0000000180025095e-35 -0.75935942172900339 -1.4223819996686411 -0.66943114071507959 0.029737514027513141 0.51377735192623142
decision_type=2 2 2 2 2 2 2 2
left_child=1 2 3 -1 -3 -4 -7 -8
right_child=-2 4 5 -5 -6 6 7 -9
leaf_value=0 0.0068751827228994526 -0 -8.878156130355877e-05 -0.0022193179507406188 -0.0031853682413206545 0.0028368402098046491 -0.0010504024220510614 0.001091986191305485
leaf_count=40 28 22 22 28 26 30 35 38
internal_value=0 -0.0132653 0 -0.025107 -0.0794515 0.019169 0.0335789 0
internal_count=269 241 193 68 48 125 103 73
shrinkage=0.0265491


Tree=34
num_leaves=9
num_cat=0
split_feature=1 1 8 1 8 7 8 1
split_gain=0.782668 0.374575 0.315601 0.208304 0.156518 0.105283 0.0496805 0.0702039
threshold=-0.90421971010099822 1.4006934049848858 0.57086275721560176 -0.69598298963405181 -0.85437529165361803 4.5000000000000009 0.076780233607605455 -0.21215100402654111
decision_type=2 2 2 2 2 2 2 2
left_child=2 3 -1 -2 -5 -6 7 -7
right_child=1 -3 -4 4 5 6 -8 -9
leaf_value=0 -0.0015833755989476115 -0.0026106426136375768 0.0042463854445202358 -0.00066382990215831474 0.0012466192576699488 0.00016070716951570465 0.00090216645161326689 -0.00090390160510479313
leaf_count=22 22 21 24 28 73 24 22 33
internal_value=0 -0.00603734 0.132947 0.0026792 0.0186758 0.0349745 0 -0.00598553
internal_count=269 223 46 202 180 152 79 57
shrinkage=0.0198306


Tree=35
num_leaves=8
num_cat=1
split_feature=1 2 8 0 1 0 1
split_gain=3.09166 3.07309 1.17109 0.911819 0.0914958 0.282867 0.0105558
threshold=-0.87660150657316949 0 0.656377040147755 0.51377735192623142 -0.51079033275768404 -0.34673791544926758 -0.10827935396461059
decision_type=2 1 2 2 2 2 2
left_child=2 -2 -1 4 -3 -6 -7
right_child=1 3 -4 -5 5 6 -8
leaf_value=3.9625075394514577e-06 -0.010712794142981492 -0.00018920944033750105 0.0087140527975380355 -0.0029013253450188934 0.0034161619032951921 -0.00046843601003800816 0.00028299132939461701
leaf_count=29 26 22 24 94 23 20 31
internal_value=0 -0.0908938 0.173388 -0.0399285 0.0200899 0.0415424 -0
internal_count=269 216 53 190 96 74 51
cat_boundaries=0 1
cat_threshold=2
shrinkage=0.0260638


Tree=36
num_leaves=11
num_cat=0
split_feature=1 1 0 1 0 7 0 1 0 1
split_gain=0.804817 0.250566 0.453922 0.185299 0.102359 0.0784559 0.161016 0.0336465 0.025903 0.0102638
threshold=1.2086195346752204 -0.54681001780291116 -0.23917350702733023 -0.90421971010099822 0.29864853508235661 3.5000000000000004 0.78268837298107485 -1.160264861107426 -0.34673791544926758 0.088795398200649328
decision_type=2 2 2 2 2 2 2 2 2 2
left_child=1 3 -3 7 -4 6 -6 -1 -5 -7
right_child=-2 2 4 8 5 9 -8 -9 -10 -11
leaf_value=-0 -0.0046998734254836937 0.0060250062090291476 -0.00045210195803077543 -0.0033911689555363119 0.0047153491110075623 0.00074221597096321321 0 0.0018596408435510834 -0 -9.1887216608498875e-05
leaf_count=20 35 28 32 20 20 22 25 20 21 26
internal_value=0 0.0271655 0.0521531 -0.00789851 0.0166885 0.0374852 0.0676531 0.0242666 -0.0629193 0
internal_count=269 234 153 81 125 93 45 40 41 48
shrinkage=0.0354496


Tree=37
num_leaves=7
num_cat=1
split_feature=8 1 0 1 1 4
split_gain=1.78223 0.185699 0.143728 0.0419958 0.026261 0.00738805
threshold=1.2359738466879044 0.152526636568343 0.67512396455913748 -0.15575439238038571 1.0159588942278315 0
decision_type=2 2 2 2 2 1
left_child=1 2 3 -1 5 -3
right_child=-2 4 -4 -5 -6 -7
leaf_value=-0.0018183377005116107 0.0097174385021904335 -0 0.0003870891308917366 -0 0.0015359066279123995 0.00057467922274513899
leaf_count=100 20 41 27 20 38 23
internal_value=0 -0.00360686 -0.0295755 -0.0471742 0.0240336 0
internal_count=269 249 147 120 102 64
cat_boundaries=0 1
cat_threshold=2
shrinkage=0.0327542


Tree=38
num_leaves=10
num_cat=0
split_feature=1 1 8 1 0 1 8 1 1
split_gain=0.340886 0.283847 0.420462 0.214885 0.167021 0.157512 0.1537 0.0647301 0.0257063
threshold=-0.57502832715341123 0.18009149735637878 1.0000000180025095e-35 -0.02193079392468247 0.62134176034816868 -0.95437522119137197 -0.2842800721059302 0.95053402387170982 -1.2515609602631554
decision_type=2 2 2 2 2 2 2 2 2
left_child=5 2 3 -2 6 8 -3 -6 -1
right_child=1 4 -4 -5 7 -7 -8 -9 -10
leaf_value=0.00059059193076394466 0.00060382523155119369 -0 -0.0047317891408216826 -0.00278649853429526 -0 0.002405119115858939 0.0026651901449403917 -0.0021628830021261768 -0.00077289059266709415
leaf_count=20 37 21 34 20 26 38 27 24 22
internal_value=0 -0.0364949 -0.0763931 -0.00418351 0 0.0381366 0.0426242 -0.0391068 -0
internal_count=269 189 91 57 98 80 48 50 42
shrinkage=0.0286254


Tree=39
num_leaves=8
num_cat=0
split_feature=1 1 8 8 1 1 8
split_gain=1.39965 0.427935 0.178354 0.209397 0.126658 0.0455041 0.0217804
threshold=-1.2246228766676877 -0.25207804476160595 0.89391671495929159 0.076780233607605455 -0.39536997953056779 -0.57502832715341123 -0.2842800721059302
decision_type=2 2 2 2 2 2 2
left_child=-1 4 3 -3 5 6 -2
right_child=1 2 -4 -5 -6 -7 -8
leaf_value=0.0077376504401667308 0.0010667960664145406 -0.0021912800108105754 -0.0055383245048688011 0.00023553795912416916 0.0026376036505806372 -0.0015613348056443233 -0
leaf_count=20 21 107 24 28 21 20 28
internal_value=0 -0.0362619 -0.0683846 -0.0428532 0.00962706 -0 0.00252439
internal_count=269 249 159 135 90 69 49
shrinkage=0.0336594


Tree=40
num_leaves=5
num_cat=0
split_feature=0 0 0 0
split_gain=1.18722 0.0885426 0.0772615 0.0187624
threshold=-0.66943114071507959 -1.2610353870357349 0.9440349856139808 1.1053815982468869
decision_type=2 2 2 2
left_child=1 -1 -2 -4
right_child=2 -3 3 -5
leaf_value=3.303904056208429e-05 -0.0021796977904488283 0.0031472177207648674 0 -0.00071183543786329355
leaf_count=31 157 34 20 27
internal_value=0 0.0795071 -0.0705275 -0.00634719
internal_count=269 65 204 47
shrinkage=0.0261826


Tree=41
num_leaves=10
num_cat=0
split_feature=0 8 7 8 8 8 0 0 1
split_gain=0.961528 0.38462 0.190021 0.0594959 0.123531 0.0634309 0.149426 0.0541753 0.0453825
threshold=-1.099688774402829 0.57086275721560176 4.5000000000000009 -0.56932768187977412 -0.37929594203054484 1.0000000180025095e-35 0.3524307392933253 0.13730192244945053 -0.34890845317085967
decision_type=2 2 2 2 2 2 2 2 2
left_child=2 3 -1 8 -5 6 -6 -7 -2
right_child=1 -3 -4 4 5 7 -8 -9 -10
leaf_value=0.00096122145440239533 0 -0.0042564123819871305 0.0078805664848692891 0.0020628683923655049 0 -0 -0.0029116606000709261 0.0017089678914635209 -0.001602927718163617
leaf_count=25 20 28 20 39 24 20 27 27 39
internal_value=0 -0.0156308 0.141519 0 0.011699 -0 -0.0307549 0.0172276 -0.0260155
internal_count=269 224 45 196 137 98 51 47 59
shrinkage=0.0345715


Tree=42
num_leaves=9
num_cat=2
split_feature=0 8 8 3 4 8 0 4
split_gain=0.354543 0.375981 0.319408 0.0979871 0.203405 0.0879306 0.0556323 0.000406997
threshold=-0.58875783439862661 0.656377040147755 0.9129198889442145 0.46727932077900874 0 -0.37929594203054484 -1.0459065701918602 1
decision_type=2 2 2 2 1 2 2 1
left_child=2 3 6 4 -2 -5 -1 -7
right_child=1 -3 -4 5 -6 7 -8 -9
leaf_value=-0.00040817228944943317 -6.8544648493090968e-06 -0.0030936853402465892 0.0037987214689840076 -0.0014002918271445316 0.0020861274299162165 -6.4140960127121395e-05 0.0010963942157612115 0
leaf_count=23 43 25 20 39 28 51 20 20
internal_value=0 -0.0216956 0.0633823 -0 0.0225776 -0.0234972 0 -0
internal_count=269 206 63 181 71 110 43 71
cat_boundaries=0 1 2
cat_threshold=2 2
shrinkage=0.0229267


Tree=43
num_leaves=7
num_cat=0
split_feature=1 3 1 0 0 0
split_gain=0.219445 0.504508 0.161302 0.114663 0.0409196 0.0191725
threshold=-0.65469570903426544 0.46727932077900874 1.538744415569185 0.45999514771526268 0.78268837298107485 1.1591638024578557
decision_type=2 2 2 2 2 2
left_child=1 -1 3 -2 -5 -6
right_child=2 -3 -4 4 5 -7
leaf_value=-0.0051791996564039752 0.0014600799443210963 0 -0.0015994140437927912 -0.00077615270695435281 0.00091808977817129484 -0
leaf_count=20 95 46 20 32 34 22
internal_value=0 -0.0519741 0.0137301 0.0270251 0 0.017131
internal_count=269 66 203 183 88 56
shrinkage=0.0286662


Tree=44
num_leaves=8
num_cat=0
split_feature=1 1 1 8 8 8 8
split_gain=0.260747 0.16192 0.1552 0.231493 0.183836 0.133312 0.00851022
threshold=0.33839941337707174 1.0159588942278315 -1.2079132634275285 0.076780233607605455 0.75139291007236964 -0.18926420218131557 -0.85437529165361803
decision_type=2 2 2 2 2 2 2
left_child=2 -2 -1 5 -5 6 -4
right_child=1 -3 3 4 -6 -7 -8
leaf_value=-5.0883468069687827e-05 -0.0022770908597701399 0.000457221525917607 0 0.0063913766904726936 0 -0.00023466324146380904 0.0023383547664946433
leaf_count=20 44 39 31 28 20 41 46
internal_value=0 -0.0156282 0.0449369 0.0564823 0.120404 0.0212837 0.0487633
internal_count=269 83 186 166 48 118 77
shrinkage=0.036398


Tree=45
num_leaves=7
num_cat=0
split_feature=0 0 0 0 8 0
split_gain=46.7893 9.07499 4.89686 0.488786 0.264755 0.00367048
threshold=-0.58875783439862661 -1.3685997954576725 0.13730192244945053 0.62134176034816868 0.076780233607605455 -0.18539130281636157
decision_type=2 2 2 2 2 2
left_child=1 -1 4 -4 5 -2
right_child=2 -3 3 -5 -6 -7
leaf_value=0.025019795413263768 -0 0.0074893705103192048 -0.0046075971564208777 -0.0089021897897944811 0.0023622523013812902 -0.00095639843390677001
leaf_count=33 20 38 57 81 20 20
internal_value=0 0.717999 -0.22222 -0.325464 0.000290632 -0.0288534
internal_count=269 71 198 138 60 40
shrinkage=0.0225414


Tree=46
num_leaves=6
num_cat=0
split_feature=1 0 8 8 6
split_gain=0.64427 0.212821 0.0896506 0.106655 0.0219447
threshold=-0.4058251565299969 -0.29295571123829889 0.57086275721560176 1.0000000180025095e-35 -1.3404856814711956
decision_type=2 2 2 2 2
left_child=2 -2 3 -1 -3
right_child=1 4 -4 -5 -6
leaf_value=0 0 -0.00079384881777744471 -0.00062655160454745847 0.0027310043039861995 -0.0038751954151436236
leaf_count=57 20 35 36 28 93
internal_value=0 -0.0834555 0.00833639 0.0314832 -0.0984603
internal_count=269 148 121 85 128
shrinkage=0.0335727


Tree=47
num_leaves=9
num_cat=0
split_feature=8 1 1 8 1 8 1 1
split_gain=0.331837 0.132196 0.240453 0.249333 0.132864 0.0795809 0.0326837 0.00186547
threshold=0.79890084503467695 0.15906112219298621 -0.4135865251698792 -0.18926420218131557 -0.61419523384642571 1.0000000180025095e-35 0.77455632529458374 -1.0116919950989567
decision_type=2 2 2 2 2 2 2 2
left_child=1 2 4 -4 7 -3 -2 -1
right_child=6 5 3 -5 -6 -7 -8 -9
leaf_value=-0 0.0037575181366587625 -0 0 0.0034183022080771577 -0.0023337114874076403 -0.0022208212406246946 0 0.00022894966352354006
leaf_count=21 22 64 35 34 20 26 20 27
internal_value=0 -0 0.0175535 0.0621601 -0.0134611 -0.0313916 0.0940139 0
internal_count=269 227 137 69 68 90 42 48
shrinkage=0.0280495


Tree=48
num_leaves=9
num_cat=0
split_feature=8 1 1 0 1 1 6 1
split_gain=0.310776 0.352015 0.0879588 0.127394 0.0337098 0.01512 0.0121394 0.00197764
threshold=0.79890084503467695 1.1291788594384864 0.097130201293306476 -0.58875783439862661 0.24372938592943469 -0.17213061349683853 2.3016157275137612 0.60031226576073027
decision_type=2 2 2 2 2 2 2 2
left_child=1 2 3 -1 -4 -5 -2 -6
right_child=6 -3 4 5 7 -7 -8 -9
leaf_value=0 0.001894164564536419 -0.0034351074957203365 0.00089030171550895376 -0.0014043388898134753 -0.00019612190189097263 -0 0 0
leaf_count=35 20 21 21 63 24 34 22 29
internal_value=0 -0.0305757 -0.0122901 -0.0296688 0.00535875 -0.0499454 0.057631 -0
internal_count=269 227 206 132 74 97 42 53
shrinkage=0.0220507


Tree=49
num_leaves=8
num_cat=1
split_feature=1 4 1 1 0 8 1
split_gain=5.37572 0.454161 0.282522 0.205703 0.167112 0.109561 0.104944
threshold=-0.90421971010099822 0 -0.60666057185066369 0.37888655287996315 -1.6912930207234844 1.0000000180025095e-35 -0.25207804476160595
decision_type=2 1 2 2 2 2 2
left_child=4 2 -2 6 -1 -3 -4
right_child=1 5 3 -5 -6 -7 -8
leaf_value=0.0090961386517382937 0.00072069976957616602 -0.0016483331500992873 -5.8740450758957812e-05 -0 0.0029626375192048486 -0.0049988480048311947 -0.0028239115751560431
leaf_count=20 20 40 28 47 21 36 57
internal_value=0 -0.090303 -0.0482064 -0.0680678 0.296846 -0.15979 -0.0977611
internal_count=269 228 152 132 41 76 85
cat_boundaries=0 1
cat_threshold=2
shrinkage=0.0223411


Tree=50
num_leaves=7
num_cat=0
split_feature=0 1 7 0 0 1
split_gain=0.206436 0.271976 0.148404 0.206865 0.0451517 0.0168556
threshold=-0.99212436598089171 -0.44251162582263665 3.5000000000000004 -0.077826894394424209 0.72890616877010606 -0.67761975146030962
decision_type=2 2 2 2 2 2
left_child=-1 5 -3 -4 -5 -2
right_child=1 2 3 4 -6 -7
leaf_value=0.0030717808622412728 -0.0035041633041192045 0.0019300814909939713 -0.0035138613203471365 0.001621914030232647 -0 -0
leaf_count=36 33 78 25 34 38 25
internal_value=0 -0.00142939 0.0137596 -0.00361155 0.0124429 -0.0636639
internal_count=269 233 175 97 72 58
shrinkage=0.0403844


Tree=51
num_leaves=9
num_cat=0
split_feature=1 8 1 8 3 8 1 8
split_gain=0.166485 0.269141 0.203628 0.175235 0.287237 0.156368 0.0730307 0.0125195
threshold=-0.86763992628794451 0.57086275721560176 0.40051703386602699 -1.0444070315028473 0.46727932077900874 0.28581514744175773 0.7893055928473498 1.0000000180025095e-35
decision_type=2 2 2 2 2 2 2 2
left_child=5 3 -3 -2 -5 -1 7 -6
right_child=1 2 -4 4 6 -7 -8 -9
leaf_value=-0 -0.002892484043060378 -0.0062860424210836128 -0 0.0030114599671539977 0.00018216823392246589 0.0029946820937980225 -0.0024817638520674493 -0.0005793687032688349
leaf_count=29 26 20 23 34 52 25 20 40
internal_value=0 -0.0307028 -0.102879 -0.00638809 0.00076791 0.024011 -0.0166424 -0
internal_count=269 215 43 172 146 54 112 92
shrinkage=0.0352102


Tree=52
num_leaves=8
num_cat=0
split_feature=1 7 8 0 1 8 0
split_gain=1.80526 0.502989 0.441219 0.21372 0.0374013 0.00351762 0.155611
threshold=-0.49424074773690402 4.5000000000000009 0.076780233607605455 0.029737514027513141 -0.84662288680950026 0.17179610353222011 0.89025278140301223
decision_type=2 2 2 2 2 2 2
left_child=2 3 4 -2 -1 6 -3
right_child=1 5 -4 -5 -6 -7 -8
leaf_value=0.001427333913422255 -0 -0.0015354134169082304 0.0055576636098004549 -0.0037301924292516163 -0 0.00031087549612292904 0.0013090869400125495
leaf_count=20 22 39 44 76 23 25 20
internal_value=0 -0.0556681 0.118617 -0.103967 0.0177505 0 -0.0029061
internal_count=269 182 87 98 43 84 59
shrinkage=0.0288885


Tree=53
num_leaves=10
num_cat=1
split_feature=8 1 8 4 0 8 1 1 1
split_gain=1.00739 0.33236 0.124459 0.134188 0.0667726 0.0328002 0.0360157 0.0511826 0.00156994
threshold=1.2359738466879044 1.0613268944217831 1.0000000180025095e-35 0 -0.18539130281636157 -0.12275309323408533 -0.53948872676632109 -0.17950524727322156 0.18989322579334358
decision_type=2 2 2 1 2 2 2 2 2
left_child=1 2 5 4 -4 6 -1 -8 -9
right_child=-2 -3 3 -5 -6 -7 7 8 -10
leaf_value=0.001019091696671228 0.0068160745586712404 -0.002881283804513809 0.003370351821376202 -0 0 -0.0011402439713982648 -0.0013708222593223915 0 0.00036099370609005713
leaf_count=34 22 30 31 27 23 21 23 23 35
internal_value=0 0 0.0165481 0.0473899 0.0760794 -0 0.00463818 -0 0.0075918
internal_count=269 247 217 81 54 136 115 81 58
cat_boundaries=0 1
cat_threshold=2
shrinkage=0.0307223


Tree=54
num_leaves=9
num_cat=0
split_feature=1 1 3 0 0 1 1 0
split_gain=0.19123 0.13102 0.083857 0.120926 0.00903087 0.0239628 0.0579867 0.0084967
threshold=-0.94744066501828128 1.0159588942278315 -0.5343324385582241 -0.58875783439862661 1.0515993940359183 -0.27865606486347111 0.33839941337707174 0.51377735192623142
decision_type=2 2 2 2 2 2 2 2
left_child=-1 2 7 -4 5 -5 -7 -2
right_child=1 -3 3 4 -6 6 -8 -9
leaf_value=0.0023085120253029719 -0.0034282492206301318 0.001422029702029507 0.0013341720030886598 -0.0020765063943394882 -0 0.00045536576830393903 -0.0018965413244715098 -0
leaf_count=46 21 36 39 33 20 29 20 25
internal_value=0 -0.00780615 -0.0220736 -0.00199128 -0.0262528 -0.0310498 -0 -0.0610015
internal_count=269 223 187 141 102 82 49 46
shrinkage=0.0375485


Tree=55
num_leaves=10
num_cat=0
split_feature=1 0 1 0 8 8 1 7 8
split_gain=0.310944 0.320681 0.162246 0.149775 0.234936 0.124411 0.0653129 0.0301388 0.0540835
threshold=1.5048451044307296 0.3524307392933253 0.38903500912558248 -1.5837286123015473 0.076780233607605455 -0.18926420218131557 0.7893055928473498 4.5000000000000009 -0.75935942172900339
decision_type=2 2 2 2 2 2 2 2 2
left_child=1 3 5 -1 7 -3 -4 8 -5
right_child=-2 2 6 4 -6 -7 -8 -9 -10
leaf_value=-0.00065958992426612113 -0.0033040323519263151 -0.0028251138984189397 0.00092233718435523612 -0 0.0027752772204140083 -0 -0.0008398963320342417 -0.00012689904702180331 0.0014129135593708851
leaf_count=25 21 39 20 21 31 26 27 36 23
internal_value=0 -0.00628415 -0.0486679 0.0214214 0.0415117 -0.0807066 -0 0 0.0254315
internal_count=269 248 112 136 111 65 47 80 44
shrinkage=0.0239989


Tree=56
num_leaves=9
num_cat=0
split_feature=0 1 1 0 0 0 1 0
split_gain=0.323633 0.250275 0.227236 0.307007 0.0176853 0.0283961 0.0113222 0.00115786
threshold=-1.7988574291454218 0.41415943956808826 -0.64230685771733975 -0.40052011966023626 0.40621294350429399 0.78268837298107485 1.2086195346752204 -0.83077775334798576
decision_type=2 2 2 2 2 2 2 2
left_child=-1 2 7 -4 -5 -6 -3 -2
right_child=1 6 3 4 5 -7 -8 -9
leaf_value=0.0032990749067984774 -0 0.0010124741346130726 -0.0061745732773122817 -0 -0.002386063534299666 -0 0 0.00019016082596613068
leaf_count=22 21 41 22 42 27 30 29 35
internal_value=0 -0.0218203 -0.0437937 -0.0682702 -0.0309361 -0.0442153 0.0194905 0
internal_count=269 247 177 121 99 57 70 56
shrinkage=0.0335309


Tree=57
num_leaves=6
num_cat=0
split_feature=0 0 0 8 8
split_gain=28.2946 4.18605 0.751421 0.182942 0.0533948
threshold=-1.2610353870357349 -0.50808452808217364 0.62134176034816868 -0.12275309323408533 -0.56932768187977412
decision_type=2 2 2 2 2
left_child=-1 -2 3 4 -3
right_child=1 2 -4 -5 -6
leaf_value=0.014870729430197446 0.0035691973625737142 -0.0016438115504635537 -0.0051686895008375292 -0.0033690341167324457 -0
leaf_count=40 32 30 87 47 33
internal_value=0 -0.131115 -0.188178 -0.114342 -0.0517642
internal_count=269 229 197 110 63
shrinkage=0.0192998


Tree=58
num_leaves=8
num_cat=0
split_feature=1 8 1 3 8 1 8
split_gain=2.5904 1.73741 0.465039 0.138415 0.126907 0.0694048 0.0321969
threshold=-0.47951815155403438 0.57086275721560176 0.57398762367288192 -0.26723596940162875 1.0000000180025095e-35 0.18009149735637878 -0.47431181195515953
decision_type=2 2 2 2 2 2 2
left_child=1 3 4 -1 5 6 -2
right_child=2 -3 -4 -5 -6 -7 -8
leaf_value=-0 0 0.0078536613220357328 -0.0031009642739888007 0.0015969636460370015 0.00036045412356000876 -0.0019969572901193059 -0.00074491270116659183
leaf_count=24 25 29 60 38 37 27 29
internal_value=0 0.143541 -0.0624773 0.0292664 -0.0156669 -0.0422775 -0.000139291
internal_count=269 91 178 62 118 81 54
shrinkage=0.022738


Tree=59
num_leaves=6
num_cat=1
split_feature=0 1 4 1 0
split_gain=0.338047 0.330447 0.064184 0.17903 0.0845611
threshold=-0.50808452808217364 -0.80284183312439072 0 0.37888655287996315 0.56755955613720011
decision_type=2 2 1 2 2
left_child=1 -1 3 -2 -4
right_child=2 -3 4 -5 -6
leaf_value=-0.00024315217744064985 -0.0024545043994794293 0.003234804609921922 0.00052131485849613946 -0 -0.0014696301180896511
leaf_count=39 85 35 36 44 30
internal_value=0 0.0338214 -0.0407648 -0.0547646 -0
internal_count=269 74 195 129 66
cat_boundaries=0 1
cat_threshold=2
shrinkage=0.0301778


Tree=60
num_leaves=6
num_cat=0
split_feature=0 0 3 0 8
split_gain=16.6666 2.94144 1.24814 0.425999 0.0536359
threshold=-1.2072531828247663 0.62134176034816868 -0.5343324385582241 0.029737514027513141 1.0000000180025095e-35
decision_type=2 2 2 2 2
left_child=-1 2 -2 4 -4
right_child=1 -3 3 -5 -6
leaf_value=0.01212135498170107 -0.0045937512092547785 -0.00604567842536048 0.0021891341040934276 -0.001339197621314846 0
leaf_count=41 31 99 38 34 26
internal_value=0 -0.140666 -0.0316594 0.0148769 0.0703633
internal_count=269 228 129 98 64
shrinkage=0.0223115


Tree=61
num_leaves=9
num_cat=0
split_feature=3 8 0 0 0 1 8 8
split_gain=1.64333 1.84658 0.638814 0.274904 0.173835 0.171858 0.134606 0.00251767
threshold=-0.5343324385582241 0.84640877999698427 0.13730192244945053 0.2448663308713879 -0.83077775334798576 0.077246695035463567 1.0000000180025095e-35 0.47584688729098706
decision_type=2 2 2 2 2 2 2 2
left_child=2 3 -1 4 7 -5 -6 -2
right_child=1 -3 -4 5 6 -7 -8 -9
leaf_value=-0.010726538024300583 0 0.011480714469043267 -0.0020610920125122161 -0.0040475626518615563 0 -0 0.0041936097957657468 -0.00042271024145035886
leaf_count=24 22 20 54 31 27 42 29 20
internal_value=0 0.0271554 -0.142079 -0.00143671 0.0267096 -0.0525861 0.0654652 -0.00202941
internal_count=269 191 78 171 98 73 56 42
shrinkage=0.0373157


Tree=62
num_leaves=9
num_cat=0
split_feature=1 1 8 7 1 7 1 1
split_gain=0.588055 0.183198 0.103724 0.224711 0.242413 0.0915691 0.00630837 0.0255781
threshold=-0.4058251565299969 -0.60060617088415758 0.79890084503467695 4.5000000000000009 0.0127419869407713 4.5000000000000009 -0.042947833403126752 0.70786456486837823
decision_type=2 2 2 2 2 2 2 2
left_child=1 5 3 6 -5 -1 -2 -8
right_child=2 -3 -4 4 -6 -7 7 -9
leaf_value=0.0019733241925867389 -0.00029794863037965345 0.0048488461408041266 0.00037225578494208371 0 -0.0033378989512196145 -0 0.00092838879368889536 -0
leaf_count=33 25 23 23 23 54 38 30 20
internal_value=0 0.071857 -0.0245359 -0.0366956 -0.0743119 0.0273528 0 0.00860107
internal_count=269 94 175 152 77 71 75 50
shrinkage=0.0301717


Tree=63
num_leaves=7
num_cat=1
split_feature=0 1 1 7 4 1
split_gain=4.47556 1.70352 0.566305 0.355386 0.120472 0.0088053
threshold=-1.2610353870357349 -0.39536997953056779 1.5048451044307296 4.5000000000000009 0 0.14832589580964381
decision_type=2 2 2 2 1 2
left_child=-1 3 4 -2 -3 -6
right_child=1 2 -4 -5 5 -7
leaf_value=0.010192634651048624 0 -0.0024871486540454474 -0.007580266106629676 0.0045947880397627519 -0.00054040220472820254 0
leaf_count=36 34 85 22 38 26 28
internal_value=0 -0.0322733 -0.0924014 0.087905 -0.0581631 -0
internal_count=269 233 161 72 139 54
cat_boundaries=0 1
cat_threshold=2
shrinkage=0.0299245


Tree=64
num_leaves=8
num_cat=0
split_feature=1 0 1 1 3 0 0
split_gain=0.849758 0.507179 0.152413 0.163691 0.0669008 0.0452159 0.0307841
threshold=-0.03587992038055348 0.083519718238481838 -0.65469570903426544 -0.19958878880528827 0.46727932077900874 1.1591638024578557 -0.077826894394424209
decision_type=2 2 2 2 2 2 2
left_child=2 -2 6 4 -4 -3 -1
right_child=1 5 3 -5 -6 -7 -8
leaf_value=0.0027299998543679998 0.00039438568961881049 -0.001386613042916947 -0.0012397638941366094 0.0019028251839006431 3.9177400460035542e-05 -0.004309529198295357 0
leaf_count=45 37 60 24 26 35 22 20
internal_value=0 -0.0590511 0.0534451 0.010643 -0.00404213 -0.105007 0.0932564
internal_count=269 119 150 85 59 82 65
shrinkage=0.0238093


Tree=65
num_leaves=7
num_cat=0
split_feature=6 1 6 1 1 1
split_gain=0.586043 0.214653 0.02895 0.138141 0.116408 0.013808
threshold=0.7117035203633213 0.32183649267134345 0.17193500633913836 -0.46907631023955348 -0.56922730420092182 -0.29169836474286098
decision_type=2 2 2 2 2 2
left_child=1 2 3 -1 -4 -6
right_child=-2 -3 4 -5 5 -7
leaf_value=0.0024194225037299606 0.0047415237655544923 -0.0024899342567325277 -0.0018781140730190541 -0.00022655381777649723 0.00095572640227306876 -0
leaf_count=35 30 62 47 35 23 37
internal_value=0 -0.0174304 0 0.0160851 -0.00989765 0.00618307
internal_count=269 239 177 70 107 60
shrinkage=0.0368542


Tree=66
num_leaves=9
num_cat=1
split_feature=0 0 8 4 8 0 0 7
split_gain=0.154834 0.161174 0.151001 0.102224 0.0477687 0.0193083 0.0549808 0.0039617
threshold=1.0000000180025095e-35 1.1053815982468869 0.57086275721560176 0 -0.2842800721059302 0.67512396455913748 0.29864853508235661 3.5000000000000004
decision_type=2 2 2 1 2 2 2 2
left_child=2 3 4 5 -1 6 -2 -5
right_child=1 -3 -4 7 -6 -7 -8 -9
leaf_value=0.0010267302591771956 -0.0014549124951926918 0.001476159630592613 0.0024885102783852408 0.00036992697760006131 -0.00022680054849757964 -0.0024999272873137178 0 -0
leaf_count=33 21 32 45 22 40 23 28 25
internal_value=0 -0.00124034 0.0417633 -0.0243066 0 -0.0486982 -0.0085269 0
internal_count=269 151 118 119 73 72 49 47
cat_boundaries=0 1
cat_threshold=2
shrinkage=0.0281864


Tree=67
num_leaves=8
num_cat=0
split_feature=7 0 1 1 6 1 6
split_gain=0.559712 0.383438 0.121373 0.156265 0.111968 0.0200623 0.0124563
threshold=4.5000000000000009 0.56755955613720011 0.041573737798890932 -0.77023608342591598 0.17193500633913836 -0.21215100402654111 0.13719742870391866
decision_type=2 2 2 2 2 2 2
left_child=2 6 3 -1 -4 -5 -2
right_child=1 -3 4 5 -6 -7 -8
leaf_value=-0.0024665844147788007 0 -0.00048798202968019025 -0 0.00082191310078392078 -0.0029834993128900911 -0 0.0030226718576225504
leaf_count=20 20 32 21 40 42 23 71
internal_value=0 0.0538173 -0.0369579 -0 -0.0709488 0.0133184 0.0893008
internal_count=269 123 146 83 63 63 91
shrinkage=0.0296929


Tree=68
num_leaves=9
num_cat=1
split_feature=0 1 1 0 8 4 8 8
split_gain=2.34321 0.674099 0.075903 0.0320878 0.018662 0.0920973 0.0850658 0.0332208
threshold=-1.4761642038796097 1.2086195346752204 0.49841429707114088 0.9440349856139808 -0.2842800721059302 0 0.076780233607605455 -0.85437529165361803
decision_type=2 2 2 2 2 1 2 2
left_child=-1 2 3 4 7 6 -6 -2
right_child=1 -3 -4 -5 5 -7 -8 -9
leaf_value=0.0062764911378468836 0 -0.0031036235585537512 -0 0 0 -0.00043718684680182809 0.0018620231886304194 0.0018506632806482065
leaf_count=35 23 25 40 29 29 20 24 44
internal_value=0 0.00530726 0.0281202 0.0377265 0.0440862 0.0111552 0.0415125 0.0645688
internal_count=269 234 209 169 140 73 53 67
cat_boundaries=0 1
cat_threshold=2
shrinkage=0.0220595


Tree=69
num_leaves=7
num_cat=1
split_feature=0 3 7 0 1 4
split_gain=1.2965 0.507547 0.207438 0.117045 0.0303281 0.0191597
threshold=-0.72321334492604838 1.0000000180025095e-35 3.5000000000000004 0.62134176034816868 0.41415943956808826 0
decision_type=2 2 2 2 2 1
left_child=-1 -2 3 -3 5 -4
right_child=1 2 4 -5 -6 -7
leaf_value=0.0031061484725625633 -0.0020577469634268197 0.0020513883632369582 -0 -0 0 -0.0014034789129470533
leaf_count=56 79 32 37 23 20 22
internal_value=0 -0.0290897 0.00144888 0.0543054 -0.0230688 -0.0348572
internal_count=269 213 134 55 79 59
cat_boundaries=0 1
cat_threshold=2
shrinkage=0.0221836


Tree=70
num_leaves=8
num_cat=1
split_feature=0 0 4 8 8 0 0
split_gain=1.75371 0.320775 0.244815 0.189165 0.152499 0.062066 0.0345308
threshold=-1.0459065701918602 0.72890616877010606 0 -0.12275309323408533 0.9129198889442145 -0.34673791544926758 0.51377735192623142
decision_type=2 2 1 2 2 2 2
left_child=4 2 5 -4 -1 -2 -7
right_child=1 -3 3 -5 -6 6 -8
leaf_value=0.0027340614929217554 0.003182646579566642 -0.0023660438927092056 0 -0.0034889499152061954 0.0098682665572499221 -0 0.0014252019284552925
leaf_count=28 27 67 41 22 20 43 21
internal_value=0 -0.0113356 0.00827443 -0.0306005 0.194823 0.0460975 0.00896739
internal_count=269 221 154 63 48 91 64
cat_boundaries=0 1
cat_threshold=2
shrinkage=0.0335256


Tree=71
num_leaves=8
num_cat=0
split_feature=8 1 0 1 1 0 8
split_gain=0.34762 0.127427 0.112835 0.093471 0.175503 0.0651638 0.0509343
threshold=1.2359738466879044 1.0613268944217831 1.0515993940359183 -0.29169836474286098 -0.5529577685640551 -0.88455995755895434 1.0000000180025095e-35
decision_type=2 2 2 2 2 2 2
left_child=1 2 3 4 5 -1 -5
right_child=-2 -3 -4 6 -6 -7 -8
leaf_value=-0 0.0052250494893067972 -0.0017863086434983337 -0.0005695792158450742 0.0026241816329936425 -0.0019593487572112721 0.0022658379591137244 0
leaf_count=27 23 25 37 64 29 40 24
internal_value=0 0.00818234 0.0192955 0.0317404 0 0.0364594 0.0560748
internal_count=269 246 221 184 96 67 88
shrinkage=0.0367856


Tree=72
num_leaves=8
num_cat=1
split_feature=0 6 1 1 1 7 4
split_gain=0.321204 0.1686 0.303323 0.311319 0.305948 0.140882 0.203568
threshold=0.45999514771526268 0.13719742870391866 -0.86763992628794451 -0.43984448883298632 0.26162587512998814 4.5000000000000009 0
decision_type=2 2 2 2 2 2 1
left_child=1 -1 -3 -4 -5 6 -2
right_child=5 2 3 4 -6 -7 -8
leaf_value=-0.0017491572984289915 -0.00092832053052419429 0.0038299571186634707 -0.0039409392920796435 0.0032591362513613477 -0.00069663033109606881 -0 -0.0064122774548974011
leaf_count=40 47 30 20 38 37 35 22
internal_value=0 0 0.0229842 -0 0.0246073 -0.0660774 -0.0925307
internal_count=269 165 125 95 75 104 69
cat_boundaries=0 1
cat_threshold=2
shrinkage=0.0350623


Tree=73
num_leaves=10
num_cat=0
split_feature=0 6 0 1 8 1 1 1 1
split_gain=1.00588 0.384963 0.329176 0.343667 0.124629 0.0901947 0.0621505 0.0875173 0.0217377
threshold=-1.8795307354618747 2.3016157275137612 0.029737514027513141 -0.46907631023955348 -0.18926420218131557 0.097130201293306476 -0.65469570903426544 0.15906112219298621 0.13609707271209723
decision_type=2 2 2 2 2 2 2 2 2
left_child=-1 2 6 -4 5 -5 -2 -8 -6
right_child=1 -3 3 4 8 -7 7 -9 -10
leaf_value=0.0048301806509305385 0.0022787525120378216 -0.002817432382459766 -0.0029359244693351258 -0.0014521307697050523 0.0017243482207262826 0 -0 0.0013827887170592332 0
leaf_count=23 35 24 23 29 20 41 28 25 21
internal_value=0 -0.00165228 0.0073878 -0.0183891 0 -0.0201604 0.0576405 0.0105781 0.0477523
internal_count=269 246 222 134 111 70 88 53 41
shrinkage=0.0230514


Tree=74
num_leaves=10
num_cat=0
split_feature=6 8 8 0 0 0 1 8 1
split_gain=0.097835 0.210771 0.054017 0.145491 0.0665112 0.0557342 0.0430217 0.0248435 4.77926e-05
threshold=2.3016157275137612 0.656377040147755 -0.56932768187977412 0.67512396455913748 -0.18539130281636157 0.40621294350429399 -0.76368826211632446 -0.37929594203054484 -0.34890845317085967
decision_type=2 2 2 2 2 2 2 2 2
left_child=1 2 3 8 6 -6 -4 -7 -1
right_child=-2 -3 4 -5 5 7 -8 -9 -10
leaf_value=-0 0.0016389582133796946 -0.0031722962722299571 0 -0.0032145647111245304 -0.0016153514237400668 -0 0.0021711906553840261 0.00092091207957974771 5.4515543394432399e-05
leaf_count=24 25 33 22 23 26 24 32 40 20
internal_value=0 -0.0144624 -0 -0.0255593 0.00813424 -0 0.0371986 0.00523802 0
internal_count=269 244 211 67 144 90 54 64 44
shrinkage=0.0361368


Tree=75
num_leaves=9
num_cat=1
split_feature=0 2 8 1 0 7 8 0
split_gain=0.371431 0.713171 0.0863217 0.0774958 0.0487946 0.0449934 0.0607899 0.0322042
threshold=-1.7988574291454218 0 -0.66434355180438875 -0.094156863604412305 0.78268837298107485 3.5000000000000004 1.0000000180025095e-35 1.0000000180025095e-35
decision_type=2 1 2 2 2 2 2 2
left_child=-1 -2 3 -3 -5 -4 -7 -8
right_child=1 2 5 4 -6 6 7 -9
leaf_value=0.0036589458066458086 -0.0047321533965617212 -0.0013623398170243232 0.0016712522755278241 0.0014721043959379418 -0 0.0013040793056470893 -0.0010133648411731655 0
leaf_count=25 26 35 55 21 20 31 28 28
internal_value=0 -0.00074865 0.0140211 -0.00285898 0.00982825 0.0300053 0.00198499 -0.00376735
internal_count=269 244 218 76 41 142 87 56
cat_boundaries=0 1
cat_threshold=2
shrinkage=0.0300345


Tree=76
num_leaves=9
num_cat=1
split_feature=1 0 1 0 4 3 0 0
split_gain=0.807571 0.476483 0.097632 0.0890063 0.0280862 0.00664945 0.00380091 0.0129623
threshold=1.7350723693773427 -0.34673791544926758 0.89119022585199092 -0.13160909860539288 0 0.46727932077900874 0.40621294350429399 0.78268837298107485
decision_type=2 2 2 2 1 2 2 2
left_child=1 5 3 -3 6 -1 -5 -8
right_child=-2 2 -4 4 -6 -7 7 -9
leaf_value=0.0021695125254910207 -0.0045695050165716553 -0.0025192348850371239 9.4889136801550711e-05 1.2342711085434421e-05 -0.00086880283558190619 0.00039941889273730256 -0.00061381370567248014 0
leaf_count=37 20 21 23 25 45 46 22 30
internal_value=0 0 -0.0271171 -0.0390882 -0.017818 0.0648883 -0 -0.00845995
internal_count=269 249 166 143 122 83 77 52
cat_boundaries=0 1
cat_threshold=2
shrinkage=0.0227416


Tree=77
num_leaves=8
num_cat=1
split_feature=0 1 1 4 8 0 0
split_gain=11.3794 1.1044 0.134879 0.203144 0.122593 0.0450562 0.183489
threshold=-1.4761642038796097 0.041573737798890932 0.49103966329475784 0 -0.66434355180438875 0.40621294350429399 -0.13160909860539288
decision_type=2 2 2 1 2 2 2
left_child=-1 4 3 -3 -2 6 -6
right_child=1 2 -4 -5 5 -7 -8
leaf_value=0.01010623165013483 -0.0011894789211216769 -0.0022410485402817753 -0.0036330981618578561 -0 -0 -0 0.0018720181996274479
leaf_count=32 27 39 61 23 37 28 22
internal_value=0 -0.0803009 -0.145887 -0.0780347 -0.000188584 0.00884436 0.0294221
internal_count=269 237 123 62 114 87 59
cat_boundaries=0 1
cat_threshold=2
shrinkage=0.0185031


Tree=78
num_leaves=8
num_cat=0
split_feature=8 8 8 8 0 1 1
split_gain=1.1154 0.662883 0.155585 0.0418597 0.124175 0.0465244 0.0406069
threshold=1.1409579767632898 0.57086275721560176 -0.66434355180438875 -0.12275309323408533 0.45999514771526268 0.19766793011817418 -0.67761975146030962
decision_type=2 2 2 2 2 2 2
left_child=1 2 -1 5 6 -4 -5
right_child=-2 -3 3 4 -6 -7 -8
leaf_value=-0.0015761527733012556 -0.0068902999504614733 0.0049613631972649733 0.0014121606112495941 -0 -0.0017787746300721083 -0 0.0013141067702512241
leaf_count=66 23 26 45 21 34 23 31
internal_value=0 0.00629767 -0.00753948 0.00427038 -0.00105889 0.0254207 0.0164143
internal_count=269 246 220 154 86 68 52
shrinkage=0.0317302


Tree=79
num_leaves=8
num_cat=0
split_feature=1 1 0 1 1 0 1
split_gain=0.344883 0.177157 0.10359 0.134817 0.0862928 0.107653 0.000292956
threshold=-0.39536997953056779 -0.77023608342591598 1.1591638024578557 -0.21215100402654111 1.1509293615890845 -0.077826894394424209 -1.0901324939645716
decision_type=2 2 2 2 2 2 2
left_child=1 6 3 -2 5 -5 -1
right_child=2 -3 -4 4 -6 -7 -8
leaf_value=0.00012517343468281447 -0.0020977392495924712 0.003759569396485099 -0.0021569893651237739 -0 -0.00039702674995167338 0.0020186920778889851 -0
leaf_count=22 27 47 30 26 25 67 25
internal_value=0 0.0627754 -0.00880955 0 0.0170647 0.0353726 0
internal_count=269 94 175 145 118 93 47
shrinkage=0.0350732


Tree=80
num_leaves=9
num_cat=1
split_feature=1 8 3 8 4 8 8 1
split_gain=1.75749 1.74484 0.731603 0.213143 0.230527 0.15758 0.00416176 0.019406
threshold=-0.64230685771733975 0.75139291007236964 1.0000000180025095e-35 -0.75935942172900339 0 -0.2842800721059302 -0.37929594203054484 0.17000971953550068
decision_type=2 2 2 2 1 2 2 2
left_child=1 5 3 -2 -5 -1 -4 -8
right_child=2 -3 6 4 -6 -7 7 -9
leaf_value=0.0018050298338738377 -0.00083774909005402982 0.0089424140923187352 -0.00024721607620302726 -0.0017693716758015155 -0.0068120047269213425 -0.0010514940230281137 0.00055623343993667536 -0
leaf_count=20 43 20 39 35 21 23 37 31
internal_value=0 0.127596 -0.0604794 -0.122015 -0.170173 0 -0 0.00123285
internal_count=269 63 206 99 56 43 107 68
cat_boundaries=0 1
cat_threshold=2
shrinkage=0.0245477


Tree=81
num_leaves=8
num_cat=1
split_feature=1 3 4 7 8 0 1
split_gain=0.758828 0.209634 0.424666 0.132899 0.137343 0.0749907 0.0704719
threshold=-1.160264861107426 -0.5343324385582241 0 4.5000000000000009 0.076780233607605455 0.56755955613720011 -0.082728181603760817
decision_type=2 2 1 2 2 2 2
left_child=-1 2 -2 5 -5 6 -3
right_child=1 3 -4 4 -6 -7 -8
leaf_value=0.0073255996589073405 0 -0.0026969258653356826 -0.0067888330913269792 -0 0.0033575241425404974 0 0
leaf_count=21 39 47 25 56 31 30 20
internal_value=0 -0.0164573 -0.0652892 0 0.0289807 -0.0245344 -0.0443881
internal_count=269 248 64 184 87 97 67
cat_boundaries=0 1
cat_threshold=2
shrinkage=0.0413232


Tree=82
num_leaves=10
num_cat=1
split_feature=8 3 0 8 4 1 1 1 8
split_gain=0.449542 0.187455 0.139798 0.130138 0.112057 0.165217 0.170008 0.0223312 0.00294842
threshold=0.9129198889442145 -0.5343324385582241 0.67512396455913748 -0.66434355180438875 0 -0.19472126379917645 -0.77023608342591598 0.2337009508483496 -0.37929594203054484
decision_type=2 2 2 2 1 2 2 2 2
left_child=1 3 4 -1 5 6 -3 -7 -4
right_child=-2 2 8 -5 -6 7 -8 -9 -10
leaf_value=-0 0.0026124216026205535 -0 -0.0027309800693560808 0.0018509100095748894 -0.0013037741382375529 -0 0.0022470015646058866 -0.0012758534218179558 -4.9234181418786206e-05
leaf_count=39 29 30 21 24 35 20 27 23 21
internal_value=0 -0.0134854 -0.0328175 0.0248677 -0.0082263 0 0.0435758 -0.0353823 -0.0865755
internal_count=269 240 177 63 135 100 57 43 42
cat_boundaries=0 1
cat_threshold=2
shrinkage=0.0224643


Tree=83
num_leaves=10
num_cat=0
split_feature=8 1 1 1 0 8 0 8 8
split_gain=0.360732 0.104051 0.230753 0.0955022 0.185897 0.196965 0.102436 0.171994 0.00486798
threshold=-0.18926420218131557 0.077246695035463567 -0.5529577685640551 -1.0116919950989567 0.2448663308713879 0.79890084503467695 0.9978171898249496 0.17179610353222011 0.076780233607605455
decision_type=2 2 2 2 2 2 2 2 2
left_child=1 2 -1 -2 5 8 7 -6 -5
right_child=3 -3 -4 4 6 -7 -8 -9 -10
leaf_value=-0 -0.00046258596429871152 -0 -0.0035066489823970155 0.00044730172065401605 0 0.00409887411183062 0.0012787254609992233 -0.0024070913645216495 -0
leaf_count=28 27 41 36 28 22 20 22 25 20
internal_value=0 -0.0556641 -0.0815703 0.0171062 0.031283 0.0682013 -0 -0.0314949 0.00855996
internal_count=269 105 64 164 137 68 69 47 48
shrinkage=0.0261913


Tree=84
num_leaves=5
num_cat=0
split_feature=0 0 0 1
split_gain=10.6341 1.74381 0.308755 0.00516527
threshold=-1.4761642038796097 -0.58875783439862661 0.029737514027513141 -0.29169836474286098
decision_type=2 2 2 2
left_child=-1 -2 3 -3
right_child=1 2 -4 -5
leaf_value=0.0057666725776629553 0.0012405503822908938 0 -0.0012434788243416205 -0.00013899367144769011
leaf_count=35 48 20 136 30
internal_value=0 -0.0437323 -0.090643 -0.00100235
internal_count=269 234 186 50
shrinkage=0.0107148


Tree=85
num_leaves=8
num_cat=1
split_feature=0 3 1 0 8 3 4
split_gain=1.19837 0.301217 0.11027 0.128963 0.0850608 0.0318123 0.0204694
threshold=-1.3685997954576725 -1.9365889016303501 0.65930933597179464 0.9978171898249496 -0.18926420218131557 0.46727932077900874 0
decision_type=2 2 2 2 2 2 1
left_child=-1 -2 3 5 -4 -3 -7
right_child=1 2 4 -5 -6 6 -8
leaf_value=0.0076724406125950936 0.002954709624464028 -0.0035333575146181823 -0.001090976872246896 0 0.0019858419559860788 -0 -0.0020843224544714843
leaf_count=29 26 50 22 32 25 61 24
internal_value=0 -0.0143508 -0.0302322 -0.0427323 0 -0.0566036 -0.0242674
internal_count=269 240 214 167 47 135 85
cat_boundaries=0 1
cat_threshold=2
shrinkage=0.0390799


Tree=86
num_leaves=9
num_cat=0
split_feature=8 8 1 1 8 1 1 8
split_gain=1.14825 0.151232 0.0168835 0.0566858 0.0155139 0.0318703 0.0531051 0.0383408
threshold=1.2359738466879044 -0.12275309323408533 -0.51079033275768404 0.064977864883072237 -0.37929594203054484 -0.34890845317085967 0.052215614387595595 -0.75935942172900339
decision_type=2 2 2 2 2 2 2 2
left_child=1 4 -3 -4 5 -1 -7 -8
right_child=-2 2 3 -5 -6 6 7 -9
leaf_value=-0.0013503553995172627 0.0086371993794225402 -0.0035603270069176269 0 -0.0017163126464259395 0.00068365190811279727 0.0017362652284728052 -0.0019714001949858295 0
leaf_count=36 20 43 25 54 22 22 20 27
internal_value=0 -0.0290672 -0.0542845 -0.0227659 -0 -0.00921529 0 -0.0152078
internal_count=269 249 122 79 127 105 69 47
shrinkage=0.040629


Tree=87
num_leaves=7
num_cat=0
split_feature=0 0 3 0 1 0
split_gain=2.92403 0.90793 0.18938 0.149314 0.0562971 0.00919045
threshold=-0.93834216176992313 0.67512396455913748 1.0000000180025095e-35 0.029737514027513141 -0.31536920552600728 -0.077826894394424209
decision_type=2 2 2 2 2 2
left_child=-1 2 3 -2 -4 -6
right_child=1 -3 4 -5 5 -7
leaf_value=0.0042837956598432512 -0.0016565946256368511 -0.0024223222436922467 0.0012173443504459292 0 -0 0.0002797684373919174
leaf_count=41 31 79 26 32 23 37
internal_value=0 -0.0486742 -0 -0.043668 0.0278211 0
internal_count=269 228 149 63 86 60
shrinkage=0.0179896


Tree=88
num_leaves=7
num_cat=1
split_feature=0 3 0 4 0 0
split_gain=1.20192 0.579015 0.165046 0.0963051 0.0665427 0.0394173
threshold=0.029737514027513141 0.46727932077900874 0.72890616877010606 0 0.56755955613720011 -1.0459065701918602
decision_type=2 2 2 1 2 2
left_child=1 5 4 -3 -2 -1
right_child=2 3 -4 -5 -6 -7
leaf_value=8.3359438421345925e-05 -0.0009091935832954885 0.0034246445750257233 -0.0023696020699211524 0.00014315259051210521 0 -0.00079574725605006491
leaf_count=20 51 49 76 22 21 30
internal_value=0 0.0636845 -0.0693272 0.122123 -0.0162006 -0.000457061
internal_count=269 121 148 71 72 50
cat_boundaries=0 1
cat_threshold=2
shrinkage=0.0223956


Tree=89
num_leaves=8
num_cat=0
split_feature=0 1 1 1 8 0 1
split_gain=2.88436 0.471119 0.365263 0.436915 0.299664 0.0745641 0.0386514
threshold=-1.7988574291454218 1.6281335117773144 0.95053402387170982 -0.73168261824052105 -0.47431181195515953 0.51377735192623142 -0.92811725752826491
decision_type=2 2 2 2 2 2 2
left_child=-1 2 3 6 5 -5 -2
right_child=1 -3 -4 4 -6 -7 -8
leaf_value=0.0068464999959429538 0 -0.0041418186996439827 0.0019924509101670752 0.00077945736680796129 -0.0020871794523943895 -0.00088626623120165171 0.0012712010672880122
leaf_count=25 21 20 21 26 105 24 27
internal_value=0 -0.0385106 -0.0199062 -0.0366307 -0.0648314 -0 0.0334904
internal_count=269 244 224 203 155 50 48
shrinkage=0.0219853


Tree=90
num_leaves=6
num_cat=0
split_feature=1 8 1 8 8
split_gain=4.70511 4.04015 0.5374 0.134394 3.46825e-06
threshold=-0.49424074773690402 0.17179610353222011 -0.16204883567596043 0.076780233607605455 -0.37929594203054484
decision_type=2 2 2 2 2
left_child=1 4 -2 -4 -1
right_child=2 -3 3 -5 -6
leaf_value=-7.2174850702698463e-06 -0 0.0092244807230630159 -0.0033519690997699451 -0.0010184373245791028 0
leaf_count=26 40 30 105 44 24
internal_value=0 0.174429 -0.111924 -0.139464 -0
internal_count=269 80 189 149 50
shrinkage=0.0201378


Tree=91
num_leaves=8
num_cat=0
split_feature=6 0 0 0 7 1 1
split_gain=0.232856 0.29796 0.292056 0.174676 0.302625 0.0316609 0.0464577
threshold=2.3016157275137612 0.3524307392933253 -0.23917350702733023 -0.72321334492604838 4.5000000000000009 -0.27365518300787678 0.37888655287996315
decision_type=2 2 2 2 2 2 2
left_child=1 2 3 4 -1 -3 -7
right_child=-2 5 -4 -5 -6 6 -8
leaf_value=0.0044040144695758525 -0.0036118927312255482 0 0.0039185146515753038 -0.0026074633656057136 -0.00020598912193917548 -0.002148415303105897 -0
leaf_count=29 21 28 59 22 34 40 36
internal_value=0 0.0139462 0.0456675 0 0.0339523 -0.0204683 -0.0313445
internal_count=269 248 144 85 63 104 76
shrinkage=0.0393674


Tree=92
num_leaves=7
num_cat=1
split_feature=4 0 6 1 1 0
split_gain=0.265661 0.37193 0.273676 0.129313 0.0930405 0.0029214
threshold=0 -0.34673791544926758 0.17193500633913836 0.2337009508483496 -0.85695804264439512 0.3524307392933253
decision_type=1 2 2 2 2 2
left_child=1 4 -3 5 -1 -2
right_child=3 2 -4 -5 -6 -7
leaf_value=-0 0.00020564925871046746 0 -0.0035783094063298344 0.0027508317723653054 0.0024023069730544529 -0.00034508822981354646
leaf_count=24 33 31 87 42 30 22
internal_value=0 -0.0317662 -0.0657481 0.0316659 0.024154 -0
internal_count=269 172 118 97 54 55
cat_boundaries=0 1
cat_threshold=2
shrinkage=0.0378121


Tree=93
num_leaves=9
num_cat=0
split_feature=0 8 8 1 1 1 8 8
split_gain=0.409935 0.317615 0.183284 0.136371 0.124517 0.0135799 0.0459288 0.0215215
threshold=-0.72321334492604838 0.57086275721560176 0.17179610353222011 0.80458828779804603 0.18989322579334358 -0.35981704345852938 -0.47431181195515953 -0.47431181195515953
decision_type=2 2 2 2 2 2 2 2
left_child=2 3 -1 4 5 7 -7 -2
right_child=1 -3 -4 -5 -6 6 -8 -9
leaf_value=-0 0 -0.0024648424075612465 0.0022936031527100525 -0.0012127370229884609 0.0011339553786415498 -0.00038038770368016718 0.00070475405503691278 -0.00069978748545226292
leaf_count=22 25 27 37 35 40 25 29 29
internal_value=0 -0.0219058 0.0717268 -0.00107792 0.00649336 -0.00310926 0 -0.0163115
internal_count=269 210 59 183 148 108 54 54
shrinkage=0.0201577


Tree=94
num_leaves=7
num_cat=2
split_feature=0 7 3 4 1 4
split_gain=0.686955 0.272581 0.15435 0.117852 0.0571825 0.00528856
threshold=-1.5299464080905785 4.5000000000000009 1.0000000180025095e-35 0 0.07093891605494064 1
decision_type=2 2 2 1 2 1
left_child=-1 3 -3 -2 -5 -4
right_child=1 2 5 4 -6 -7
leaf_value=0.002330529106634152 -0.0019518300867099551 0.0010981228972535677 -0.00070555194298077615 0 -0.0010137344745949441 -0
leaf_count=34 78 38 45 28 24 22
internal_value=0 -0.0355406 0 -0.0660026 -0.00526363 -0.0262867
internal_count=269 235 105 130 52 67
cat_boundaries=0 1 2
cat_threshold=2 2
shrinkage=0.0209294


Tree=95
num_leaves=10
num_cat=0
split_feature=0 8 0 0 0 8 1 1 1
split_gain=0.840654 0.149117 0.439575 0.129726 0.0958413 0.113466 0.21073 0.0378127 0.0156952
threshold=-0.34673791544926758 0.9129198889442145 -0.66943114071507959 0.78268837298107485 -0.077826894394424209 -0.37929594203054484 0.32183649267134345 -0.27865606486347111 -0.78993289009448331
decision_type=2 2 2 2 2 2 2 2 2
left_child=1 2 8 4 -2 7 -7 -6 -1
right_child=3 -3 -4 -5 5 6 -8 -9 -10
leaf_value=-0.00064691752555292008 -0.0016605155348445252 0.0039143552356873485 0.0037394862603453275 -0.0019482609528054787 0 -0 0.0027364492817010476 -0.0012958356585458187 0
leaf_count=22 22 22 20 67 20 24 21 27 24
internal_value=0 0.0761838 0.0307151 -0.0421991 -0.010457 0 0.0392595 -0.0297789 -0.00402151
internal_count=269 88 66 181 114 92 45 47 46
shrinkage=0.0241857


Tree=96
num_leaves=8
num_cat=0
split_feature=0 8 0 3 1 1 8
split_gain=0.665915 0.290339 0.442372 0.399116 0.136979 0.101301 0.086412
threshold=-1.9602040417783277 0.89391671495929159 0.029737514027513141 0.46727932077900874 -0.21215100402654111 0.097130201293306476 -0.18926420218131557
decision_type=2 2 2 2 2 2 2
left_child=-1 2 3 -2 -4 -5 -6
right_child=1 -3 4 5 6 -7 -8
leaf_value=0.0077559881289742351 -0 -0.0040109606270132339 0.0010349704503783794 0.0070437077799694438 -0.0023759851955522902 0.00034421252009712085 -0
leaf_count=20 35 21 40 31 59 20 43
internal_value=0 0.00329909 0.0176185 0.0755721 -0.0107702 0.131265 -0.0349789
internal_count=269 249 228 86 142 51 102
shrinkage=0.0399307


Tree=97
num_leaves=6
num_cat=0
split_feature=0 0 1 1 8
split_gain=2.64705 0.431956 0.133751 0.0822092 0.0305543
threshold=-1.2610353870357349 -0.077826894394424209 1.2439724354730348 -1.0614340999559346 1.0000000180025095e-35
decision_type=2 2 2 2 2
left_child=3 4 -3 -1 -2
right_child=1 2 -4 -5 -6
leaf_value=0.0076482591112151891 0.0010740547399882463 -0.0015923960054016592 0 0.0022353352246235396 0
leaf_count=20 38 131 22 20 38
internal_value=0 -0.0255335 -0.0583343 0.248808 0.0274127
internal_count=269 229 153 40 76
shrinkage=0.0225576


Tree=98
num_leaves=8
num_cat=0
split_feature=1 1 1 1 8 8 0
split_gain=0.585175 0.4244 0.195637 0.164005 0.121342 0.0963936 0.0724228
threshold=-0.1226418866538774 -0.80284183312439072 -1.0614340999559346 1.4006934049848858 -0.2842800721059302 -0.37929594203054484 0.83647057719204343
decision_type=2 2 2 2 2 2 2
left_child=1 2 -1 5 -3 -2 -7
right_child=3 4 -4 -5 -6 6 -8
leaf_value=-0.00052763243400031582 0.00018758803189362764 -0.00045109945874232635 0.0027476106538618997 -0 -0.0038451655869569399 0.003776993092458757 0
leaf_count=28 49 41 22 22 49 38 20
internal_value=0 -0.0457751 0.0117562 0.047209 -0.0885039 0.064817 0.0963895
internal_count=269 140 50 129 90 107 58
shrinkage=0.0299417


Tree=99
num_leaves=7
num_cat=0
split_feature=6 8 0 8 8 0
split_gain=0.267203 0.24702 0.368597 0.177582 0.0187317 0.0139121
threshold=2.3016157275137612 0.57086275721560176 0.029737514027513141 -0.18926420218131557 -0.56932768187977412 0.45999514771526268
decision_type=2 2 2 2 2 2
left_child=1 2 4 -4 -1 -5
right_child=-2 -3 3 5 -6 -7
leaf_value=0 0.0020084209161801334 -0.0044134667535316238 -0.0029619174946433993 -0.00088902143960765902 0.00144607539333954 0
leaf_count=24 27 31 77 21 51 38
internal_value=0 -0.0363619 -0.0181183 -0.0519629 0.0299716 -0
internal_count=269 242 211 136 75 59
shrinkage=0.0353531


Tree=100
num_leaves=5
num_cat=0
split_feature=0 8 0 1
split_gain=20.4733 4.93711 1.63324 0.169295
threshold=-0.34673791544926758 0.79890084503467695 0.67512396455913748 -0.51792492420499847
decision_type=2 2 2 2
left_child=1 -1 3 -2
right_child=2 -3 -4 -5
leaf_value=0.002877610540485325 -0 0.01167873405562727 -0.0046536973373535453 -0.0016519665809644909
leaf_count=48 23 33 86 79
internal_value=0 0.417145 -0.181184 -0.0801784
internal_count=269 81 188 102
shrinkage=0.0162043


Tree=101
num_leaves=9
num_cat=0
split_feature=0 6 1 0 1 1 1 1
split_gain=2.52547 0.21684 0.16 0.244554 0.0843787 0.0521805 0.00354102 0.0525811
threshold=-1.4761642038796097 1.0000000180025095e-35 -0.53948872676632109 0.40621294350429399 -0.61419523384642571 0.2943249746231007 0.76722169857304545 0.030945196895134527
decision_type=2 2 2 2 2 2 2 2
left_child=-1 4 -3 -4 -2 -6 7 -5
right_child=1 2 3 6 5 -7 -8 -9
leaf_value=0.006872933935987458 -0 0.0003962404396783146 -0.0020730568673960571 0 0.0017491860401258482 0 3.6806876505088886e-05 -0.00098331420501691609
leaf_count=27 26 30 56 21 37 24 21 27
internal_value=0 -0.000683565 -0.0268855 -0.0456594 0.0344094 0.0551495 -0 -0.00842652
internal_count=269 242 155 125 87 61 69 48
shrinkage=0.0219757


Tree=102
num_leaves=7
num_cat=0
split_feature=0 1 3 0 0 3
split_gain=6.15785 1.79786 0.325881 0.346826 0.279817 0.246068
threshold=-1.3685997954576725 -0.25207804476160595 -1.9365889016303501 1.0000000180025095e-35 -0.13160909860539288 0.46727932077900874
decision_type=2 2 2 2 2 2
left_child=-1 4 -3 -4 -2 -5
right_child=1 2 3 5 -6 -7
leaf_value=0.0060610761885978399 0.0018442626285672141 -0.0037522250928367614 0 -6.7468488166326019e-05 0 -0.0022257117792288715
leaf_count=33 39 24 32 33 36 72
internal_value=0 -0.0547359 -0.116384 -0.0844864 0.0642346 -0.112093
internal_count=269 236 161 137 75 105
shrinkage=0.0151419


Tree=103
num_leaves=10
num_cat=0
split_feature=0 8 1 3 8 1 1 1 0
split_gain=0.999029 0.694907 0.295535 0.111678 0.0648685 0.0557724 0.014401 0.0217526 0.00260504
threshold=-1.2610353870357349 0.9129198889442145 1.4583702423860734 0.46727932077900874 -0.56932768187977412 0.12413496331351566 -0.075446897622015521 -0.51792492420499847 0.83647057719204343
decision_type=2 2 2 2 2 2 2 2 2
left_child=1 -1 3 4 5 -2 7 -5 -8
right_child=2 -3 -4 6 -6 -7 8 -9 -10
leaf_value=0 -0.00062502252288945486 0.010954513296141574 -0.0048673850805647763 -0 0.0029683806639489094 0.0015668500323460215 0 -0.0017267144303232532 -0.00037860543218086115
leaf_count=20 32 22 20 21 25 30 35 36 28
internal_value=0 0.155125 -0.00844208 0 0.0299049 0 -0.0165093 -0.0285816 -0
internal_count=269 42 227 207 87 62 120 57 63
shrinkage=0.0399465


Tree=104
num_leaves=7
num_cat=1
split_feature=0 0 0 0 0 4
split_gain=27.9274 5.48286 0.534865 0.494254 0.178358 0.00535214
threshold=-1.2610353870357349 0.083519718238481838 0.67512396455913748 -0.34673791544926758 0.56755955613720011 0
decision_type=2 2 2 2 2 1
left_child=-1 3 4 -2 5 -3
right_child=1 2 -4 -5 -6 -7
leaf_value=0.0142251071658586 0.0035822966401066192 -0.0030151237441199065 -0.0045830100405547681 5.4174287796567881e-05 -0 -0.00061335259118902043
leaf_count=45 52 29 66 31 21 25
internal_value=0 -0.0567003 -0.179418 0.139521 -0.0960165 -0.12642
internal_count=269 224 141 83 75 54
cat_boundaries=0 1
cat_threshold=2
shrinkage=0.0178732


Tree=105
num_leaves=6
num_cat=0
split_feature=0 1 0 8 8
split_gain=5.61507 1.10192 0.548531 0.0246414 0.025686
threshold=-1.2610353870357349 -0.30343376749732226 0.029737514027513141 -0.18926420218131557 0.656377040147755
decision_type=2 2 2 2 2
left_child=-1 2 -2 -3 -5
right_child=1 3 -4 4 -6
leaf_value=0.0068184845679124494 0.0028113633475317446 -0.0014950916063911747 -0 -4.369785032506659e-05 -0.0010885404976024948
leaf_count=31 32 87 27 65 27
internal_value=0 -0.0251824 0.0852238 -0.0674002 -0.032791
internal_count=269 238 59 179 92
shrinkage=0.0162782


Tree=106
num_leaves=6
num_cat=0
split_feature=0 1 0 8 0
split_gain=11.0604 1.738 0.530951 0.206604 0.177981
threshold=-1.2610353870357349 -0.20314941668647138 0.3524307392933253 1.0000000180025095e-35 -0.077826894394424209
decision_type=2 2 2 2 2
left_child=-1 2 3 -2 -3
right_child=1 4 -4 -5 -6
leaf_value=0.0078931458459255421 0.00011865763585477421 -0.00036529364372655165 -0.0012676175436775517 0.002594220585649773 -0.0027401150849631385
leaf_count=39 41 27 27 22 113
internal_value=0 -0.0789331 0.0199092 0.0783931 -0.149257
internal_count=269 230 90 63 140
shrinkage=0.0160936


Tree=107
num_leaves=7
num_cat=0
split_feature=0 7 3 0 1 1
split_gain=0.583037 0.413682 0.226113 0.274023 0.0602621 0.0364087
threshold=-0.58875783439862661 3.5000000000000004 1.0000000180025095e-35 1.0515993940359183 -0.4135865251698792 -0.20314941668647138
decision_type=2 2 2 2 2 2
left_child=1 -1 5 4 -4 -2
right_child=2 -3 3 -5 -6 -7
leaf_value=-0 -0 0.0046396852356435673 -0 -0.00256765272088047 0.0016766630744960095 -0.0029214416689223172
leaf_count=22 26 51 23 30 70 47
internal_value=0 0.083229 -0.0197032 0 0.0334062 -0.0639459
internal_count=269 73 196 123 93 73
shrinkage=0.0347631


Tree=108
num_leaves=7
num_cat=0
split_feature=0 0 8 1 1 1
split_gain=4.45711 0.829186 0.148956 0.377701 0.0248963 0.0981099
threshold=-1.4761642038796097 0.13730192244945053 -0.56932768187977412 0.12413496331351566 0.69054151012059961 0.18009149735637878
decision_type=2 2 2 2 2 2
left_child=-1 2 -2 -4 5 -3
right_child=1 4 3 -5 -6 -7
leaf_value=0.0064195644554665057 -0.00018810948578708159 -0.0014330634255319879 0.0019647768093612721 -0.00052415235652178514 -0.0026593647800252514 -0
leaf_count=36 29 66 53 20 38 27
internal_value=0 -0.0338504 0.02636 0.0542238 -0.0881521 -0.0549883
internal_count=269 233 102 73 131 93
shrinkage=0.0189705


Tree=109
num_leaves=5
num_cat=0
split_feature=0 0 0 3
split_gain=4.79442 0.22191 0.0451508 0.114902
threshold=-1.2072531828247663 -0.58875783439862661 0.9978171898249496 0.46727932077900874
decision_type=2 2 2 2
left_child=-1 -2 -3 -4
right_child=1 2 3 -5
leaf_value=0.0054075363003069938 0 -0.0014261785897877657 0.00010377356336180412 -0.0010400874385787316
leaf_count=35 34 148 21 31
internal_value=0 -0.0611193 -0.0739695 -0.0168455
internal_count=269 234 200 52
shrinkage=0.0163776


Tree=110
num_leaves=9
num_cat=0
split_feature=0 0 8 0 3 1 1 8
split_gain=0.534805 0.295613 0.224188 0.140085 0.188614 0.0160708 0.0413206 0.019961
threshold=-1.3685997954576725 -0.13160909860539288 1.0000000180025095e-35 0.29864853508235661 0.46727932077900874 0.041573737798890932 -0.4135865251698792 -0.47431181195515953
decision_type=2 2 2 2 2 2 2 2
left_child=-1 2 -2 4 -3 6 -5 -7
right_child=1 3 -4 5 -6 7 -8 -9
leaf_value=0.0046507331438661089 0 0.0052315114065817556 -0.0052513645223701512 -0.0011120214025576876 -0 0 0.001240428195054957 -0.0011804875567609221
leaf_count=40 24 20 35 20 25 20 30 55
internal_value=0 -0.0129335 -0.0744609 0.00288277 0.0539253 -0.00783818 0 -0.0177007
internal_count=269 229 59 170 45 125 50 75
shrinkage=0.0422234


Tree=111
num_leaves=9
num_cat=0
split_feature=6 0 0 0 0 8 0 0
split_gain=0.458607 0.0491016 0.0907613 0.0659229 0.029896 0.0353303 0.00630657 0.000713225
threshold=0.7117035203633213 0.2448663308713879 1.1591638024578557 0.029737514027513141 -0.77699554913701696 0.656377040147755 0.62134176034816868 -0.29295571123829889
decision_type=2 2 2 2 2 2 2 2
left_child=1 3 6 4 5 -1 -3 -6
right_child=-2 2 -4 -5 7 -7 -8 -9
leaf_value=-0.0016494649165627051 0.0040840986755724699 0.0006894420663615486 -0.0019364474419803735 -0.0030658451731524878 0.00016930752249060316 0 0 -0
leaf_count=31 27 48 24 22 29 21 46 21
internal_value=0 -0.0171243 -0 -0.0310303 -0.00823341 -0.0263783 0.0117027 0
internal_count=269 242 118 124 102 52 94 50
shrinkage=0.0347235


Tree=112
num_leaves=10
num_cat=0
split_feature=1 8 1 0 8 0 1 0 1
split_gain=0.44472 0.16096 0.15272 0.559781 0.0389069 0.00718956 0.077984 0.00416894 0.00409328
threshold=0.57398762367288192 0.656377040147755 -0.56297286796019186 -0.13160909860539288 0.656377040147755 0.67512396455913748 0.0127419869407713 -0.83077775334798576 -0.15575439238038571
decision_type=2 2 2 2 2 2 2 2 2
left_child=2 -2 4 -4 7 8 -7 -1 -5
right_child=1 -3 3 5 -6 6 -8 -9 -10
leaf_value=-0.00022259371174406425 -0.00056922335105895133 -0.0056883864029968955 0.0051509781033391303 0.00054243425431744726 -0.0015787722895758665 -0.0021455635580222335 0 0.00036210985908534236 -0
leaf_count=22 44 20 33 24 24 21 21 29 31
internal_value=0 -0.0793632 0.0141241 0.0372239 -0.0127208 -0 -0.0110372 0 0.00590297
internal_count=269 64 205 130 75 97 42 51 55
shrinkage=0.0348845


Tree=113
num_leaves=9
num_cat=1
split_feature=0 2 3 8 8 0 0 0
split_gain=0.385213 0.494125 0.32531 0.536956 0.0437504 0.0397137 0.0395566 0.00776001
threshold=-0.34673791544926758 0 -0.26723596940162875 0.17179610353222011 -0.18926420218131557 0.3524307392933253 0.13730192244945053 0.9440349856139808
decision_type=2 1 2 2 2 2 2 2
left_child=2 4 -1 -4 6 -6 -2 -8
right_child=1 -3 3 -5 5 -7 7 -9
leaf_value=-0.00050210240952710617 0 -0.0062995663178540403 0 0.0088571632430173124 -0 0.0014294923965223368 -0.001714612701969314 -0
leaf_count=26 23 29 30 22 27 35 52 25
internal_value=0 -0.0323384 0.0491612 0.0983142 -0.00399778 0.00697442 -0.0207032 -0.0325906
internal_count=269 191 78 52 162 62 100 77
cat_boundaries=0 1
cat_threshold=4
shrinkage=0.0414688


Tree=114
num_leaves=7
num_cat=0
split_feature=1 8 3 1 1 0
split_gain=0.260462 0.360385 0.212687 0.0824704 0.0664249 0.00579357
threshold=-0.57502832715341123 -0.37929594203054484 -0.90159008364854298 0.40051703386602699 -1.030441968136198 0.40621294350429399
decision_type=2 2 2 2 2 2
left_child=4 3 -3 5 -1 -2
right_child=1 2 -4 -5 -6 -7
leaf_value=0 -0.00056781099581239389 0 -0.0029640819194879111 0.0022142524176635933 0.0025875080812866671 0.00010699082705521842
leaf_count=36 20 20 90 27 41 35
internal_value=0 -0.0227707 -0.0623991 0.0184525 0.0453463 -0
internal_count=269 192 110 82 77 55
shrinkage=0.0352104


Tree=115
num_leaves=7
num_cat=0
split_feature=8 1 8 1 0 1
split_gain=0.45157 0.234059 0.0513426 0.0516154 0.0250268 0.002913
threshold=0.076780233607605455 1.4583702423860734 -0.2842800721059302 -0.53948872676632109 0.3524307392933253 0.064977864883072237
decision_type=2 2 2 2 2 2
left_child=2 -2 3 -1 -5 -6
right_child=1 -3 -4 4 5 -7
leaf_value=0.0018134832951617246 0.004193048959717156 -0 -0.0010966028709093936 -0.0011845008987356577 0.00042679495522673938 -0
leaf_count=25 74 22 70 28 25 25
internal_value=0 0.0771268 -0.00351692 0.00306756 -0 3.08412e-05
internal_count=269 96 173 103 78 50
shrinkage=0.0403211


Tree=116
num_leaves=8
num_cat=2
split_feature=0 1 8 1 1 4 4
split_gain=5.70512 0.859471 0.283273 0.441592 0.127295 0.146971 0.0865363
threshold=-1.4223819996686411 0.030945196895134527 -0.37929594203054484 -0.35981704345852938 1.5048451044307296 0 1
decision_type=2 2 2 2 2 1 1
left_child=-1 2 6 -4 5 -3 -2
right_child=1 4 3 -5 -6 -7 -8
leaf_value=0.0076589161501595957 -0.0011925806324055571 -0.0018561938344070108 0.0031478121118149968 -0 -0.0038290183352045096 -0 0
leaf_count=39 28 61 32 24 23 39 23
internal_value=0 -0.0342371 0.024054 0.0765958 -0.0927951 -0.0597012 -0.0147718
internal_count=269 230 107 56 123 100 51
cat_boundaries=0 1 2
cat_threshold=2 2
shrinkage=0.0205274


Tree=117
num_leaves=8
num_cat=0
split_feature=8 0 0 6 1 1 1
split_gain=1.08727 0.181167 0.0765936 0.100061 0.0698131 0.105434 0.0161642
threshold=1.2359738466879044 1.0515993940359183 -0.88455995755895434 -1.3404856814711956 0.38903500912558248 -0.002660729174459127 0.18009149735637878
decision_type=2 2 2 2 2 2 2
left_child=1 2 -1 -4 5 -5 -3
right_child=-2 6 3 4 -6 -7 -8
leaf_value=0 0.0074322774548284147 0 -0 -0.0017463928975343592 -0.0039485352068746272 1.128331813739487e-05 0.0015659667658302159
leaf_count=37 21 20 38 76 37 20 20
internal_value=0 -0.023514 -0.037554 -0.0464649 -0.0593124 -0.0283808 0.0242389
internal_count=269 248 208 171 133 96 40
shrinkage=0.0357681


Tree=118
num_leaves=8
num_cat=0
split_feature=0 0 0 1 1 1 1
split_gain=2.25532 0.242317 0.180719 0.158758 0.309231 0.101884 0.0623155
threshold=-1.4761642038796097 -0.40052011966023626 0.029737514027513141 1.1291788594384864 -0.0072482047966576256 -0.33470594870097187 -0.4135865251698792
decision_type=2 2 2 2 2 2 2
left_child=-1 5 -3 4 6 -2 -4
right_child=1 2 3 -5 -6 -7 -8
leaf_value=0.0050038173226333244 -0 0.0013068306663518308 -0.00024783039881432704 0.00086149669388030261 -0.0017871709770612321 -0.0030648273527329483 0.00089846580996648547
leaf_count=41 21 35 27 23 69 20 33
internal_value=0 -0.0184796 -0 -0.0179075 -0.0361279 -0.087358 0.00151625
internal_count=269 228 187 152 129 41 60
shrinkage=0.0216099


Tree=119
num_leaves=8
num_cat=2
split_feature=0 8 8 4 3 0 4
split_gain=1.01222 0.330017 0.122147 0.137799 0.116634 0.0521748 0.0337548
threshold=-0.23917350702733023 0.9129198889442145 -0.18926420218131557 0 -0.90159008364854298 0.45999514771526268 1
decision_type=2 2 2 1 2 2 1
left_child=1 6 3 -2 -4 -6 -1
right_child=2 -3 4 -5 5 -7 -8
leaf_value=0.00083552427245097783 -0.0012529028360064856 0.0030223665575957255 -0.00095060433864918603 -0 -0 0.00077756602391546156 0
leaf_count=45 58 31 20 35 22 36 22
internal_value=0 0.0985121 -0.0262124 -0.0505635 0 0.0257622 0.0378372
internal_count=269 98 171 93 78 58 67
cat_boundaries=0 1 2
cat_threshold=2 2
shrinkage=0.0156504


Tree=120
num_leaves=6
num_cat=0
split_feature=6 0 7 1 1
split_gain=2.08401 0.320406 0.0275831 0.0625654 0.0204453
threshold=0.7117035203633213 0.083519718238481838 3.5000000000000004 -0.49508089588864385 -0.95437522119137197
decision_type=2 2 2 2 2
left_child=1 2 -1 4 -4
right_child=-2 -3 3 -5 -6
leaf_value=-8.8560582620682147e-05 0.0050717982905943409 -0.0014745967299572376 0.00040138420266644636 0.0013283672112115654 -0.00058031240557159837
leaf_count=32 37 133 20 26 21
internal_value=0 -0.0315683 0.00245077 0.0201806 -0
internal_count=269 232 99 67 41
shrinkage=0.022975


Tree=121
num_leaves=7
num_cat=0
split_feature=8 3 0 8 0 0
split_gain=2.12886 0.297493 0.197218 0.117781 0.0130179 0.0208944
threshold=0.57086275721560176 -0.5343324385582241 0.72890616877010606 -0.37929594203054484 0.45999514771526268 1.0000000180025095e-35
decision_type=2 2 2 2 2 2
left_child=2 -2 3 4 5 -1
right_child=1 -3 -4 -5 -6 -7
leaf_value=0 0.0013867144495315444 0.0057299740967459165 -0.00097367761064359845 0.00094053653194517363 0 -0.00078761868491112892
leaf_count=21 27 35 59 78 28 21
internal_value=0 0.209813 -0 0.0193644 -0 -0.0173995
internal_count=269 62 207 148 70 42
shrinkage=0.0200608


Tree=122
num_leaves=8
num_cat=1
split_feature=0 3 4 3 0 1 0
split_gain=0.223567 0.396198 0.159832 0.341087 0.185868 0.00174215 0.0381314
threshold=-0.34673791544926758 0.46727932077900874 0 -0.5343324385582241 0.13730192244945053 0.89119022585199092 0.67512396455913748
decision_type=2 2 1 2 2 2 2
left_child=1 -1 4 -4 -2 6 -6
right_child=2 -3 3 -5 5 -7 -8
leaf_value=-0 -0.0033145385220023117 0.004451514788514313 0.0044862447311187111 -0 0 0.00015045937682616571 -0.0011285862833080376
leaf_count=38 26 41 25 38 45 20 36
internal_value=0 0.0613332 -0 0.0389782 -0.0221141 -0 -0.00404839
internal_count=269 79 190 63 127 101 81
cat_boundaries=0 1
cat_threshold=2
shrinkage=0.034552


Tree=123
num_leaves=9
num_cat=2
split_feature=6 1 1 4 8 8 4 1
split_gain=0.167846 0.170719 0.162723 0.140339 0.0694463 0.0440484 0.00784317 0.00242143
threshold=0.7117035203633213 -0.67761975146030962 -0.94744066501828128 0 0.17179610353222011 -0.37929594203054484 1 0.47833075553907417
decision_type=2 2 2 1 2 2 1 2
left_child=1 2 -1 -2 5 6 7 -3
right_child=3 4 -4 -5 -6 -7 -8 -9
leaf_value=-0 0.0031461145630483764 0.00031266416428521948 -0.0042041956608079882 -0 -0.0017279242268477726 0.0010804722790579981 -0.00056271469289922722 -0
leaf_count=41 27 28 26 22 22 54 28 21
internal_value=0 -0.0183196 -0.0600108 0.0439032 0 0.00904231 -0 0
internal_count=269 220 67 49 153 131 77 49
cat_boundaries=0 1 2
cat_threshold=2 2
shrinkage=0.034217


Tree=124
num_leaves=9
num_cat=0
split_feature=0 0 1 0 3 3 8 0
split_gain=2.64096 0.30049 0.0582731 0.116692 0.0638969 0.0452785 0.0355452 0.0415811
threshold=-1.4761642038796097 0.78268837298107485 0.2337009508483496 0.40621294350429399 0.46727932077900874 -0.90159008364854298 -0.37929594203054484 -0.13160909860539288
decision_type=2 2 2 2 2 2 2 2
left_child=-1 2 3 6 -4 -3 -2 -8
right_child=1 5 4 -5 -6 -7 7 -9
